svm_type c_svc
kernel_type rbf
gamma 0.025
nr_class 20
total_sv 296
rho 0.237622 -0.0605673 0.245381 -0.147778 0.206574 -0.251176 0.260999 0.225249 0.547709 0.584188 0.47696 0.4798 0.4228 0.559098 0.494704 0.487907 0.26745 0.273724 0.164338 -0.294012 0.00829079 -0.372287 -0.0327404 -0.461262 0.0250599 -0.0130462 0.356452 0.402449 0.269922 0.273383 0.205878 0.33633 0.291425 0.28324 0.0319344 0.0387092 -0.0762318 0.301368 -0.0888149 0.263785 -0.193463 0.316588 0.281982 0.588697 0.622714 0.522848 0.525172 0.471245 0.573849 0.539152 0.532818 0.322874 0.328816 0.222643 -0.379511 -0.040909 -0.467623 0.0196215 -0.0212765 0.385903 0.433872 0.29398 0.297637 0.224202 0.364657 0.316899 0.308242 0.0275902 0.0352766 -0.0843532 0.343792 -0.107401 0.393596 0.361057 0.643344 0.673807 0.583537 0.586095 0.537007 0.629682 0.598708 0.592998 0.399487 0.405085 0.304801 -0.435044 0.0576915 0.0197597 0.384682 0.429511 0.300011 0.303318 0.236939 0.364963 0.321051 0.313047 0.0644674 0.0712711 -0.0435577 0.48058 0.450892 0.702221 0.728449 0.650564 0.652326 0.609095 0.690424 0.663392 0.658514 0.486379 0.491054 0.399139 -0.0380875 0.334344 0.382459 0.246547 0.250006 0.181665 0.313823 0.270102 0.260087 0.00691161 0.013559 -0.101028 0.367707 0.413297 0.281986 0.285379 0.218282 0.347724 0.303231 0.295204 0.044909 0.0515496 -0.0632652 0.0537136 -0.112847 -0.0996963 -0.177241 -0.0247063 -0.0726162 -0.0880758 -0.328302 -0.370158 -0.422976 -0.173609 -0.156352 -0.232271 -0.0821619 -0.126831 -0.144957 -0.375763 -0.422112 -0.467943 0.00416335 -0.0751348 0.086356 0.0276374 0.0170072 -0.240915 -0.268012 -0.340187 -0.0787568 0.075152 0.0213356 0.0116586 -0.243627 -0.272 -0.342538 0.172104 0.0998397 0.0902956 -0.175189 -0.189081 -0.277771 -0.0498036 -0.0635869 -0.307705 -0.346467 -0.402925 -0.00968641 -0.261954 -0.29363 -0.359529 -0.253667 -0.283864 -0.351881 0.00672136 -0.108375 -0.11448
label 49 50 51 52 53 54 55 56 57 97 98 99 100 101 102 103 113 118 120 122
nr_sv 5 13 8 8 8 16 5 19 12 26 22 18 21 13 16 25 27 10 14 10
SV
0.6344981262106085 0.4791165220134032 0.6372338866884216 0.4403350225541504 0.6182551654682734 0.3844978547933469 0.649234565034955 0.6324697248133191 0.79617299808229 0.8126498094601237 0.7570016086745474 0.7581338608895606 0.7290850770838181 0.675628116662491 0.7680453703495085 0.7625450115370986 0.6493396281057402 0.6527373350069711 0.5978522701360278 1:2 2:4 3:5 4:4 5:3 6:3 7:3 8:3 9:3 10:3 11:3 12:3 13:3 14:3 15:3 16:3 17:5 18:7 19:2 20:5 21:17 22:18 23:18 24:2 25:1 
0.6336520747983067 0.481301171082689 0.6388252410135431 0.4392737539649395 0.6180574842072746 0.3844821318933431 0.6514230028109688 0.6324435763592714 0.7931228818777931 0.812161669353625 0.7566951332119272 0.7586158956903661 0.7281567327695472 0.6212396771188849 0.7658180354791571 0.7629678294174429 0.6493435730120892 0.6524100293213643 0.5964553245809242 1:1 2:4 3:5 4:3 5:3 6:3 7:3 8:3 9:3 10:3 11:3 12:3 13:3 14:3 15:3 16:3 17:5 18:7 19:2 20:4 21:17 22:17 23:18 24:2 25:1 
0.6336973219790987 0.4852730546685473 0.6400465346785953 0.4366316129962583 0.6179104941719897 0.3834324888571936 0.6470678599024684 0.628918728195063 0.7953365863813593 0.8128982822756655 0.7564208172870841 0.7552196026106981 0.730642350785234 0.7561240653857493 0.7629811936859912 0.7566036842994481 0.6489347705169014 0.6528340641580406 0.5922512330668832 1:2 2:5 3:6 4:4 5:3 6:3 7:3 8:3 9:3 10:3 11:3 12:3 13:3 14:3 15:3 16:3 17:5 18:7 19:1 20:3 21:5 22:17 23:18 24:18 25:2 26:1 
0.03124608616091868 0.02614155452657518 0.0314213908691368 0.01512178624926701 0.03065770339356267 0.01708840062913574 0.02366385354581826 0.02165351797038669 0.03568487657848454 0.03860634759384671 0.03712269480045269 0.03704079993100198 0.03652104161830105 0.4549634353159024 0.03522998227638476 0.03696179818784934 0.03221456864921024 0.03209490358714145 0.02857062197929243 1:2 2:4 3:5 4:3 5:3 6:3 7:3 8:3 9:3 10:3 11:3 12:3 13:3 14:3 15:3 16:3 17:5 18:7 19:2 20:4 21:17 22:18 23:18 24:2 25:1 
0.6347897289710225 0.4777476200924106 0.6362818720008256 0.4369404453834557 0.6183477746987027 0.3846682376030943 0.6456120970943474 0.6270089174473727 0.7913823850582695 0.8107605387847687 0.7569464163855774 0.76184934859994 0.72741421416661 0.9299119378295404 0.7690545980201556 0.7683909353046817 0.6503429501909777 0.6526759467128865 0.60128737045523 1:2 2:5 3:6 4:3 5:3 6:3 7:3 8:3 9:3 10:3 11:3 12:3 13:3 14:3 15:3 16:3 17:5 18:7 19:1 20:3 21:4 22:17 23:18 24:18 25:2 26:1 
-0.03535643538934683 0.03360744444673354 0.0470871167262732 0.02780484212372806 0.04552839748958227 0.025775387639847 0.04782392841618771 0.04450471698068194 0.06285335048199543 0.06266370683684981 0.05790770141427072 0.05760263591346378 0.05598779035633786 0.06142245724522792 0.05895638835510682 0.05746038072832924 0.0489287498028694 0.04720989499995205 0.043416425321888 1:7 2:8 3:5 4:3 5:3 6:3 7:3 8:3 9:3 10:3 11:3 12:2 13:2 14:2 15:2 16:12 17:12 18:12 19:5 20:5 21:7 22:6 23:6 24:6 25:7 26:8 27:9 28:11 29:10 30:8 
-0.06014383860041554 0.05035050139404895 0.07916545366617983 0.04778667512794853 0.07481486374701271 0.04288215829194532 0.07835317072198206 0.08206866510404595 0.1060009399371614 0.1101019625111006 0.09496873606193795 0.09787358834416242 0.09600655289010895 0.1046908017472425 0.1026604299585121 0.1012534008492784 0.08044366149098706 0.0855791617604119 0.06931005904620291 1:8 2:9 3:5 4:4 5:3 6:3 7:4 8:3 9:4 10:4 11:3 12:4 13:2 14:2 15:2 16:12 17:12 18:12 19:5 20:6 21:7 22:7 23:6 24:7 25:9 26:8 27:11 28:12 29:10 30:8 
-0.3133825604467854 0.2906704559753467 0.414509334828451 0.259445896799094 0.3982653102803703 0.2212907086594078 0.4218801902006609 0.4051656943163886 0.5578342134844301 0.5781918618692002 0.5244561336900962 0.5257234016069585 0.4962382730823299 0.5494471174103824 0.5317244755805625 0.5289820925843761 0.4241452095522637 0.4267184146528402 0.3800732149310752 1:8 2:10 3:4 4:3 5:3 6:3 7:3 8:3 9:3 10:3 11:3 12:2 13:2 14:2 15:2 16:11 17:12 18:12 19:4 20:6 21:7 22:7 23:6 24:7 25:7 26:8 27:9 28:11 29:10 30:7 
-0.4004233933134935 0.3696216095699259 0.5285397517963997 0.3293523829620421 0.5076540285356703 0.2828055075532739 0.5391614607869599 0.5177268976689207 0.712878021801871 0.7360617162974412 0.6673092301332654 0.6683271243691272 0.6330891620950317 0.701498207243805 0.6778111008408474 0.6731510881313799 0.5400377819981055 0.5509521958294902 0.4867240708384178 1:8 2:8 3:5 4:3 5:3 6:3 7:4 8:3 9:4 10:3 11:3 12:3 13:2 14:2 15:3 16:12 17:12 18:12 20:3 21:2 22:2 23:2 24:1 25:5 26:6 27:7 28:7 29:6 30:6 31:8 32:8 33:10 34:11 35:11 36:8 
-0.00564248907718546 0.005108845902275352 0.0103871112069242 0.007498184249641567 0.009061624335392341 0.003696531072350614 0.01036136292838405 0.008107935411628076 0.01128604082358067 0.0127678128974421 0.01183947374510861 0.01275394631104269 0.01229996233869159 0.01203428722876886 0.01205455111119396 0.01390115354121934 0.009601087286002152 0.008737900247674211 0.008696085528965997 1:9 2:8 3:5 4:4 5:3 6:3 7:4 8:3 9:4 10:4 11:3 12:3 13:2 14:2 15:3 16:11 17:12 18:12 19:4 20:6 21:7 22:7 23:6 24:6 25:8 26:8 27:11 28:13 29:11 30:8 
-0.185538000378978 0.179048075596469 0.2439548429272909 0.1533531680114696 0.2351004935168101 0.1290100459412502 0.250396161217728 0.2360114187227098 0.3291501939078793 0.3376048468840376 0.312725762281374 0.3088867883627717 0.290458375212274 0.3261972589411065 0.3119269693900848 0.3103581727620165 0.2501159988274372 0.2467271144402239 0.2267435473293788 1:9 2:8 3:5 4:4 5:3 6:3 7:4 8:3 9:4 10:4 11:3 12:4 13:2 14:2 15:2 16:12 17:12 18:12 19:6 20:6 21:7 22:7 23:6 24:6 25:9 26:8 27:11 28:12 29:10 30:8 
-0.2290842341634831 0.2106031453761459 0.3028839686389037 0.186913405312182 0.2905205986587865 0.163958179962082 0.3073645903350679 0.2962642187866603 0.4088956190323598 0.4233807956146434 0.380216426092566 0.3829269624828283 0.3614370982705717 0.4000534637811349 0.3874203441992461 0.3829446310279112 0.3108027560697251 0.3144140859252912 0.2774573353421639 1:9 2:8 3:5 4:4 5:3 6:3 7:4 8:3 9:4 10:4 11:3 12:3 13:2 14:2 15:4 16:12 17:12 18:12 19:6 20:6 21:7 22:7 23:7 24:6 25:9 26:8 27:11 28:12 29:10 30:8 
-0.3988762667564671 0.3695689983533763 0.5301343753663661 0.3294291460034253 0.5074448233451622 0.282607926300529 0.5377583101312946 0.5176792843609314 0.7118140925700425 0.7355082704458852 0.6685644851264372 0.6710167902655421 0.6323095472312267 0.7009617112242412 0.680628905781323 0.6737163600039744 0.5450786647150436 0.5446738517167232 0.4867247189556524 1:8 2:8 3:5 4:4 5:3 6:3 7:4 8:3 9:4 10:4 11:3 12:3 13:2 14:2 15:2 16:12 17:12 18:12 20:3 21:2 22:2 23:2 24:1 25:5 26:6 27:7 28:6 29:6 30:6 31:9 32:8 33:11 34:12 35:10 36:8 
-0.08908007899574383 0.07424319165530283 0.118588351432444 0.08130673969208417 0.1118594707699056 0.05990451762696762 0.1213371190711185 0.1172730036380815 0.1581274025448408 0.1689217112214074 0.1495874372084164 0.1531644364556307 0.1422609529505641 0.1540405465164901 0.1574092081068343 0.1605399966187172 0.1198487144765242 0.1195239173203501 0.1070241370826788 1:8 2:6 3:4 4:3 5:3 6:3 7:4 8:3 9:4 10:3 11:3 12:2 13:2 14:2 15:3 16:12 17:12 18:12 19:5 20:6 21:6 22:7 23:6 24:6 25:7 26:8 27:10 28:11 29:10 30:7 
-0.1341527664521237 0.1320832736709747 0.1758412103196308 0.1025314043464959 0.1700549853187722 0.0971817395465905 0.1774522595533513 0.172907289386802 0.2383512932922168 0.2425170334437109 0.2218004090564941 0.2191898674362891 0.2102895790382398 0.2371503023251493 0.2207298482614357 0.2157822875966391 0.1809436250050752 0.1853187429339288 0.1624352096423694 1:8 2:6 3:4 4:3 5:3 6:3 7:4 8:3 9:4 10:3 11:3 12:2 13:2 14:2 15:3 16:11 17:12 18:12 19:4 20:6 21:6 22:7 23:6 24:6 25:7 26:8 27:10 28:11 29:10 30:7 
-0.03950609560063315 0.03753996471346003 0.05039627262545028 0.03127328667933064 0.04904020945131914 0.02723200785467424 0.05040757433693146 0.05040501576218543 0.06756827807158738 0.0705478596221854 0.06124789325886226 0.06116748798835529 0.06095296813614888 0.06724335757890736 0.06195408306958104 0.06462383967180563 0.04990436430387518 0.05018285312299132 0.04285899004833332 1:8 2:8 3:5 4:4 5:3 6:3 7:4 8:3 9:4 10:3 11:3 12:3 13:2 14:2 15:2 16:12 17:12 18:12 20:3 21:2 22:2 23:2 24:1 25:5 26:6 27:7 28:6 29:6 30:6 31:8 32:8 33:11 34:11 35:11 36:8 
-0 0 0 0 0 0 0 0 0.2149877211260648 0.2486927023174646 0.1289392406546094 0.1306280142237216 0.06990696295181385 0.1950652938280457 0.1474325630319459 0.1396629047230174 0 0 0 1:8 2:7 3:4 4:3 5:3 6:3 7:4 8:3 9:3 10:3 11:3 12:2 13:2 14:2 15:3 16:11 17:12 18:13 19:1 20:4 21:6 22:6 23:7 24:6 25:6 26:7 27:8 28:10 29:11 30:10 31:7 
-0.6766971789452995 0.6265027261139851 0.8945664484385979 0.5575567401879562 0.8584508740733046 0.4785497535401302 0.9098979342019071 0.8766422590235409 0.9894744753635496 0.9966042158277821 0.9979595985586397 1 1 0.9911869044590885 0.9989777575043183 1 0.9158262606544758 0.9258056406946277 0.8201584617551479 1:8 2:7 3:4 4:3 5:3 6:3 7:4 8:3 9:3 10:3 11:3 12:2 13:2 14:2 15:3 16:11 17:12 18:13 19:1 20:4 21:6 22:6 23:7 24:6 25:6 26:7 27:8 28:10 29:11 30:10 31:7 
-0.3440468593917534 -0.4190385168467896 0.4218754546873987 0.2884283847721688 0.4092645768734156 0.260625912797149 0.4263969931825061 0.4157136220600612 0.5133551285644616 0.5260469343769966 0.4931214001375019 0.4947401867413832 0.4761012338816469 0.5094540499808375 0.4992498256244921 0.4967104180793666 0.4290692776870565 0.4310572467334786 0.395966265482927 1:7 2:6 3:5 4:3 5:3 6:4 7:3 8:4 9:4 10:4 11:3 12:3 13:3 14:3 15:3 16:4 17:6 18:6 19:4 20:4 21:2 22:2 23:3 24:7 25:10 26:13 27:15 28:10 29:4 
-0.0364694033887781 -0.04350423427661912 0.04305168277649812 0.03339888037142356 0.04225025552704664 0.02647441381761126 0.04369118881171167 0.04453169529243245 0.05387125039715208 0.05534108036402296 0.04944157341023375 0.05121010482920603 0.05118635658321716 0.0514649128921036 0.04993728465170877 0.04891209578824492 0.0439491239013529 0.04393756846183311 0.04050188169095496 1:7 2:7 3:5 4:3 5:3 6:3 7:3 8:4 9:4 10:4 11:4 12:3 13:3 14:3 15:4 16:5 17:5 18:6 19:4 20:4 21:3 22:2 23:3 24:6 25:9 26:14 27:15 28:10 29:6 
-0.4450142401630127 -0.5420422540847983 0.5454418276821962 0.4159521207145966 0.5289312450767147 0.337394295100845 0.5510747753752867 0.536411789989709 0.6646953422794127 0.6790811423094286 0.6386381373833313 0.6379732776333494 0.615623426631688 0.6584011360052832 0.6436712289952907 0.6410280656617433 0.5526520433875463 0.5553972730690444 0.5114758164832444 1:7 2:7 3:6 4:4 5:3 6:3 7:3 8:4 9:4 10:3 11:3 12:3 13:3 14:3 15:3 16:4 17:5 18:6 19:5 20:5 21:3 22:2 23:3 24:5 25:9 26:13 27:15 28:10 29:4 
-0.1040742945598847 -0.1295765438583496 0.1248254470838231 0.06219677382727101 0.1194334204918394 0.07692022784374673 0.1268034151564825 0.1229636543499049 0.1526919291435512 0.157846931220179 0.1477449674546564 0.1477571396861398 0.1425864019518237 0.1524587421751757 0.1532369439188978 0.1497221019853927 0.1285346525030735 0.1287966664707149 0.1135246636818436 1:8 2:7 3:5 4:3 5:3 6:3 7:4 8:4 9:4 10:5 11:4 12:4 13:3 14:3 15:4 16:5 17:8 18:8 19:6 20:4 21:3 22:2 23:3 24:7 25:9 26:16 27:15 28:14 29:6 
-0.427513193988504 -0.5228357019239707 0.524414899697985 0.364649243590344 0.5083255050346207 0.3252073651560202 0.5302972548024448 0.5160274071233824 0.6395314249257106 0.6542203992693582 0.613342661022344 0.6160253771164351 0.5927753794031144 0.6347304295107246 0.621502321249491 0.6188323344822785 0.5327428531650754 0.5355264913763703 0.4938515679753925 1:7 2:9 3:5 4:3 5:3 6:3 7:4 8:4 9:4 10:5 11:4 12:4 13:3 14:3 15:4 16:4 17:8 18:8 19:5 20:4 21:4 22:2 23:4 24:7 25:9 26:16 27:15 28:14 29:5 
-0.1607165484857227 -0.1980977776428681 0.1989133344731584 0.1191610054334116 0.193765087595173 0.1249862853568829 0.2022986133789225 0.1950001264785783 0.2446152727574298 0.247445800268451 0.2359074971634728 0.233822117973635 0.224264171747042 0.2431651350381807 0.2380243834099095 0.2378591787564737 0.2039140800443345 0.204836151952291 0.1881638890090166 1:7 2:7 3:5 4:3 5:3 6:3 7:3 8:4 9:4 10:4 11:4 12:3 13:3 14:3 15:3 16:5 17:5 18:6 19:4 20:4 21:3 22:2 23:3 24:5 25:9 26:13 27:15 28:11 29:6 
-0.30751887809181 -0.3746429330955201 0.3782504920807995 0.2827173414984972 0.3696516147138959 0.2364562486244083 0.3837993816734111 0.3726894791363417 0.4624159031262038 0.4724695638001548 0.4425119842178233 0.443258671092244 0.4288822540784507 0.4591303439975187 0.4462100995691347 0.446100725004321 0.3850590042902016 0.3863101677897313 0.3578409382565376 1:8 2:6 3:5 4:3 5:3 6:3 7:4 8:5 9:5 10:5 11:4 12:4 13:3 14:3 15:4 16:4 17:8 18:8 19:6 20:4 21:3 22:3 23:4 24:7 25:9 26:16 27:15 28:13 29:5 
-0.1242265043141597 -0.1492102710391285 0.1553479122945078 0.1276425228209823 0.1511730833090634 0.09449545513862405 0.1552828534436725 0.1527689976240931 0.1887193553636673 0.190135764602951 0.1794490646064361 0.178814846137707 0.172599612328968 0.1847628580822342 0.1769831022420627 0.1782186116159542 0.1554565858120488 0.1568035682033752 0.1462711676016639 1:8 2:8 3:5 4:3 5:3 6:3 7:4 8:4 9:4 10:5 11:4 12:4 13:3 14:3 15:3 16:5 17:8 18:8 19:6 20:4 21:4 22:2 23:3 24:7 25:9 26:15 27:15 28:14 29:6 
-0 -0 -0 0 0 0 0.023137017677149 0 0.4055949105310165 0.4501467065025918 0.2948495635110828 0.2976474739020292 0.2248109849914429 0.3690324451250847 0.3186650076247564 0.3129610452153677 0.02930435724638946 0.0391875031955583 0 1:4 2:4 3:5 4:5 5:5 6:4 7:5 8:5 9:4 10:4 11:5 12:13 13:13 14:3 15:3 16:3 17:5 18:7 20:3 21:2 22:2 23:2 24:1 25:3 26:4 27:4 28:4 29:5 30:4 31:5 32:7 33:18 34:18 35:18 36:4 37:3 
-0.3582859003796176 -0.4698243556560638 -0.3305728971383437 0.2940835382072799 0.4538372473344113 0.2518983828098466 0.4830544884240706 0.4634783734977061 0.6561480009423919 0.6780459667027752 0.6143477619725809 0.6151372264966559 0.5806853018821446 0.6464997973686117 0.6238011714234681 0.618631045427555 0.4868638432649216 0.4899673488516916 0.4342010964927472 1:4 2:4 3:5 4:5 5:5 6:5 7:5 8:5 9:5 10:4 11:6 12:13 13:13 14:3 15:3 16:3 17:5 18:7 19:3 20:5 21:5 22:4 23:5 24:5 25:5 26:7 27:18 28:18 29:18 30:4 31:3 
-0.2274588712290159 -0.2988799496893502 -0.2099308846500865 0.1877907198972724 0.2880950334162611 0.1601783398370077 0.3093686252396748 0.2946385098384353 0.4176704631221962 0.4299747375567737 0.3908756712284622 0.3903253684522411 0.3703369544363401 0.4104917531951156 0.3967999214486617 0.3936779767585974 0.3090948234347083 0.3122516816104871 0.2764070466262389 1:4 2:4 3:5 4:5 5:4 6:4 7:4 8:5 9:4 10:4 11:4 12:13 13:13 14:3 15:3 16:3 17:4 18:6 19:3 20:3 21:4 22:4 23:3 24:4 25:5 26:7 27:18 28:18 29:18 30:3 31:2 
-0.754471807919334 -0.9918610535848873 -0.6983422387173477 0.6209958491729481 0.9592723698747107 0.5323969532492626 0.9968328591381778 0.9791711896987363 0.9803149345846462 0.9838012620089146 0.9992695526520756 1 0.9993829506716153 0.9957321725728259 0.9981997503537663 0.9957532286067291 0.9983388830946973 0.9965622787157843 0.9156373440388023 1:4 2:4 3:5 4:5 5:5 6:4 7:5 8:5 9:4 10:4 11:5 12:13 13:13 14:3 15:3 16:3 17:5 18:7 20:3 21:2 22:2 23:2 24:1 25:3 26:4 27:4 28:4 29:5 30:4 31:5 32:7 33:18 34:18 35:18 36:4 37:3 
-0.7548216916653402 -0.9915631837704508 -0.698587064847852 0.6209988763791363 0.959360894144262 0.53251536003148 1 0.9787349280296543 1 1 1 1 1 1 1 1 1 1 0.9158078876941843 1:4 2:4 3:4 4:5 5:5 6:5 7:6 8:6 9:6 10:5 11:6 12:14 13:14 14:3 15:3 16:3 17:5 18:7 20:4 21:3 22:10 23:2 24:2 25:1 26:3 27:5 28:4 29:4 30:5 31:4 32:5 33:6 34:18 35:18 36:18 37:4 38:3 
-0.01898640555255305 -0.02604480545518607 -0.01818134666658282 0.01594792131461685 0.02581917159570946 0.01426878457303006 0.0259271692167142 0.02576689675732184 0.03645006623486807 0.03973360269506557 0.03414603924020009 0.03290054123060681 0.03085181002313583 0.03612735001516885 0.03494304809755017 0.03479572062566046 0.0268085468618316 0.02708323496598969 0.02315956094841263 1:4 2:4 3:5 4:4 5:4 6:4 7:4 8:4 9:4 10:4 11:5 12:13 13:13 14:3 15:3 16:3 17:5 18:7 19:3 20:4 21:4 22:3 23:3 24:4 25:4 26:7 27:18 28:18 29:18 30:4 31:3 
-0.08822346622879329 -0.1169949634777835 -0.08324778767306437 0.0730846049268971 0.1131829404349846 0.06307894093537358 0.1192261493714641 0.1153190165195569 0.1630218003210244 0.1687740590791169 0.1502215425078221 0.1534450888174173 0.1434567640778083 0.1604360028106833 0.15522364696118 0.1551669956413421 0.1211063362474223 0.1214368138593095 0.1079257907702592 1:4 2:5 3:5 4:5 5:5 6:4 7:5 8:5 9:4 10:4 11:5 12:13 13:13 14:3 15:3 16:3 17:5 18:7 19:3 20:4 21:4 22:4 23:5 24:4 25:6 26:7 27:18 28:18 29:18 30:4 31:3 
-0.3815607822758689 -0.5008859263391897 -0.3532588310830896 0.3129472661195826 0.4843478317159723 0.2687065285111522 0.5141171989464949 0.4941125675846462 0.7001631176969547 0.7251628116859142 0.6533121650439198 0.6561597771360179 0.6180163484548755 0.6894972754821456 0.664726882511385 0.6606514549427763 0.5192228341733036 0.523128877272742 0.4620230401800078 1:3 2:4 3:4 4:5 5:4 6:4 7:4 8:4 9:4 10:4 11:5 12:13 13:13 14:3 15:3 16:3 17:4 18:6 19:3 20:4 21:3 22:4 23:3 24:4 25:4 26:4 27:18 28:18 29:18 30:4 31:3 
-0.4972523144649391 -0.5951161510551625 -0.4657695733420942 -0.5981433070902671 0.5831342947987584 0.3858642042988147 0.6041933649469725 0.5896921148501074 0.7118090896638921 0.7250075234829743 0.6865269994425846 0.6879668209365664 0.6660352970573922 0.7060743220089988 0.6930417576191008 0.6900242740071141 0.6066066115215397 0.6092083707522555 0.5659448678165185 1:10 2:10 3:10 4:2 5:1 6:1 7:2 8:7 9:5 10:4 11:4 12:3 13:3 14:3 15:5 16:5 17:7 18:7 19:12 20:9 21:6 22:5 23:6 24:8 25:11 26:12 27:12 28:8 
-0.09301629014970263 -0.1114345741658113 -0.09593919257559289 -0.1107086237023927 0.1076096656061172 0.07184307549900754 0.1128632384527482 0.1081094934155924 0.1330635711310876 0.1358993879157095 0.1268147706913016 0.1270934348938869 0.1238132495504957 0.1313019745928662 0.1292247749152714 0.1276825313105899 0.1126823577802209 0.1143206165116296 0.1054168061440214 1:10 2:10 3:10 4:2 5:1 6:1 7:2 8:6 9:4 10:4 11:4 12:3 13:3 14:3 15:3 16:4 17:5 18:6 19:10 20:8 21:5 22:5 23:6 24:8 25:9 26:12 27:10 28:8 
-0.1694025252966019 -0.2056315068089028 -0.1557635912091424 -0.2061910388427697 0.2005430787060731 0.1363850738360264 0.2086672964416814 0.2034011458807231 0.2454784279252785 0.24922124558283 0.2366588069176971 0.2383566431146843 0.2288258291566113 0.2420418386757434 0.2385454798095502 0.2381461743517422 0.2098081951468857 0.2099899188287675 0.1950852969876167 1:10 2:10 3:10 4:1 5:1 6:1 7:1 8:6 9:4 10:4 11:4 12:3 13:3 14:3 15:3 16:4 17:6 18:6 19:10 20:6 21:6 22:5 23:6 24:8 25:9 26:12 27:10 28:8 
-0.3531502721332539 -0.4199738882906308 -0.3361352687801695 -0.4241890005360786 0.4128592404436244 0.2744856963206472 0.4274097056047041 0.4198723988582476 0.5038719207474208 0.5138879895842808 0.4867106823291844 0.4867562630991513 0.4727948592137906 0.5020035929670243 0.4903453689547652 0.489981824397296 0.4295653973906116 0.4296794643010816 0.4002897437442338 1:10 2:10 3:10 4:1 5:1 6:2 7:2 8:6 9:4 10:4 11:4 12:3 13:3 14:3 15:3 16:4 17:5 18:6 19:10 20:8 21:5 22:5 23:6 24:8 25:9 26:12 27:10 28:8 
-0.2847366512298439 -0.3428304580356781 -0.273813655134928 -0.3426780991131875 0.3347931583605931 0.2213998429881956 0.3473283386589184 0.3398931504730355 0.4086884708970758 0.4177388822821425 0.3942207058699958 0.3948636055287022 0.3827779077041311 0.4045522225028843 0.3972546980131058 0.3980612901710694 0.3502615258591074 0.3494002816047254 0.3269791121792949 1:10 2:10 3:10 4:1 5:1 6:1 7:1 8:7 9:6 10:4 11:4 12:3 13:3 14:3 15:3 16:5 17:7 18:7 19:11 20:6 21:5 22:6 23:7 24:7 25:10 26:12 27:12 28:10 
-0.1529218339967777 -0.1804073254709515 -0.155066521701827 -0.184116390070151 0.177355677291963 0.1181458626604278 0.1840793544297102 0.180049350170058 0.2191683539997297 0.2218773463666273 0.210129914070441 0.2097734768463848 0.2037590421986881 0.2179251505520673 0.2123890825710809 0.210866234458995 0.1840172555452483 0.1856995330990493 0.1714522002240568 1:10 2:10 3:10 4:1 5:1 6:1 7:1 8:7 9:6 10:3 11:4 12:3 13:3 14:3 15:4 16:5 17:7 18:6 19:10 20:6 21:6 22:6 23:6 24:7 25:11 26:12 27:12 28:9 
-0.2178227338769517 -0.2588579676682609 -0.2028724721142145 -0.2598223166628868 0.253920870219643 0.1681942160632764 0.2626508429403128 0.2562318071270157 0.3093291999091937 0.3153383171550259 0.2989652315988043 0.2989862336245203 0.2900317138884875 0.3067983720163179 0.3019266581021513 0.2996029358054098 0.2632393556728732 0.266300473127716 0.2451539181691499 1:10 2:10 3:10 4:1 5:1 6:1 7:1 8:7 9:6 10:3 11:4 12:3 13:3 14:3 15:3 16:4 17:6 18:8 19:11 20:6 21:5 22:6 23:6 24:7 25:10 26:13 27:12 28:8 
-0 -0 -0.008785998170726603 -0 0 0 0 0 0 0 0 0 0 0 0 0 0 0 0 1:10 2:10 3:10 4:1 5:1 6:1 7:1 8:6 9:5 10:3 11:4 12:3 13:3 14:3 15:3 16:4 17:5 18:6 19:10 20:6 21:5 22:5 23:6 24:7 25:9 26:12 27:11 28:8 
-0.4857195791393785 -0.6323203368368336 -0.4532359183417817 -0.6374831770689741 -0.4041990038009377 0.3461158173983955 0.6493018561420217 0.6312192296014171 0.8483265919022859 0.8767477322869116 0.7996748708848374 0.801313148430556 0.7602337603011162 0.8355748921787939 0.8133950453846498 0.8046452175957665 0.6539689241541288 0.6592923625480245 0.5890541564808163 1:7 2:5 3:4 4:3 5:3 6:3 7:3 8:9 9:8 10:7 11:6 12:6 13:6 14:6 15:6 16:6 17:6 18:5 19:9 20:13 21:15 22:9 23:6 24:4 25:3 26:3 27:5 28:6 29:11 30:10 31:5 
-0.06776532306845925 -0.09021912287600146 -0.07047502415793161 -0.09705209082356098 -0.06061360154479316 0.0474267773408359 0.09953092134323176 0.08717210093118437 0.1225532285623282 0.1264849784648296 0.1121338486030145 0.1135058123790054 0.1083281111252375 0.1200422797717233 0.1143266233753866 0.1138224039615508 0.09129028236351273 0.09566157197434505 0.08102770522118052 1:8 2:7 3:4 4:3 5:3 6:4 7:3 8:10 9:9 10:8 11:7 12:6 13:6 14:7 15:7 16:6 17:9 18:7 19:9 20:14 21:16 22:12 23:7 24:5 25:4 26:3 27:5 28:9 29:12 30:12 31:6 
-0.09486448365555747 -0.1300161353613778 -0.09384296825402498 -0.1362478773082633 -0.08498719447963808 0.06989047681938465 0.138749886228923 0.1330960783905752 0.1732332299664794 0.17833880518915 0.1628164245686423 0.1627707763529352 0.1533489134323905 0.1657070035877914 0.1627875041026826 0.1638170922693184 0.1293361607437886 0.1380454500529597 0.1172232018585175 1:8 2:8 3:4 4:3 5:4 6:4 7:3 8:9 9:9 10:8 11:7 12:6 13:6 14:7 15:8 16:6 17:7 18:8 19:11 20:13 21:17 22:12 23:7 24:5 25:4 26:3 27:5 28:10 29:11 30:11 31:6 
-0.4776456745032169 -0.6223040840859448 -0.443498878528351 -0.6279491380768428 -0.3952065564821177 0.3404817490744732 0.6377032429446203 0.6189239911642606 0.8342913372158259 0.8608337249719539 0.7824009371170128 0.7850511737017309 0.7450563794025974 0.8221149778090018 0.7957974789594257 0.7915805609800576 0.641501919178481 0.6447967135689894 0.5761479583873657 1:8 2:7 3:4 4:3 5:4 6:4 7:3 8:10 9:9 10:8 11:7 12:6 13:6 14:7 15:6 16:6 17:9 18:7 20:3 21:2 22:2 23:2 24:1 25:10 26:14 27:16 28:12 29:7 30:5 31:4 32:3 33:5 34:8 35:12 36:12 37:6 
-0.3771423426609858 -0.4900149824528012 -0.3499038786343988 -0.4950796395296708 -0.3120326588101849 0.2683425487501051 0.5023202887285531 0.4875196705684011 0.658060078301092 0.6796082243841918 0.6165431737261542 0.6191666974575994 0.5876314621897424 0.648888199187742 0.628313375067507 0.6234852858421306 0.5062962335638612 0.5088699461258667 0.4543825663698372 1:7 2:8 3:4 4:3 5:4 6:4 7:3 8:9 9:9 10:8 11:7 12:6 13:6 14:6 15:8 16:6 17:7 18:7 20:3 21:2 22:2 23:2 24:1 25:11 26:13 27:16 28:11 29:7 30:5 31:4 32:3 33:5 34:10 35:11 36:10 37:6 
-0.02524292542319481 -0.03288067484777565 -0.0196838651753546 -0.0332919757250577 -0.01802482544838672 0.01808180785924306 0.03277286184458771 0.03853347514597968 0.04248893761236693 0.04340587791114704 0.0365987932164677 0.03775019628511729 0.03559649914696711 0.04332780209086694 0.03647467760725535 0.04072519618480817 0.03111773594869507 0.02944868188784076 0.02501879576798413 1:7 2:5 3:4 4:3 5:3 6:3 7:3 8:9 9:8 10:7 11:7 12:6 13:6 14:6 15:7 16:6 17:6 18:6 19:9 20:13 21:15 22:9 23:6 24:4 25:3 26:3 27:5 28:9 29:11 30:10 31:5 
-0.09202151406225487 -0.1178046420238599 -0.08567601469611258 -0.1169554798412587 -0.07667423900925696 0.06512685074648736 0.1215273303263626 0.1099808442527214 0.1589445038369032 0.1647400245105128 0.1513640977655471 0.1507758467545986 0.1443565239550275 0.1562320300421974 0.1543230322052083 0.1504227097985812 0.1238424323920134 0.1248584185524524 0.1120958394000366 1:7 2:7 3:4 4:3 5:3 6:3 7:3 8:9 9:9 10:7 11:7 12:6 13:6 14:6 15:7 16:6 17:6 18:7 19:9 20:13 21:16 22:10 23:7 24:5 25:3 26:3 27:4 28:10 29:11 30:10 31:5 
-0.1830226057324154 -0.2288275147778083 -0.1523121090917497 -0.2193309248919572 -0.139162896807661 0.131521086533923 0.2334651407350783 0.2236391258332883 0.3078098030468836 0.3176153754579763 0.2938077882907014 0.2941179820778474 0.2789976103403905 0.3135526265592303 0.2979028778742377 0.2962393673299559 0.2436969729488654 0.240940459539611 0.2220608515745291 1:8 2:7 3:4 4:3 5:4 6:4 7:3 8:10 9:9 10:8 11:7 12:6 13:6 14:7 15:8 16:6 17:9 18:7 19:11 20:14 21:16 22:12 23:7 24:5 25:4 26:3 27:5 28:9 29:12 30:12 31:6 
-0.05145078586979377 -0.0666999488603479 -0.04960562660453827 -0.06594519851006826 -0.04437728050579443 0.03601850425356314 0.06854426137803164 0.06493895117376161 0.08912555593813277 0.09234226231831832 0.08646244410530553 0.08511279685095252 0.08068552170623046 0.08742390926798643 0.08733273542508613 0.08484466105460632 0.07027830117859554 0.06961220285915262 0.06415919942815791 1:8 2:5 3:4 4:3 5:3 6:3 7:3 8:9 9:8 10:7 11:6 12:6 13:6 14:6 15:6 16:6 17:6 18:7 19:10 20:13 21:15 22:10 23:6 24:4 25:3 26:3 27:5 28:7 29:11 30:11 31:4 
-0.06369904366777014 -0.08336825578637105 -0.06035263617137647 -0.08600650435592296 -0.05341514551381436 0.04550021629375174 0.08450480681495368 0.08948492884243751 0.1135502787039449 0.11697604417975 0.1060473308197316 0.1065014876913301 0.1016200247903304 0.1115906241095523 0.1085064961530665 0.1076265573176817 0.08664832783453354 0.08880579866044902 0.07852469391083397 1:7 2:7 3:4 4:3 5:3 6:3 7:3 8:9 9:8 10:6 11:7 12:6 13:6 14:6 15:6 16:6 17:7 18:7 19:9 20:13 21:16 22:9 23:6 24:5 25:3 26:3 27:5 28:9 29:11 30:10 31:5 
-0.1792181610446131 -0.2332250594198965 -0.1660390589147638 -0.2336438593638506 -0.1479314051669767 0.1274647770848926 0.2389427829828328 0.2287857495521764 0.3123590675772754 0.3226542260197096 0.2949747270593502 0.2938615826299852 0.2789341545503908 0.3079604209868834 0.2972998491152522 0.296445033138415 0.2392985919080651 0.2423690847192058 0.2156415521434442 1:7 2:8 3:4 4:3 5:3 6:4 7:3 8:9 9:9 10:8 11:7 12:6 13:6 14:6 15:7 16:7 17:7 18:7 20:3 21:2 22:2 23:2 24:1 25:10 26:13 27:16 28:11 29:8 30:5 31:4 32:3 33:5 34:9 35:11 36:10 37:6 
-0.0164320911245894 -0.02862466058308607 -0.02828968693821418 -0.03593546913512607 -0.02388873667174751 0.01155663114603446 0.02264136495721703 0.03066610654197113 0.03755143745101998 0.03927268132031602 0.03292394674208816 0.0329446710369729 0.03076692509746775 0.02657925789779087 0.03302665238622773 0.03229663276574288 0.0241507412883395 0.02731331343405851 0.01986971732651328 1:8 2:7 3:4 4:3 5:4 6:4 7:3 8:10 9:9 10:8 11:7 12:6 13:6 14:7 15:7 16:6 17:9 18:7 19:11 20:14 21:16 22:12 23:7 24:5 25:4 26:3 27:5 28:8 29:12 30:12 31:6 
-0.01281794092028381 -0.01736184004377559 -0.009328317236555101 -0.01795241449700638 -0.007397679667735456 0.009242115331401788 0.01625298344154196 0.007710720676295623 0.02315058007301083 0.02278440657199936 0.01826832011072936 0.0190309695292538 0.01776788009187663 0.02320448969873937 0.01743604001372844 0.02113349183181856 0.01519191588132729 0.0158942134966702 0.01255704519868631 1:7 2:6 3:4 4:3 5:3 6:3 7:3 8:9 9:9 10:7 11:6 12:6 13:6 14:6 15:6 16:6 17:7 18:6 19:10 20:13 21:15 22:10 23:7 24:5 25:4 26:3 27:5 28:6 29:11 30:10 31:4 
-0.004463588052944353 -0.01036485374390501 -0.0052410662044537 -0.009413055007709465 -0.005405853021879619 0.005129617814379804 0.01518651750342693 0.01863955621894581 0.01121143699870349 0.01084246899994027 0.01121881814246668 0.01101869338585335 0.009845146857221819 0.008789203444800985 0.01101956056446979 0.01115365902300609 0.007699990321648394 0.009179488187506211 0.009262761167430539 1:7 2:8 3:4 4:3 5:3 6:4 7:3 8:9 9:9 10:8 11:7 12:6 13:6 14:6 15:7 16:6 17:9 18:7 19:9 20:14 21:16 22:11 23:7 24:5 25:4 26:3 27:5 28:10 29:11 30:11 31:6 
-0.1060248875497471 -0.1338410838671669 -0.09158259576138116 -0.130337060459066 -0.08200435891910443 0.0747936119558629 0.1345299476148238 0.134386489344762 0.17876373911519 0.1847107015843093 0.1688226064786289 0.1697118015038053 0.1609318319364832 0.180833293951701 0.172815674665132 0.1719613053626038 0.1406701292356308 0.1363517152380347 0.1256440045513153 1:8 2:8 3:4 4:3 5:3 6:4 7:3 8:9 9:9 10:8 11:6 12:6 13:6 14:7 15:6 16:6 17:8 18:7 19:9 20:13 21:16 22:12 23:7 24:5 25:4 26:3 27:5 28:8 29:11 30:12 31:6 
-0.2656976754645984 -0.3399224839551362 -0.2437271439107816 -0.3412916239219763 -0.2148945495767437 0.1857524812332616 0.3466893836608007 0.3274156258368037 0.4575934119801441 0.4729787242339225 0.4275810195918026 0.4290477531519352 0.4081807703695438 0.4548482308550488 0.4374423147717679 0.43285468912714 0.3534633424915 0.34865165171941 0.3146879150853542 1:7 2:8 3:4 4:3 5:4 6:4 7:3 8:9 9:9 10:8 11:7 12:6 13:6 14:7 15:8 16:6 17:8 18:8 19:11 20:14 21:17 22:12 23:7 24:5 25:4 26:3 27:5 28:10 29:11 30:10 31:6 
-0.01320603322453355 -0.01350174039834551 -0.01177682129150997 -0.01361160986953458 -0.01448116061871636 -0.01360253965987229 0.01238360139165467 0.0134469008224845 0.01425545925189813 0.01624398778406741 0.01367017528682505 0.01499302732245557 0.0151083573265717 0.01399868789516465 0.0139570317268921 0.01494499735934732 0.01600212402195939 0.01183435470357543 0.01105877153874035 1:12 2:12 3:12 4:1 5:2 6:2 7:1 8:2 9:2 10:2 11:2 12:3 13:2 14:3 15:3 16:3 17:3 18:3 19:3 20:3 21:6 22:8 23:10 24:8 25:7 26:6 27:6 28:5 29:5 30:3 
-0.3853453874294512 -0.4537801253026377 -0.3687054884654211 -0.4545515178793462 -0.3410182014141954 -0.4457141478323247 0.4591163681851716 0.4498912789193065 0.5274953919483695 0.5364519120372229 0.511757206587547 0.5129790173509813 0.4996014060875695 0.5255974051800484 0.5176241300536254 0.5145926934505071 0.4613991164754513 0.4633023900954987 0.4362894593483784 1:12 2:12 3:12 4:1 5:2 6:2 7:1 8:1 9:2 10:2 11:2 12:3 13:2 14:3 15:3 16:3 17:3 18:3 19:3 20:3 21:6 22:8 23:10 24:9 25:7 26:5 27:5 28:5 29:5 30:3 
-0.4329889519472263 -0.5042776681598258 -0.4122004126940733 -0.5077072480727135 -0.381756532095779 -0.4955922738079612 0.5131173262963451 0.5009003641211258 0.5894174701528316 0.596964232664165 0.5724936864446928 0.5706769072056259 0.5559324397822878 0.584941455567484 0.5744286071671527 0.5731542641802769 0.5113561521797387 0.5158889947194482 0.483013512576795 1:12 2:12 3:12 4:1 5:1 6:1 7:1 8:2 9:2 10:2 11:2 12:3 13:3 14:3 15:3 16:3 17:3 18:3 19:3 20:3 21:6 22:9 23:10 24:8 25:7 26:6 27:5 28:5 29:4 30:3 
-0.2086714009658638 -0.2430484896751572 -0.1992287963564943 -0.2428500159516947 -0.1835909397223945 -0.2380664061430569 0.2449505229980872 0.2417907983475799 0.2837083274676813 0.2859813926931358 0.2739579052079789 0.2736128379199378 0.266681683803188 0.2806340837850106 0.2780153202887804 0.2750607967950723 0.2438954282471326 0.2478633876351523 0.2298311805102997 1:12 2:12 3:12 4:1 5:2 6:2 7:1 8:2 9:2 10:3 11:3 12:3 13:3 14:3 15:4 16:4 17:3 18:3 19:3 20:3 21:7 22:9 23:11 24:10 25:7 26:6 27:6 28:5 29:5 30:3 
-0.5139573402090389 -0.6002864404530819 -0.4906486850277885 -0.604322898173864 -0.4554711378153104 -0.5894697021927806 0.6098823461971915 0.5958914274610693 0.6992783207248262 0.7113154733666395 0.6792172893414583 0.6803040676114327 0.6613484721751706 0.6948089606122011 0.6822863542352682 0.6820238043109514 0.6147179514177379 0.6132138772549752 0.5778136074220886 1:12 2:12 3:12 4:2 5:2 6:2 7:2 8:2 9:2 10:3 11:2 12:3 13:3 14:3 15:4 16:4 17:3 18:3 19:3 20:3 21:7 22:9 23:10 24:10 25:7 26:7 27:6 28:5 29:5 30:4 
-0.1828624079575935 -0.2440614441470225 -0.1711795699935548 -0.2435822045727695 -0.1518852647062306 -0.2358187454869176 -0.1298006769315601 0.2405802334112793 0.33211558067889 0.3527570997746864 0.311217454759996 0.3122001283435961 0.2947674879918631 0.328261163835998 0.3139067135698327 0.3143822322434593 0.2525971702169568 0.2533629145290368 0.2241927587542601 1:7 2:8 3:7 4:6 5:7 6:9 7:9 8:7 9:8 10:10 11:8 12:8 13:7 14:6 15:7 16:8 17:9 18:9 19:5 20:11 21:16 22:16 23:11 24:8 25:6 26:9 27:10 28:15 29:16 30:12 31:5 
-0.1877499194060347 -0.2478322135899733 -0.1717794264116778 -0.2477669052094259 -0.152419361327852 -0.2334809262979221 -0.131918781866441 0.2391959844235403 0.3385072688030697 0.364477816319011 0.316380374219511 0.3171722004151856 0.2993679188272794 0.3326202951000942 0.3342066900028605 0.3204997919118549 0.2566804706459254 0.2575915630426305 0.2272040529454641 1:7 2:6 3:6 4:6 5:7 6:8 7:8 8:7 9:7 10:8 11:7 12:8 13:6 14:6 15:7 16:6 17:7 18:7 19:4 20:10 21:15 22:16 23:11 24:5 25:6 26:6 27:10 28:14 29:13 30:10 31:4 
-0 -0.003682290211010213 -0.004824351472781961 -0.002861168539587644 -0.007183199794954446 -0.02485440725007597 -0 0.01679831823022455 0.006429121335716092 0 0.003053780378841511 0.004144710144318414 0.003747060860345033 0.005350245617462057 0 0.005171368555564985 0.002122562468642809 0 0.00394611653903977 1:6 2:6 3:6 4:6 5:7 6:7 7:7 8:7 9:8 10:9 11:8 12:7 13:6 14:6 15:6 16:7 17:7 18:7 19:5 20:11 21:16 22:13 23:10 24:5 25:6 26:6 27:10 28:14 29:13 30:10 31:4 
-0.07389276168902542 -0.125489497711719 -0.09696976863553701 -0.1139793417988516 -0.09147873560523209 -0.07909384795475566 -0.07173382623034935 0.1072834128294184 0.1539970343877328 0.1613720224450065 0.1327310477087294 0.1402222321747776 0.1350810342994732 0.1479901268795099 0.1495876227121025 0.1406311394425711 0.1172102518355843 0.1109162513804737 0.1024410101879396 1:6 2:6 3:6 4:6 5:7 6:7 7:7 8:7 9:9 10:9 11:8 12:7 13:7 14:7 15:7 16:7 17:7 18:7 19:5 20:11 21:16 22:13 23:10 24:5 25:6 26:6 27:10 28:17 29:14 30:10 31:4 
-0.02743084538609802 -0.03621033865740036 -0.02506089413827792 -0.0334729232008572 -0.02278999522907603 -0.03542951860616545 -0.01861255044741212 0.03559262747993591 0.04766298579206677 0.05038179354867248 0.04369408197496042 0.04322243796108095 0.03995410715267358 0.04625736243650347 0.04575739564010152 0.04544374995437615 0.03624572474342112 0.03573857026573107 0.03257359590327508 1:7 2:8 3:7 4:6 5:7 6:9 7:9 8:7 9:8 10:10 11:8 12:8 13:7 14:6 15:7 16:7 17:9 18:7 20:3 21:2 22:2 23:2 24:1 25:5 26:11 27:15 28:16 29:11 30:8 31:6 32:9 33:10 34:15 35:15 36:12 37:4 
-0.2140722765583481 -0.2549171251643919 -0.1691860785296534 -0.268105301642885 -0.1454614338460078 -0.2801474811033506 -0.1310714278628298 0.2612934680951846 0.3666628695035168 0.3783492793167295 0.3536638757542793 0.3474210120782554 0.3262361069829865 0.3648400299442106 0.3449182686157619 0.3506874518416609 0.275312627631703 0.2840246916830406 0.2475369684252663 1:6 2:6 3:6 4:6 5:7 6:7 7:7 8:6 9:9 10:9 11:8 12:7 13:7 14:7 15:7 16:7 17:7 18:7 19:5 20:11 21:15 22:13 23:10 24:5 25:6 26:6 27:10 28:17 29:14 30:10 31:4 
-0.06305648618210262 -0.05360490369721747 -0.0251523009474974 -0.06885056090747733 -0.02041199185580906 -0.0960631838870994 -0.02899275895577302 0.05405335223385977 0.0938483175323816 0.1060549998730419 0.1008266843716344 0.09109457633668941 0.08867331201381892 0.09616320383440496 0.09340340822213111 0.1005863470244517 0.0756178216552443 0.08541815785486929 0.06779378165267837 1:6 2:6 3:6 4:6 5:7 6:7 7:7 8:7 9:9 10:9 11:8 12:7 13:7 14:6 15:6 16:7 17:7 18:6 19:5 20:11 21:16 22:13 23:10 24:5 25:6 26:6 27:10 28:14 29:14 30:10 31:4 
-0.05603416337059354 -0.07167244580592474 -0.04763677698933847 -0.07353576760335824 -0.0462276898964922 -0.07055004053622564 -0.03936329887478838 0.07916635017119482 0.1011266078206079 0.105135163713836 0.09606400051853789 0.094044346684694 0.08990163998201382 0.09931651342641773 0.106924304102423 0.09662323335767371 0.07693555054763029 0.07841031758795454 0.0677930242820903 1:6 2:7 3:6 4:6 5:7 6:7 7:7 8:6 9:8 10:9 11:8 12:7 13:7 14:6 15:6 16:7 17:8 18:6 19:5 20:11 21:14 22:13 23:10 24:6 25:6 26:7 27:10 28:14 29:14 30:10 31:4 
-0.007930736434031197 -0.01016568698593029 -0.007803708631156245 -0.01090042327232116 -0.007264534886812568 -0.009868372540049245 -0.004948304899416655 0.009325264805201707 0.01379780940280083 0.01087322578269277 0.01359197427446669 0.01327653362570122 0.01272984400440265 0.01365736532269952 0.001308189773525708 0.0138524602172383 0.009393606347099785 0.01042654551902068 0.0100333959778972 1:7 2:6 3:7 4:6 5:7 6:9 7:10 8:7 9:8 10:10 11:9 12:8 13:7 14:6 15:7 16:7 17:9 18:7 19:5 20:12 21:15 22:16 23:12 24:7 25:6 26:8 27:10 28:15 29:15 30:12 31:4 
-0.3235440997772622 -0.4267704938190115 -0.2991999143828001 -0.4298370522583246 -0.2653277529259427 -0.4111655152880666 -0.2277003932877552 0.420514546268707 0.5833607461131376 0.6038562391079456 0.5460627457560616 0.5475877220894607 0.5173119464301505 0.5759737488578189 0.55600631946909 0.5505931548856534 0.4400898388224621 0.4443135407812648 0.3931284067398655 1:7 2:7 3:7 4:6 5:7 6:9 7:10 8:7 9:8 10:10 11:9 12:8 13:7 14:6 15:7 16:7 17:9 18:7 20:3 21:2 22:2 23:2 24:1 25:5 26:12 27:15 28:16 29:12 30:8 31:6 32:8 33:10 34:15 35:15 36:12 37:4 
-0.1878846087257608 -0.2482901679095556 -0.1745322038001214 -0.2497639235156877 -0.1546146162791017 -0.2397994061955267 -0.13233535188213 0.2436029384829123 0.3399036399760549 0.3539094678285485 0.317236710332544 0.3184103500754745 0.3012515814700256 0.3342300268040683 0.3326479885574583 0.3196860189027599 0.2559946298356883 0.2587761399106606 0.2294728367296589 1:7 2:6 3:7 4:6 5:7 6:8 7:7 8:8 9:7 10:8 11:7 12:8 13:7 14:6 15:6 16:7 17:9 18:7 19:5 20:10 21:15 22:15 23:11 24:6 25:6 26:5 27:11 28:16 29:13 30:11 31:4 
-0.03007665185042461 -0.06688613897539847 -0.05980027811776548 -0.05240643477530373 -0.04864549488653781 -0.02189595114453078 -0.03580326511481687 0.06149910176543876 0.06787373716555893 0.06429964543129134 0.05122540249521593 0.0619223904922144 0.05536154534218934 0.06364683296677971 0.04852320630342366 0.05263407208182001 0.04856898394612297 0.04039468490203423 0.04202200051238458 1:6 2:6 3:6 4:6 5:7 6:7 7:7 8:6 9:9 10:9 11:8 12:7 13:7 14:6 15:6 16:7 17:7 18:6 19:5 20:11 21:15 22:13 23:10 24:5 25:6 26:6 27:10 28:14 29:14 30:10 31:4 
-0.03451583346817851 -0.04399124327751935 -0.03414971021219736 -0.04542432303353777 -0.02822073550315848 -0.04355836671797707 -0.0241209653661619 0.04554276118862316 0.06211975747812137 0.06370769029872352 0.05635444369079103 0.05656771825683103 0.05336784677646752 0.0607031706784942 0.0568219807477519 0.05710524091209039 0.04518478245435028 0.04556353120605353 0.04077130101943763 1:7 2:7 3:7 4:6 5:6 6:8 7:9 8:7 9:8 10:9 11:7 12:7 13:6 14:6 15:6 16:6 17:7 18:7 19:4 20:11 21:15 22:14 23:9 24:7 25:6 26:6 27:11 28:14 29:15 30:10 31:4 
-0.3336950151815281 -0.441267697616167 -0.3090879181973216 -0.4442642640086589 -0.2742807288559768 -0.4262867414286854 -0.2353742989102592 0.4348339080325512 0.6041674759513314 0.6282693512278879 0.5646662642014644 0.5665901601618709 0.5362420646135104 0.5949435740437089 0.5751314437837398 0.5702000641741761 0.4563017336983508 0.4588939683122586 0.4071400285259678 1:7 2:8 3:8 4:6 5:7 6:8 7:9 8:8 9:7 10:11 11:8 12:9 13:7 14:6 15:7 16:7 17:10 18:7 20:3 21:2 22:2 23:2 24:1 25:5 26:12 27:15 28:16 29:11 30:8 31:6 32:9 33:12 34:16 35:14 36:12 37:4 
-0.07478343436603214 -0.1009444687497654 -0.06574385524162818 -0.09857277667751241 -0.05875797856020634 -0.0863317279636318 -0.05352332592130885 0.1039240262642914 0.1321187634433007 0.1449891178185845 0.1273609086300678 0.1277936144234144 0.1207560579567769 0.1288355536604793 0.1316369080726992 0.1261420482747442 0.1033681653445371 0.1050236267263731 0.09211023219499279 1:6 2:6 3:7 4:6 5:6 6:8 7:9 8:7 9:8 10:8 11:7 12:8 13:6 14:6 15:6 16:6 17:7 18:7 19:4 20:11 21:15 22:14 23:9 24:5 25:6 26:6 27:11 28:14 29:15 30:10 31:4 
-0.3441242440760348 -0.454096461966039 -0.3161005970556313 -0.4562440499042164 -0.282027916085631 -0.4376033663937314 -0.2411995365234348 0.4466589334442483 0.6216371581906314 0.642608399368367 0.5794675260562231 0.5815856417410623 0.5491026726984918 0.6106500388877147 0.5951018636249381 0.5855909355484866 0.4689005934056526 0.471294609190408 0.417464733791329 1:7 2:8 3:8 4:6 5:7 6:8 7:10 8:7 9:8 10:11 11:8 12:8 13:7 14:6 15:7 16:7 17:10 18:8 19:5 20:13 21:16 22:16 23:11 24:8 25:6 26:9 27:11 28:15 29:15 30:12 31:4 
-0.2545938658968263 -0.334493467012924 -0.2349695111228515 -0.3383029720975931 -0.2079801410530183 -0.3253616080672097 -0.1783359063685466 0.3325394824112866 0.4607947427080636 0.4755502045780645 0.429942063040253 0.4316658898299334 0.4086405275794025 0.4525127912804308 0.437319619407691 0.4350582083925015 0.3466572435449163 0.3491221176118553 0.3098124521385922 1:7 2:7 3:8 4:6 5:7 6:9 7:8 8:7 9:8 10:10 11:8 12:8 13:7 14:6 15:6 16:7 17:10 18:7 20:3 21:2 22:2 23:2 24:1 25:5 26:11 27:15 28:15 29:11 30:9 31:6 32:8 33:11 34:15 35:14 36:12 37:4 
-0.1334656737557613 -0.1737722458036461 -0.1232010482877501 -0.1761289425027285 -0.1070773861570209 -0.1682099229998908 -0.09356794023730187 0.1718590726129657 0.2385528880893041 0.2439964497484202 0.2230560382146569 0.2233539471452939 0.2122020878754412 0.2350757746523448 0.2361454533342654 0.2253903835581465 0.1793843579475103 0.1813698169301931 0.1616675856323358 1:7 2:8 3:8 4:6 5:7 6:9 7:9 8:7 9:8 10:10 11:8 12:9 13:7 14:6 15:7 16:8 17:9 18:7 19:5 20:11 21:15 22:16 23:11 24:8 25:6 26:9 27:12 28:15 29:15 30:12 31:5 
-0.08728835430692217 -0.1140457308009575 -0.08326656365689583 -0.1176641724926484 -0.07513718401998692 -0.1171444467851953 -0.06104755538816439 0.109004885366384 0.1606276631916442 0.1557976157863654 0.1480230891616967 0.1484847467540351 0.1402019311286987 0.1611016968698072 0.1631974088318988 0.1514342421262823 0.1190184516833781 0.1189856613942274 0.1063853743954902 1:6 2:6 3:6 4:6 5:6 6:8 7:9 8:7 9:8 10:8 11:7 12:8 13:7 14:6 15:6 16:6 17:7 18:7 19:4 20:10 21:15 22:15 23:9 24:5 25:6 26:6 27:11 28:14 29:15 30:10 31:4 
-0.3330588945185643 -0.4350387320647909 -0.3082753809234062 -0.4383788488465999 -0.2750238067026749 -0.4207075595923623 -0.2357269213397528 -0.4472054542916317 0.5888699835408141 0.6086975849338875 0.5527147911554255 0.5528554630530033 0.5249105321100969 0.578942718898416 0.5608621376433517 0.5574884450915805 0.449336262504671 0.4521580184120393 0.4029813254535804 1:7 2:9 3:7 4:6 5:6 6:6 7:6 8:6 9:8 10:9 11:9 12:3 13:4 14:3 15:3 16:4 17:8 18:8 20:3 21:2 22:2 23:2 24:1 25:6 26:12 27:11 28:8 29:5 30:3 31:4 32:5 33:8 34:11 35:16 36:14 37:9 
-0.1117402264406189 -0.1455121483138752 -0.1036568280029487 -0.1473521859165783 -0.09325840787149245 -0.139258796473665 -0.07862443367564792 -0.1490267005137566 0.1970065159379012 0.2034669269527553 0.1850294677262448 0.1848582364140998 0.1758595001270477 0.1935229824602518 0.187425055881095 0.1875165510036351 0.1510500518219071 0.1522650020091022 0.1353902657222674 1:6 2:8 3:6 4:5 5:6 6:6 7:6 8:6 9:7 10:8 11:9 12:3 13:3 14:3 15:3 16:4 17:6 18:7 19:4 20:10 21:11 22:6 23:5 24:3 25:5 26:5 27:6 28:10 29:15 30:13 31:9 
-0.03658164256228734 -0.05352024263632296 -0.04114618090282295 -0.05264619622765265 -0.03454684686048207 -0.05179423177385119 -0.03266827481037812 -0.05378324094309404 0.07107020747146857 0.07448757048152438 0.06693924729647011 0.06829574199316955 0.0644441897458729 0.06970569493191156 0.07158555993664989 0.06788571318381126 0.05404145046652917 0.05441230225978904 0.04927114557975062 1:7 2:7 3:6 4:7 5:7 6:6 7:6 8:6 9:7 10:9 11:10 12:3 13:4 14:4 15:4 16:5 17:8 18:8 19:5 20:12 21:13 22:8 23:5 24:3 25:4 26:5 27:7 28:12 29:16 30:13 31:11 
-0.3915897346829106 -0.5110970543330626 -0.3622800748386328 -0.5155463351526791 -0.3222446823345451 -0.4945701810754285 -0.2770004533044596 -0.5257989195889566 0.6906657403789642 0.7136793478497071 0.6473946902768373 0.6482992177572461 0.6142267497511547 0.6798202960959419 0.6570576609615126 0.6537456518296454 0.5276148384572034 0.5313903399640215 0.4727652528166329 1:7 2:7 3:6 4:8 5:7 6:6 7:6 8:7 9:7 10:9 11:10 12:3 13:4 14:4 15:3 16:4 17:8 18:8 19:5 20:11 21:12 22:10 23:5 24:3 25:4 26:5 27:7 28:12 29:16 30:13 31:11 
-0.2702795846970479 -0.3532540861331408 -0.2488535943435773 -0.3556501698758801 -0.2228881517817566 -0.3445088829271234 -0.1899969878573911 -0.3633347564440859 0.4747773858675414 0.4916963964974818 0.4473818402376568 0.4471362632779339 0.4242932306888784 0.4689611273811668 0.454043354089553 0.4504394398653667 0.3630492758687469 0.3642279742445271 0.3250292724303618 1:7 2:7 3:6 4:7 5:7 6:6 7:6 8:7 9:8 10:9 11:10 12:3 13:4 14:4 15:3 16:4 17:8 18:8 20:3 21:2 22:2 23:2 24:1 25:6 26:11 27:12 28:10 29:5 30:3 31:4 32:5 33:7 34:12 35:16 36:13 37:10 
-0.1404714896841915 -0.1823839713052245 -0.1303091903736614 -0.1850899392767565 -0.1144885831570241 -0.1783899267457864 -0.0998496378035488 -0.18617514296698 0.2474681810176707 0.2545434756930745 0.2293229884701128 0.232034112623368 0.218720502731455 0.2436673600178727 0.2346035668566453 0.2334094676158928 0.1888140850539639 0.1918070094887652 0.1696357704236758 1:7 2:7 3:6 4:6 5:6 6:6 7:6 8:7 9:7 10:9 11:9 12:3 13:4 14:4 15:3 16:4 17:8 18:8 20:3 21:2 22:2 23:2 24:1 25:5 26:11 27:11 28:9 29:5 30:3 31:4 32:5 33:7 34:11 35:16 36:13 37:10 
-0.3080571867463451 -0.4037434533364954 -0.2857362462551573 -0.4064706738332549 -0.2552066352168015 -0.3976114613753256 -0.218016052085028 -0.4121908298735323 0.5457748528212719 0.5628498538397905 0.5112358208675388 0.5118445441770157 0.4853377593594972 0.5368389276882328 0.5193062256296972 0.5156672523660344 0.4157249291864679 0.418755120837381 0.3730756288009242 1:6 2:5 3:6 4:6 5:6 6:6 7:6 8:6 9:8 10:8 11:9 12:3 13:3 14:3 15:3 16:4 17:5 18:7 19:6 20:10 21:11 22:7 23:4 24:3 25:3 26:4 27:6 28:9 29:15 30:13 31:9 
-0.1221197759871854 -0.1567503105872799 -0.1111630765100757 -0.1590066972642477 -0.09935738147781116 -0.1599376088062996 -0.08297379168422822 -0.1598563733525425 0.212450075568306 0.2196219716493898 0.199345830405992 0.1989564252622478 0.1892753668536478 0.2101008534390834 0.2003937252646502 0.2004328443439805 0.1626182018465848 0.164091083440757 0.1452153562767962 1:7 2:8 3:6 4:7 5:6 6:6 7:6 8:6 9:7 10:9 11:10 12:3 13:4 14:3 15:4 16:5 17:8 18:8 19:5 20:13 21:13 22:8 23:5 24:3 25:4 26:5 27:7 28:11 29:16 30:13 31:10 
-0.3145848720955639 -0.4117205115669669 -0.2911812767710044 -0.4146461947350711 -0.2575542334614362 -0.3991068010720366 -0.2241681834590816 -0.4216696709243564 0.5543203704986381 0.5733967113587618 0.519774804890526 0.5220999644347236 0.4946250413230524 0.5474406470723759 0.5289341376358451 0.5252307815911085 0.4243464016444258 0.4261424792685873 0.3801153344750758 1:6 2:8 3:6 4:5 5:6 6:6 7:6 8:6 9:7 10:9 11:9 12:3 13:2 14:3 15:3 16:4 17:5 18:7 19:5 20:10 21:11 22:7 23:5 24:3 25:3 26:5 27:7 28:8 29:15 30:14 31:8 
-0.266584429532364 -0.3500741889024482 -0.2485181366143676 -0.352440674769938 -0.2210180625302237 -0.3409267057188877 -0.1903163292430879 -0.3579781193722235 0.4727872495553356 0.4882120223517224 0.4421814437596054 0.4441389220478227 0.4207220666726318 0.4657934407983075 0.4502786662907783 0.4473402399809177 0.3613361674909035 0.3637216062950253 0.3237354466560733 1:7 2:8 3:6 4:7 5:7 6:6 7:6 8:6 9:8 10:9 11:9 12:3 13:4 14:4 15:4 16:5 17:8 18:8 20:3 21:2 22:2 23:2 24:1 25:6 26:13 27:12 28:8 29:5 30:3 31:4 32:5 33:7 34:12 35:16 36:13 37:11 
-0.2415640352234324 -0.3166535714477133 -0.2249867865188487 -0.3183722021918184 -0.2004962868487803 -0.3053004885142152 -0.1725797044089618 -0.3250014500003327 0.4277247066353075 0.4415622725579928 0.4003645597438923 0.4017633686112649 0.3800671634591588 0.4210524850160895 0.4080724073702012 0.4046167949749884 0.3262036228419583 0.3281130363827602 0.2929371385433488 1:7 2:9 3:7 4:6 5:6 6:6 7:6 8:6 9:8 10:9 11:10 12:3 13:4 14:3 15:3 16:4 17:7 18:8 19:6 20:12 21:11 22:7 23:5 24:4 25:4 26:5 27:8 28:12 29:16 30:13 31:9 
-0.005862592614901639 -0.005008128535255879 -0 -0.005621363835580352 -0.001166382531751335 -0 -0 -0.0112480092457555 0.006021711744327189 0.005936787953565559 0.005682952017259126 0.005976580632657954 0.005859543188287281 0.006784234379649944 0.004302073159568385 0.006547343582647355 0.004999869887295835 0.004515145233659875 0.004075079144329648 1:7 2:7 3:6 4:7 5:7 6:6 7:6 8:6 9:7 10:9 11:10 12:3 13:4 14:3 15:4 16:5 17:8 18:8 19:5 20:12 21:12 22:8 23:5 24:3 25:4 26:5 27:7 28:13 29:16 30:13 31:10 
-0.004892897340985925 -0.007474482937547393 -0.0053125694894451 -0.005313527820962537 -0.004403335814026082 -0.007286277171938048 -0.0005595154775954127 -0.007964718348675917 -0.007324946566981551 0.0121321173084914 0.01238574352904001 0.009509017421160041 0.009699752966290217 0.01035514061434657 0.009956081461764197 0.01494106013462298 0.006777096675459507 0.01010498478848058 0.004752415711595021 1:1 2:2 3:3 4:3 5:3 6:5 7:4 8:5 9:4 10:5 11:4 12:4 13:11 14:5 15:5 16:4 17:7 18:11 19:1 20:2 21:3 22:5 23:4 24:3 25:4 26:5 27:9 28:10 29:9 30:9 31:9 32:6 33:4 34:2 35:1 
-0.01583510808845408 -0.02314306030134363 -0.01738462875203636 -0.0256920221496152 -0.01609156053806257 -0.02108430375955234 -0.01288144535291368 -0.02155439754267356 -0.02400173628576407 0.03584297352654622 0.03010763576024698 0.03501949970941508 0.0324991323445662 0.03237851588651208 0.0358423512072583 0.03089135851202493 0.02103349091129786 0.02294195191981512 0.01538481440614185 1:6 2:6 3:6 4:5 5:3 6:3 7:7 8:7 9:6 10:6 11:6 12:6 13:8 14:4 15:8 16:10 17:6 18:3 19:3 20:5 21:12 22:12 23:11 24:1 
-0.07725431745205079 -0.111162882975253 -0.07290912768543908 -0.1073963224437161 -0.06246269579566419 -0.1069018035935913 -0.05194796739381397 -0.1158608480502882 -0.1104537478384083 0.1840600777052978 0.1522176293304573 0.1571537561043039 0.1488954533101374 0.1683194905609313 0.1614031271227236 0.1590120278893792 0.1164699889859074 0.1087174240696033 0.09946456450177692 1:6 2:6 3:5 4:5 5:3 6:3 7:8 8:6 9:6 10:6 11:6 12:9 13:8 14:4 15:8 16:11 17:6 18:3 19:3 20:4 21:13 22:12 23:11 24:2 
-0.01535636964040821 -0.02105506313709511 -0.01582853779248185 -0.01807273862446058 -0.01001137856142353 -0.01941581868447843 -0.007907520969801124 -0.02565934354066044 -0.021650433118127 0.03758015125171681 0.03016785805687198 0.02667278808348744 0.02108200600201766 0.03521490934020316 0.03042776188114376 0.03267048385470257 0.02411310770680382 0.02093404179475618 0.02255400392161064 1:8 2:7 3:6 4:5 5:3 6:3 7:8 8:8 9:7 10:6 11:6 12:8 13:10 14:5 15:10 16:11 17:7 18:4 19:3 20:6 21:13 22:13 23:12 24:1 
-0.1060770488483063 -0.1477372789194693 -0.09577682706577627 -0.145173796989413 -0.08828667397065956 -0.1434825708111227 -0.07054495127124864 -0.1594634218902557 -0.1484267504869541 0.247800724686093 0.2084603356652532 0.2114620463396875 0.1965159217075123 0.2286890542441305 0.2178016329971504 0.2138003358595481 0.1550186644791184 0.1518883181078217 0.1356922069259834 1:1 2:2 3:3 4:3 5:3 6:5 7:4 8:5 9:5 10:5 11:4 12:4 13:11 14:4 15:5 16:5 17:6 18:10 19:1 20:2 21:3 22:4 23:3 24:3 25:5 26:6 27:9 28:9 29:8 30:10 31:9 32:6 33:4 34:2 35:1 
-0.1057261206374811 -0.1496379568851409 -0.095324125380328 -0.1438402230939212 -0.08324491454660453 -0.1429429312587726 -0.07218537113245524 -0.1540393591772827 -0.1450863979307308 0.2436098982297756 0.2038695554533037 0.2096608777889127 0.1906198775679325 0.2269605030976375 0.2140074767578906 0.2069218917341155 0.1556848147877458 0.1442305073705238 0.1353654190649428 1:1 2:2 3:3 4:3 5:3 6:5 7:4 8:5 9:4 10:5 11:4 12:4 13:11 14:4 15:5 16:4 17:8 18:12 19:1 20:2 21:3 22:5 23:4 24:3 25:4 26:5 27:9 28:10 29:9 30:10 31:9 32:6 33:4 34:2 35:1 
-0.3162682538703332 -0.4508070522516893 -0.2877741340461211 -0.4300420948915726 -0.2492789916577813 -0.4310885446151832 -0.2084584078021882 -0.4653587940346112 -0.4424752013832136 0.7379319086580375 0.6204230759315196 0.6301421849762534 0.5757164900882851 0.6822551393364908 0.6491780185604169 0.6380038382791406 0.4701273105813065 0.4416356642054826 0.4040778285085708 1:1 2:2 3:3 4:3 5:3 6:5 7:4 8:5 9:4 10:5 11:4 12:4 13:11 14:5 15:5 16:4 17:7 18:11 19:1 20:3 21:5 22:5 23:3 24:4 25:5 26:9 27:10 28:9 29:10 30:9 31:6 32:4 33:2 34:1 
-0.1555250384007357 -0.2233453161357682 -0.1428603744558723 -0.2117221493820935 -0.1228119131608854 -0.213465507659112 -0.1023290299192892 -0.2311860204983687 -0.2202859681481791 0.366012380026961 0.3083236057566109 0.3111275466435901 0.2851591789930756 0.3394048585161724 0.3225861489426621 0.3178586586293747 0.2323470756873636 0.2218243415153868 0.1989256468441311 1:1 2:3 3:3 4:3 5:5 6:5 7:6 8:6 9:4 10:6 11:5 12:4 13:11 14:4 15:6 16:6 17:8 18:12 19:1 20:2 21:4 22:6 23:5 24:5 25:5 26:6 27:9 28:11 29:10 30:12 31:9 32:6 33:4 34:2 35:1 
-0.2585746916664081 -0.3676664445233379 -0.235137907495606 -0.3499063910085875 -0.2026893728427446 -0.3513723804687493 -0.1692429987236077 -0.37855001166076 -0.3593337953365446 0.6007125632301317 0.5052194477365077 0.5141074199620801 0.4691672038638994 0.5559748904735095 0.5281995819817835 0.5198101618853043 0.3829275258836876 0.3586821256021159 0.328845158839986 1:1 2:2 3:3 4:3 5:5 6:5 7:5 8:6 9:4 10:6 11:5 12:5 13:11 14:4 15:6 16:6 17:6 18:10 20:1 21:2 22:2 23:4 24:5 25:4 26:4 27:5 28:5 29:9 30:11 31:9 32:11 33:9 34:7 35:4 36:2 37:1 
-0.2472789230631378 -0.3515265588035554 -0.2249180309624418 -0.3365538091883114 -0.1961529075739226 -0.3361328574843839 -0.1637309284791047 -0.3654332184862523 -0.3475475932010976 0.5771194542744384 0.4863732887238852 0.4927486593502887 0.4507464163686806 0.5341355877064937 0.5082467684560839 0.4994835695052008 0.3677296341603615 0.346048519711108 0.3159732891663832 1:1 2:3 3:3 4:3 5:5 6:5 7:6 8:6 9:4 10:6 11:5 12:4 13:11 14:5 15:6 16:6 17:7 18:11 20:1 21:2 22:2 23:4 24:5 25:5 26:5 27:5 28:6 29:9 30:11 31:10 32:12 33:9 34:6 35:4 36:2 37:1 
-0.2376184760512431 -0.3380385373760024 -0.2177463097043391 -0.3223786876745171 -0.1875708714136488 -0.3231209785581483 -0.1564719088502007 -0.3481847864233924 -0.3325654865853062 0.5547130777432994 0.4661853789073835 0.4715882598419958 0.4325115027170496 0.5117663653869582 0.4863346274941545 0.4796286290911385 0.353929141292422 0.3311424131742029 0.3038276197392087 1:9 2:8 3:7 4:6 5:4 6:4 7:9 8:8 9:7 10:6 11:6 12:8 13:10 15:4 16:3 17:10 18:2 19:2 20:1 21:4 22:10 23:11 24:7 25:4 26:3 27:6 28:13 29:13 30:12 31:1 
-0.04682259809891692 -0.06353297314420379 -0.04465772240419072 -0.06477656553290684 -0.03479716021277052 -0.0629223163668096 -0.02948708890311647 -0.06517491843448128 -0.06413125445971414 0.1056293340622146 0.08933748632416157 0.09036923104453792 0.08412143539951837 0.09276148855688812 0.09364951995205621 0.09184019017695644 0.06708584091657036 0.06155530933760694 0.05752450120870765 1:1 2:3 3:3 4:3 5:5 6:4 7:5 8:4 9:5 10:4 11:4 12:11 13:4 14:5 15:5 16:8 17:12 18:1 19:2 20:3 21:5 22:4 23:3 24:4 25:5 26:8 27:9 28:9 29:11 30:9 31:6 32:4 33:2 34:1 
-0.2048756681509944 -0.2907606177061881 -0.1815956279477301 -0.2737399488230504 -0.158158946505966 -0.2765098715761118 -0.1348999690251802 -0.3018530624842717 -0.2846165250695666 0.4723957106628225 0.4007358019860826 0.4053352551315976 0.370636667117046 0.4462772442620774 0.4196441151013111 0.4103514911869155 0.3043004007205597 0.286771980068811 0.2582722095330092 1:1 2:3 3:3 4:3 5:5 6:4 7:5 8:4 9:5 10:4 11:4 12:11 13:4 14:4 15:5 16:8 17:12 18:1 19:2 20:3 21:5 22:4 23:3 24:4 25:5 26:8 27:9 28:9 29:11 30:9 31:6 32:3 33:2 34:1 
-0.2375829756742704 -0.3379767533416175 -0.213666659080256 -0.3223275228299634 -0.1868348794907537 -0.3230744845520676 -0.156446155965607 -0.3505195420702064 -0.3312743578004178 0.5519807142319034 0.4651628411951372 0.4739059432545328 0.4325543091606152 0.5116896352866294 0.4875121015388856 0.4777650025167262 0.3515611971264798 0.3301435132675583 0.3024930618797109 1:9 2:8 3:6 4:6 5:4 6:4 7:9 8:8 9:7 10:6 11:6 12:9 13:10 15:4 16:3 17:10 18:2 19:2 20:1 21:4 22:10 23:11 24:7 25:4 26:3 27:5 28:13 29:13 30:12 31:2 
-0.2838963878623102 -0.4030190075685689 -0.2573834179388267 -0.3834085366704286 -0.2229066094898453 -0.3850812482129918 -0.1864687594655214 -0.4166181805395185 -0.3955354186121803 0.6603562608966927 0.5552779740557511 0.5638566361752243 0.5158574901725155 0.6122058500326885 0.5813150881823883 0.571552618522958 0.4215349629299767 0.3946130024160042 0.3613891281310013 1:1 2:3 3:3 4:5 5:5 6:5 7:6 8:4 9:6 10:4 11:4 12:11 13:4 14:5 15:4 16:6 17:10 18:1 19:2 20:3 21:4 22:4 23:4 24:5 25:6 26:8 27:9 28:9 29:9 30:9 31:6 32:4 33:2 34:1 
-0.09233789625097749 -0.1294562978993661 -0.0805125036620763 -0.1207954876526898 -0.07042093949899042 -0.1230524594728999 -0.05786426915034819 -0.1343174833188051 -0.1248748764848957 0.2126226085907046 0.1795200910381851 0.1780526028933118 0.1609150459362816 0.197987704157866 0.1851290372790117 0.1832350487773744 0.1354204919826452 0.1270829288058195 0.118819317811796 1:6 2:6 3:5 4:5 5:3 6:3 7:7 8:7 9:6 10:6 11:6 12:8 13:8 14:4 15:8 16:10 17:5 18:4 19:3 20:4 21:12 22:12 23:12 24:2 
-0.02406408531662982 -0.03788902171206968 -0.02332267729003677 -0.03270049862209638 -0.01426879247322249 -0.03392607375208342 -0.01577775330700805 -0.03326690705105814 -0.03555351303714097 0.05768768541119915 0.0481916636103422 0.04893149292187836 0.04210326189979669 0.05431436343768593 0.05196275928916834 0.04982882730316621 0.03994016867357994 0.02965010404316277 0.0318736554207182 1:1 2:2 3:3 4:3 5:3 6:5 7:4 8:5 9:4 10:5 11:4 12:4 13:11 14:4 15:5 16:5 17:6 18:10 19:1 20:2 21:3 22:4 23:3 24:3 25:4 26:6 27:9 28:9 29:8 30:10 31:9 32:6 33:4 34:2 35:1 
-0.136389663481261 -0.1920424320826857 -0.122013500325431 -0.1854383722982612 -0.1078571041020335 -0.1854601291652525 -0.09047874937193814 -0.2004380694693089 -0.1917213292356595 0.3174081234424367 0.2666744982188464 0.2712960159968988 0.2482976104606146 0.2909527919173139 0.2804750619438309 0.27545104925725 0.2033687111831383 0.1883464338201493 0.1736419312701419 1:1 2:2 3:3 4:3 5:5 6:5 7:5 8:6 9:4 10:6 11:6 12:6 13:11 14:4 15:6 16:6 17:6 18:10 19:1 20:2 21:4 22:6 23:4 24:5 25:5 26:5 27:9 28:11 29:9 30:11 31:9 32:7 33:4 34:2 35:1 
-0.08249306695663065 -0.1169104683570781 -0.07395025204076427 -0.112288698883795 -0.06386261452288426 -0.1119816709716176 -0.05473195007461051 -0.1194920704297316 -0.1152062617173756 0.1920275429187098 0.1594462660471773 0.1637377936867041 0.1479788083377868 0.1769543921194612 0.1699304516640951 0.1659536798328424 0.1210468906414091 0.1148939089941128 0.1019844222999202 1:7 2:7 3:6 4:5 5:3 6:3 7:8 8:7 9:7 10:6 11:7 12:9 13:10 14:4 15:9 16:11 17:8 18:5 19:3 20:6 21:13 22:13 23:12 24:1 
-0.033254045302616 -0.04573828557570878 -0.02838250731450594 -0.04472387056517813 -0.02598982215223029 -0.04384592054226682 -0.02069659800297093 -0.04745554779899839 -0.04571921347888724 0.07535237139703736 0.06207121970774922 0.06667235966365351 0.05943550331884004 0.06811010436627751 0.06622363563775131 0.06353147794670033 0.0493631604594289 0.04192217098231609 0.04174004051440821 1:1 2:3 3:3 4:3 5:5 6:5 7:6 8:6 9:4 10:6 11:5 12:5 13:11 14:5 15:6 16:5 17:7 18:11 19:1 20:2 21:4 22:4 23:5 24:5 25:5 26:6 27:9 28:11 29:10 30:12 31:9 32:7 33:4 34:2 35:1 
-0.05927034559167209 -0.08895085996032456 -0.05744498127700387 -0.08540639295133559 -0.05301457340305737 -0.08490355464304779 -0.04063169034719429 -0.09182777412158831 -0.0870843780030906 0.1472977630024072 0.1212949260154629 0.1243596292941393 0.1117824059035 0.1316828179838227 0.1253404314400733 0.1254825169547178 0.09094809375844461 0.08528406745425482 0.08131645860871937 1:1 2:3 3:3 4:3 5:5 6:4 7:6 8:4 9:5 10:4 11:4 12:11 13:4 14:4 15:5 16:8 17:12 18:1 19:2 20:3 21:4 22:4 23:4 24:4 25:5 26:8 27:9 28:9 29:11 30:9 31:6 32:4 33:2 34:1 
-0.1859707408971095 -0.2634538262990185 -0.1665596664663444 -0.2489287053917043 -0.143411497710398 -0.253221797976997 -0.1212110610317243 -0.2742625009984753 -0.2589560232746153 0.4316564833876688 0.3666067016841575 0.3675526067174792 0.33921872161483 0.4009294729543349 0.3782465244189689 0.3747100777431766 0.2781212818671678 0.2571710938533537 0.2411789366000947 1:6 2:6 3:6 4:5 5:3 6:3 7:7 8:6 9:7 10:6 11:6 12:6 13:8 14:3 15:8 16:10 17:7 18:3 19:3 20:5 21:12 22:12 23:11 24:1 
-0.1193824123990403 -0.1707467481285156 -0.1064166601759602 -0.1638481811127368 -0.09595367679275307 -0.163610520543291 -0.07978733368409829 -0.174187824736541 -0.1679785582645712 0.2761438373602729 0.2363048897646938 0.2410982465002892 0.2167961505731811 0.2557422664317807 0.2443297246583049 0.2388467349036841 0.1783133639401081 0.1665924573875164 0.1504629990637599 1:8 2:7 3:5 4:5 5:3 6:3 7:8 8:8 9:7 10:6 11:6 12:9 13:10 14:5 15:10 16:11 17:7 18:4 19:3 20:5 21:13 22:13 23:12 24:2 
-0.05510657430680573 -0.07946748180078068 -0.05188881878368769 -0.07422082573065011 -0.0425599003084546 -0.07470064916244408 -0.03636998422503113 -0.0805474134427225 -0.07416269090265283 0.1269590492005442 0.1074873690491889 0.1074494898550545 0.09842288220235516 0.1208705512402722 0.1104213280862702 0.1081829488154799 0.07968965893469386 0.08050668975706488 0.07002042924562905 1:1 2:3 3:3 4:3 5:5 6:5 7:6 8:6 9:4 10:6 11:6 12:5 13:11 14:4 15:6 16:6 17:6 18:10 19:1 20:2 21:4 22:5 23:4 24:6 25:5 26:6 27:9 28:11 29:9 30:11 31:9 32:7 33:4 34:2 35:1 
-0.1098460226294174 -0.1569825613986411 -0.1011280390208882 -0.1506679231011312 -0.08836790173489525 -0.1504285472786736 -0.07304356161903945 -0.1620879530150021 -0.1529705238154719 0.2560184821920151 0.2159406828264029 0.2203608311338582 0.2092065224452471 0.2381018732003024 0.225872106779379 0.2221057326407355 0.1624027341820407 0.1538882250272281 0.1421750178067746 1:8 2:7 3:6 4:5 5:3 6:4 7:8 8:7 9:7 10:6 11:6 12:9 13:9 14:4 15:10 16:11 17:7 18:4 19:3 20:7 21:12 22:13 23:12 24:2 
-0 -0.0006996732166096292 -0 -0 -0 -0 -0 -0 -0 0 0.001012674913131265 0 0 0 0 0.001907534198167975 0 0 0.000169440221608053 1:1 2:2 3:3 4:3 5:5 6:5 7:6 8:6 9:5 10:6 11:5 12:5 13:11 14:4 15:6 16:5 17:7 18:11 19:1 20:2 21:4 22:4 23:4 24:5 25:6 26:6 27:9 28:10 29:10 30:12 31:9 32:7 33:4 34:2 35:1 
-0.209456756337805 -0.3012510751880674 -0.190507173010142 -0.2861323061960119 -0.1642735457383396 -0.2886336864466056 -0.1377508816361933 -0.3131428551951702 -0.2958749270316164 -0.4784269354164306 0.417070201829309 0.42688781744165 0.3880143255411727 0.4639239075139442 0.4420737699454215 0.4320323840230424 0.3155544774152219 0.2921613274628022 0.2694591806098672 1:4 2:3 3:3 4:3 5:3 6:3 7:9 8:11 9:11 10:7 11:7 12:6 13:6 14:6 15:6 16:7 17:6 18:10 19:10 20:1 21:19 22:19 23:19 24:4 25:5 26:4 27:4 28:5 29:9 30:13 31:11 32:8 
-0.03794585547153331 -0.04942710347336624 -0.03330109411834398 -0.0492161851057771 -0.03018033446722655 -0.05106813323986148 -0.023054501137085 -0.0548050237472552 -0.05040772109086678 -0.0829957828361433 0.07160823142606568 0.07415443006358066 0.06689162617220053 0.08284227599000567 0.07447174327387371 0.07468312998140771 0.05301185516685129 0.05160712088157288 0.04556601091020304 1:5 2:4 3:3 4:3 5:3 6:3 7:9 8:11 9:9 10:7 11:7 12:6 13:6 14:6 15:6 16:7 17:6 18:9 19:10 21:3 22:2 23:2 24:2 25:2 26:2 27:19 28:19 29:19 30:4 31:5 32:3 33:3 34:5 35:9 36:13 37:11 38:7 
-0.2276852516150697 -0.3291510189144854 -0.2075260571237847 -0.3116738234089595 -0.1778508451688592 -0.3138211330209429 -0.1492351433700889 -0.3390569548491678 -0.3229229859739811 -0.520110082515748 0.4546921061996801 0.4633741402384753 0.4216259631755292 0.5042298497926663 0.4815839403945517 0.4695498840563933 0.3448056459687526 0.317068441261295 0.2927445915908554 1:5 2:4 3:3 4:3 5:3 6:3 7:9 8:11 9:11 10:7 11:7 12:6 13:6 14:6 15:6 16:7 17:6 18:10 19:10 21:3 22:2 23:2 24:2 25:2 26:2 27:19 28:19 29:19 30:4 31:5 32:4 33:4 34:5 35:9 36:13 37:11 38:8 
-0.2245583011748724 -0.3221119771933287 -0.2031856939268644 -0.3054582522745724 -0.175276158970847 -0.3050993960793502 -0.1461351377217459 -0.3338854912806184 -0.316260748652081 -0.5069736010001225 0.442699692906093 0.4533372636129712 0.4125730848951732 0.4929617111283577 0.4663821539954151 0.4569647562677973 0.3328384634303742 0.3103146573194078 0.2859663890321166 1:9 2:7 3:7 4:6 5:6 6:6 7:6 8:7 9:8 10:6 11:6 12:6 13:6 14:6 15:6 16:6 17:8 18:10 19:2 20:18 21:18 22:18 23:4 24:3 25:5 26:9 27:13 28:16 29:11 30:5 
-0.2221729364078603 -0.3233199494045045 -0.2023660270048936 -0.304393249211846 -0.1753321237058412 -0.3050082930661805 -0.1466009389950014 -0.3310364370220978 -0.3156075478861059 -0.5082190476835029 0.4443560730001923 0.4531622487237724 0.4132484140044225 0.4911265881690604 0.4697657273162889 0.4599661304255763 0.3353149747010801 0.3102747349856206 0.2865259235936182 1:4 2:3 3:3 4:3 5:3 6:3 7:8 8:11 9:9 10:7 11:7 12:6 13:6 14:6 15:6 16:7 17:6 18:9 19:10 21:3 22:2 23:2 24:2 25:1 26:1 27:19 28:19 29:19 30:4 31:4 32:3 33:3 34:5 35:9 36:13 37:11 38:7 
-0.1108661778578596 -0.1585895201918973 -0.1008362878697705 -0.1499178247182196 -0.08581849891190059 -0.1517191261018571 -0.07202868009233836 -0.1633679837343882 -0.1558577033899242 -0.249946697507227 0.2193221074986445 0.2249190555988627 0.2034354527747237 0.2436030154978926 0.2319050593907807 0.2249277402284783 0.166028125225488 0.1532863318890556 0.1403557492737924 1:5 2:4 3:3 4:3 5:3 6:3 7:9 8:11 9:11 10:7 11:7 12:6 13:6 14:6 15:6 16:7 17:6 18:10 19:10 20:1 21:2 22:19 23:19 24:19 25:4 26:5 27:4 28:4 29:5 30:9 31:13 32:11 33:8 
-0.2176099534731787 -0.3136006832478477 -0.1974282014832769 -0.2966558142761848 -0.171356813936051 -0.2982780285771954 -0.1424666865194417 -0.3292819629431268 -0.3067370843105595 -0.4956955337570212 0.4325162851998731 0.4422949288118037 0.4033864347626258 0.4812931745012082 0.4572595871736782 0.4479467057157314 0.3270161127041018 0.3013527571788036 0.2789747799166742 1:11 2:10 3:7 4:6 5:6 6:6 7:7 8:7 9:8 10:8 11:7 12:7 13:6 14:6 15:6 16:7 17:10 18:11 20:3 21:2 22:2 23:2 24:3 25:4 26:18 27:18 28:18 29:5 30:3 31:6 32:9 33:15 34:17 35:14 36:7 
-0.1750743347811018 -0.2512050890914536 -0.1590003613851285 -0.2368364495767013 -0.1376385040458924 -0.2384121315512788 -0.1148028496389296 -0.2601172691996386 -0.2471579318842614 -0.3981919918554263 0.3475343964120838 0.3551092397075319 0.3221483916085745 0.3852216591183265 0.366802359372682 0.3594867858871371 0.2624281973453292 0.2421711460733032 0.2235931084296551 1:11 2:9 3:7 4:6 5:6 6:6 7:6 8:7 9:9 10:9 11:6 12:7 13:6 14:6 15:6 16:7 17:9 18:11 20:3 21:2 22:2 23:2 24:3 25:4 26:18 27:18 28:18 29:5 30:3 31:6 32:9 33:15 34:18 35:13 36:5 
-0.2400064276979066 -0.3441876650069707 -0.2181251916194358 -0.326830409140351 -0.1883302295553991 -0.3292984591903093 -0.1562967100586347 -0.362585214624889 -0.3385944679541697 -0.5453308949268727 0.4767700894361399 0.4856362105938781 0.4426544156202347 0.5288062416433865 0.5371759081920927 0.4929580085419751 0.3596122633699457 0.3328501241462773 0.3068313163142021 1:10 2:9 3:7 4:6 5:6 6:6 7:6 8:6 9:8 10:6 11:6 12:6 13:6 14:6 15:6 16:6 17:8 18:9 19:1 20:3 21:18 22:18 23:18 24:5 25:3 26:5 27:9 28:13 29:14 30:11 31:5 
-0.08821888218001038 -0.1255820846032156 -0.07964296550119974 -0.1210415770516291 -0.06809003861614545 -0.1227603016998765 -0.05649112190435723 -0.1267774494050334 -0.1241344786217831 -0.1994230267492067 0.1747567849374369 0.177948917373176 0.1622789451791288 0.194209131812895 0.185216891809907 0.180696187181472 0.1322340670171961 0.12410803825102 0.1122448893467524 1:11 2:9 3:7 4:6 5:6 6:6 7:6 8:7 9:8 10:8 11:6 12:7 13:6 14:6 15:6 16:7 17:9 18:11 20:3 21:2 22:2 23:2 24:3 25:4 26:18 27:18 28:18 29:4 30:3 31:6 32:9 33:15 34:17 35:13 36:5 
-0.07443980263993594 -0.1050391020028735 -0.06642829282044206 -0.09965747855414034 -0.05845540198517905 -0.1000096726964099 -0.04743353326913165 -0.1078999403624517 -0.102803069585117 -0.1671621384753474 0.1460788199869366 0.1476140239932531 0.1343521837129567 0.1618273680210352 0.1532054779918871 0.1496682548985391 0.1100005166379514 0.1012071666069508 0.09264558683634724 1:4 2:3 3:3 4:3 5:3 6:3 7:8 8:10 9:11 10:7 11:7 12:6 13:6 14:6 15:6 16:7 17:6 18:7 19:9 20:1 21:19 22:19 23:19 24:3 25:3 26:4 27:4 28:5 29:9 30:12 31:10 32:7 
-0.06924337899946698 -0.09847546569372898 -0.06224862655521198 -0.09289721614299964 -0.05489914462397084 -0.09286037157047841 -0.04361816617582995 -0.101566623981702 -0.0979507662595923 -0.1545128755562908 0.1351000359247626 0.1388716559703698 0.1258313070327469 0.1506354675111458 0.1437488074443986 0.1404163234494876 0.1030950659169552 0.09469816019817021 0.08832792632572496 1:4 2:3 3:3 4:3 5:3 6:3 7:7 8:11 9:9 10:7 11:7 12:6 13:6 14:6 15:6 16:7 17:6 18:8 19:9 20:1 21:19 22:19 23:19 24:4 25:4 26:4 27:3 28:4 29:9 30:11 31:10 32:7 
-0.09901235373011515 -0.1445369881829686 -0.09173042029592381 -0.1382164333443692 -0.07690323789545034 -0.1404242182015415 -0.0685054689121124 -0.1520372211711869 -0.1411387357054848 -0.2330099387920556 0.202342389877184 0.205573762709696 0.188666223075533 0.2229829935624071 0.2125173823684093 0.2090173356427485 0.1512987046195345 0.1411833719381037 0.1295545210817152 1:4 2:3 3:3 4:3 5:3 6:3 7:7 8:10 9:9 10:7 11:6 12:6 13:6 14:6 15:6 16:7 17:6 18:8 19:9 20:1 21:19 22:19 23:19 24:3 25:3 26:3 27:3 28:5 29:8 30:11 31:11 32:7 
-0.2222275101586261 -0.3199094469388837 -0.2021795658029024 -0.3030069570608643 -0.1752757358101266 -0.3083341831590944 -0.1461347862776247 -0.3358271701135953 -0.3144550804895502 -0.5103698204929588 0.4453227952884514 0.4533361682235933 0.4125721089049471 0.4936344200043611 0.4988631511356409 0.4620056936206282 0.3379485165059243 0.3103139212554509 0.2859656918896078 1:9 2:7 3:7 4:6 5:6 6:6 7:6 8:6 9:8 10:6 11:6 12:6 13:6 14:6 15:6 16:6 17:8 18:9 19:2 20:18 21:18 22:18 23:4 24:3 25:5 26:9 27:13 28:14 29:11 30:5 
-0.02638642961302493 -0.03912994830139429 -0.02532596710686839 -0.03603533762735389 -0.02117803340683589 -0.0366911295203391 -0.01739243631397091 -0.03777780050944497 -0.03745632931862579 -0.06029650887601339 0.05183402085219525 0.05249805112526065 0.04863718981253048 0.05235050581881738 0.05570888258398381 0.05371065723613219 0.03984524333280705 0.03423003168239403 0.03417245667438087 1:11 2:9 3:7 4:6 5:6 6:6 7:7 8:7 9:8 10:8 11:7 12:7 13:6 14:6 15:6 16:7 17:10 18:12 19:2 20:4 21:18 22:18 23:18 24:4 25:3 26:6 27:9 28:15 29:17 30:15 31:7 
-0.236623482534029 -0.3398248450948171 -0.2141782394828139 -0.3222800422838139 -0.1857094589949677 -0.323737033223169 -0.1537269259839447 -0.351113431751408 -0.333400555709538 -0.5386463901336563 0.469639654694246 0.4796422357153073 0.4368911129822389 0.5218402844889267 0.4967687601822492 0.4866606700057768 0.3544350851341433 0.3278749082457748 0.3032803404496196 1:5 2:4 3:3 4:3 5:3 6:3 7:7 8:11 9:11 10:7 11:6 12:6 13:6 14:6 15:6 16:6 17:6 18:9 19:9 20:1 21:2 22:19 23:19 24:19 25:4 26:4 27:4 28:4 29:5 30:7 31:11 32:11 33:7 
-0.08576096777893968 -0.1271002579067089 -0.07887905131811161 -0.117395600654467 -0.06770793848618342 -0.1189862725036187 -0.05695456756349407 -0.1303599645348053 -0.1240826271991796 -0.1955330785402558 0.1712786089521597 0.1771725900296982 0.1604295729522205 0.1921165486984455 0.1832723387513189 0.179927078521373 0.1301642420155041 0.1210787467803384 0.1126135450795658 1:4 2:3 3:3 4:3 5:3 6:3 7:7 8:11 9:11 10:7 11:6 12:6 13:6 14:6 15:6 16:6 17:6 18:8 19:9 20:1 21:19 22:19 23:19 24:4 25:3 26:4 27:4 28:5 29:7 30:11 31:11 32:7 
-0.1307824690821833 -0.1879365660736654 -0.1181730319046308 -0.1771971077364387 -0.1020668351746352 -0.1791902777817419 -0.08538188302135437 -0.1979997021291341 -0.1840211976701164 -0.2979698762308354 0.2599007995445942 0.2661420038443034 0.2418026671694983 0.2897314553612363 0.2718802337652154 0.2691115217701687 0.1965794652854534 0.1819057364563975 0.1675888265469793 1:10 2:8 3:7 4:6 5:6 6:6 7:6 8:6 9:8 10:6 11:6 12:6 13:6 14:6 15:6 16:7 17:9 18:11 19:2 20:4 21:18 22:18 23:18 24:5 25:3 26:3 27:9 28:14 29:16 30:11 31:5 
-0.04150660623863626 -0.05604397194302212 -0.03612653345018641 -0.05432080188496723 -0.03241675821693745 -0.05394073953796966 -0.0241790267967563 -0.0557284131907903 -0.05569515582040254 -0.08975197151294363 0.07929359376529843 0.07945112625812881 0.07206571119654259 0.08750945518315828 0.08191648533674495 0.07983398324702415 0.05985717456142024 0.05491730636182119 0.04897596350284571 1:4 2:3 3:3 4:3 5:3 6:3 7:8 8:11 9:9 10:7 11:6 12:6 13:6 14:6 15:6 16:6 17:6 18:9 19:9 20:1 21:19 22:19 23:19 24:4 25:3 26:3 27:4 28:5 29:7 30:12 31:11 32:7 
-0.1427558479614947 -0.2069455034304277 -0.1308087699326355 -0.1958709862363497 -0.1126074716110197 -0.19686099393525 -0.09421902676366085 -0.2186757537009053 -0.2023586346540516 -0.3259953228439628 0.2850453160027197 0.2910139366641966 0.2655209493529355 0.3159919903763155 0.3053195189902715 0.2953783300152103 0.2158978457659737 0.1997784209715636 0.1832726374485461 1:11 2:10 3:7 4:6 5:6 6:6 7:6 8:7 9:9 10:9 11:6 12:7 13:6 14:6 15:6 16:7 17:9 18:11 19:2 20:4 21:18 22:18 23:18 24:6 25:3 26:6 27:9 28:15 29:18 30:13 31:5 
-0.2162627939189422 -0.3087145123890839 -0.1938012302708559 -0.293698017712398 -0.1689039237645001 -0.2959015595714754 -0.1406745787239662 -0.3222288414405274 -0.304483523227261 -0.4915301385424672 0.429558060841397 0.4386946480198228 0.3980466460206147 0.4826475231550921 0.4521610883179579 0.4440400542158339 0.3236230289197162 0.3025243548598571 0.2759442642429941 1:11 2:10 3:7 4:6 5:6 6:6 7:7 8:7 9:8 10:8 11:7 12:7 13:6 14:6 15:6 16:7 17:10 18:12 19:3 20:4 21:18 22:18 23:18 24:4 25:3 26:6 27:9 28:15 29:17 30:15 31:7 
-0.1884801278154374 -0.2714817215164392 -0.1707888342281191 -0.256907276032737 -0.1486996592832818 -0.2593011177303923 -0.1238739476695684 -0.2811140770805381 -0.2667496496853853 -0.4309596391529292 0.3760489641470267 0.3827773523353117 0.3491357710862038 0.4170184835550763 0.3967361441669578 0.3901040870121577 0.2840573901787412 0.263553218652786 0.242369004333799 1:5 2:4 3:3 4:3 5:3 6:3 7:9 8:11 9:9 10:7 11:7 12:6 13:6 14:6 15:6 16:7 17:6 18:9 19:10 20:1 21:2 22:19 23:19 24:19 25:4 26:5 27:3 28:3 29:5 30:9 31:13 32:11 33:7 
-0.02229830128559737 -0.03071022012267333 -0.02071580186275517 -0.03088596652602116 -0.01864848420749963 -0.03246707393832746 -0.01507595842909219 -0.03431473599776822 -0.03160798201946666 -0.0497554631218278 -0.05140827408458051 0.04593859776347842 0.0416850270344229 0.04752151443345688 0.0449675436562033 0.04544085498160448 0.03524051479432194 0.03357523167779851 0.02875160414275862 1:9 2:8 3:6 4:5 5:4 6:4 7:4 8:3 9:3 10:3 11:3 12:4 13:4 14:3 15:4 16:3 17:8 18:9 19:9 20:12 21:14 22:12 23:7 24:4 25:4 26:3 27:2 28:2 29:3 30:5 31:6 32:4 
-0.1069345375538392 -0.147435875781341 -0.09817300826128977 -0.1411185196005946 -0.08657047621960637 -0.1400739716596117 -0.07283017022564127 -0.1528518722561089 -0.144369369063583 -0.2253488996412707 -0.2387982638036546 0.2047671194497583 0.2096302244492813 0.2183373399966596 0.2085649271397239 0.2066316917773077 0.1543324368810428 0.1500730808857997 0.1334297189599429 1:8 2:8 3:6 4:5 5:4 6:3 7:3 8:3 9:4 10:4 11:3 12:6 13:7 14:7 15:10 16:11 17:9 18:5 19:4 20:2 21:2 22:3 23:4 24:6 25:1 
-0.3144417088280648 -0.4398013880504376 -0.2875584333916061 -0.4255421200294538 -0.2499315702128543 -0.4211593708356692 -0.2097733063968536 -0.4533659039187382 -0.4319256124745462 -0.6703029943228248 -0.7065547510937973 0.6045439870958862 0.5542004572756399 0.6543273034754437 0.6188768964822926 0.6124940823376679 0.4749029390010333 0.4404732261878199 0.3981262162983052 1:6 2:5 3:5 4:3 5:3 6:3 7:3 8:3 9:3 10:3 11:3 12:4 13:5 14:5 15:9 16:11 17:6 18:5 19:3 20:2 21:2 22:2 23:2 24:2 
-0.5216221731534609 -0.7278177184160441 -0.4756509105143082 -0.7038009516805663 -0.4149048796934773 -0.6977931017274858 -0.3519488222988315 -0.750739006520312 -0.716091826787933 -1 -1 1 0.9227169788675429 1 1 1 0.7583235013895945 0.7302123784297569 0.6665299479457368 1:8 2:8 3:6 4:5 5:4 6:3 7:3 8:3 9:4 10:4 11:3 12:6 13:8 15:3 16:2 17:2 18:2 19:1 20:7 21:10 22:11 23:10 24:5 25:4 26:2 27:2 28:3 29:4 30:6 31:1 
-0.5228204938096723 -0.729868959795886 -0.4816291875734146 -0.7061664793605852 -0.4162952904146852 -0.6999313378890177 -0.3493700302281647 -0.7535573757009322 -0.7179316876245483 -1 -1 1 0.9250394961771279 1 1 1 0.7591387993113338 0.73265914859036 0.6592880459056852 1:9 2:8 3:6 4:6 5:3 6:4 7:3 8:3 9:3 10:3 11:3 12:3 13:4 14:3 15:4 16:3 17:7 18:9 20:3 21:2 22:2 23:2 24:1 25:8 26:12 27:14 28:10 29:6 30:4 31:4 32:2 33:2 34:2 35:3 36:5 37:6 38:6 
-0.05862448390273516 -0.08403502691107145 -0.05433559647255908 -0.08128006728156764 -0.04886223896825094 -0.08097814033200554 -0.04198982308506301 -0.08882764655521613 -0.08178902912248627 -0.1307392350464877 -0.132218240709753 0.1156610216388531 0.1076204584754859 0.1283594041129292 0.1293928003960434 0.119922661345821 0.08985280529190698 0.08610844539677745 0.07670280329699974 1:9 2:8 3:6 4:6 5:3 6:4 7:3 8:3 9:3 10:3 11:3 12:3 13:4 14:3 15:4 16:3 17:7 18:10 19:8 20:12 21:14 22:10 23:7 24:4 25:4 26:2 27:2 28:2 29:3 30:5 31:6 32:6 
-0.004948973164855541 -0.004786650747615996 -0.0024364929508697 -0.004110637773084918 -0.0006480835581620277 -0.002595757825601717 -0 -0.002486822722728399 -0.004833597664762048 -0.002380184607867244 -0.008825148709267414 0.00362051576123182 0.002611733309934723 0.00162664425895219 0.001845301070349572 0.002576531501855103 0 0.001342916049061952 0.002289525913901518 1:8 2:8 3:6 4:6 5:3 6:4 7:3 8:3 9:3 10:3 11:3 12:3 13:4 14:3 15:4 16:3 17:8 18:10 19:8 20:12 21:15 22:10 23:7 24:4 25:4 26:2 27:2 28:2 29:3 30:5 31:6 32:5 
-0.1461984486657923 -0.2077374443063906 -0.1308092995729445 -0.1976994967535661 -0.1185027404584523 -0.1988669457160747 -0.0977296865546447 -0.2159921482339856 -0.199885581200216 -0.313612575181855 -0.3359725716698829 0.2782958918401977 0.2620338698618256 0.3157419308297791 0.2965321683658262 0.2890657167759758 0.2001979922859388 0.2082730898040762 0.1868464399895602 1:8 2:7 3:6 4:5 5:3 6:4 7:3 8:3 9:3 10:3 11:3 12:4 13:4 14:3 15:3 16:3 17:6 18:6 19:8 20:12 21:14 22:11 23:4 24:3 25:3 26:3 27:2 28:2 29:3 30:4 31:5 32:3 
-0.01667639774445424 -0.02281524614717108 -0.01404176799590049 -0.02294140455621934 -0.01172492038159127 -0.02200480831103664 -0.009071955708582746 -0.02277563652065133 -0.0207175991241977 -0.03471663095477152 -0.03680623763714094 0.03001778458396725 0.05308508064459615 0.03124246527100819 0.030925381440524 0.03087144596701366 0.02514365501765773 0.02101014691220313 0.02215804781906753 1:7 2:6 3:6 4:5 5:4 6:3 7:3 8:3 9:4 10:4 11:4 12:6 13:8 14:7 15:9 16:11 17:10 18:6 19:4 20:2 21:2 22:2 23:5 24:5 
-0.08329891902585469 -0.1180871399871425 -0.07608709824880824 -0.1131563106148487 -0.06763890227230403 -0.1129483967257082 -0.05523127318798201 -0.1220077559949613 -0.1145717477463476 -0.179251554044196 -0.1895159929852068 0.1622815932045905 0.1499818633940473 0.1752593546604696 0.1667318919360979 0.1638530329877278 0.1247482508666021 0.1179507481212701 0.1072539962220262 1:8 2:7 3:5 4:5 5:3 6:3 7:3 8:3 9:3 10:3 11:3 12:3 13:4 14:3 15:3 16:3 17:6 18:8 19:8 20:12 21:14 22:9 23:4 24:4 25:3 26:2 27:2 28:2 29:3 30:3 31:6 32:4 
-0.1131022360621828 -0.1587415428743915 -0.1040657893945442 -0.1523860875746036 -0.08848874601323413 -0.1496755731206915 -0.07556079352694672 -0.16075795078055 -0.1545459575245691 -0.2394069555957435 -0.2536067007947647 0.215606987732624 0.1982383320101532 0.232021418407563 0.2245323843177489 0.2172383562078441 0.1620927200684002 0.1563419988719867 0.1426358850273413 1:10 2:8 3:5 4:5 5:3 6:4 7:4 8:3 9:3 10:3 11:3 12:4 13:4 14:4 15:4 16:3 17:7 18:10 19:9 20:12 21:14 22:12 23:7 24:4 25:4 26:2 27:2 28:2 29:3 30:4 31:6 32:6 
-0.09360927773527944 -0.1257701265285831 -0.08766632343904884 -0.1258511725418506 -0.07171011543628633 -0.1219795619359072 -0.06299394472727372 -0.1276319244330736 -0.128995755390839 -0.1955878976952836 -0.2009591724670856 0.1809799026537281 0.1597625127612728 0.1826298514754347 0.1738132284367359 0.176369512257055 0.1482799985971808 0.1258779340420499 0.1157909238726986 1:8 2:7 3:6 4:5 5:3 6:4 7:3 8:3 9:3 10:3 11:3 12:3 13:4 14:3 15:3 16:3 17:6 18:6 19:8 20:12 21:14 22:10 23:4 24:3 25:3 26:3 27:2 28:2 29:3 30:4 31:5 32:3 
-0.09048947261454705 -0.1251774977311057 -0.08313526631658122 -0.1203469288373513 -0.07294146111193765 -0.1193776247473402 -0.06107451033623092 -0.1296361720075065 -0.1230475242368621 -0.1909148491997149 -0.2016722742884733 0.173437251363263 0.1610921330804004 0.1859133600320463 0.1774597108081637 0.1753620870631424 0.1268058346631669 0.1269618016630971 0.1129424988563006 1:6 2:5 3:4 4:4 5:4 6:3 7:3 8:4 9:4 10:3 11:3 12:6 13:7 14:6 15:9 16:11 17:10 18:4 19:3 20:2 21:2 22:2 23:4 24:3 
-0.2215130383514426 -0.3098472520185666 -0.2021085641107772 -0.2996892853364089 -0.1765225592840102 -0.2973659711165945 -0.1484606451744317 -0.319802879968297 -0.3056708064933509 -0.4723022131341982 -0.4976031812839308 0.4257029008391701 0.3950175243517564 0.4614071812830123 0.4358391290499913 0.4307275913229132 0.3189609512834564 0.3106350898569488 0.280118961218631 1:6 2:5 3:6 4:6 5:3 6:3 7:3 8:3 9:3 10:4 11:3 12:5 13:6 14:7 15:9 16:11 17:6 18:5 19:3 20:2 21:2 22:2 23:6 24:3 
-0.1897226404551636 -0.2662855811234681 -0.1717907193516215 -0.2581179506406729 -0.1501623758362179 -0.2565000384921524 -0.1258888442864629 -0.2744206493897904 -0.2626079294368998 -0.4050549807352098 -0.4262262827654652 0.3643159037709102 0.3282049996753964 0.3968023050741571 0.3729703457732522 0.368904530204018 0.2753506202279306 0.2648009741561709 0.2407924328545499 1:8 2:8 3:4 4:4 5:4 6:3 7:3 8:3 9:4 10:4 11:3 12:6 13:8 14:7 15:10 16:11 17:10 18:4 19:4 20:2 21:2 22:3 23:4 24:5 
-0.1102854779581521 -0.1550048366408448 -0.1017539984860222 -0.1502215425078221 -0.08833046660795685 -0.1487236790682633 -0.07431501575000656 -0.1604277680921086 -0.1538834885948766 -0.2362051322840039 -0.2487132490766406 0.2139839222563483 0.1826008989274668 0.2334136718410959 0.2191616471757276 0.2167885781413086 0.1623728726982066 0.1557740995095453 0.1454644036106818 1:8 2:6 3:6 4:5 5:4 6:3 7:3 8:3 9:4 10:4 11:3 12:6 13:8 14:7 15:9 16:11 17:10 18:5 19:4 20:2 21:2 22:2 23:5 24:6 
-0.1854197865261152 -0.2581733356214589 -0.169567181996023 -0.2500017121915533 -0.1478029594813841 -0.2475564578758734 -0.1242811774166052 -0.2672388591346225 -0.254572595840459 -0.394567457298613 -0.4158418767148853 0.3550693401869257 0.3279118857590818 0.3854607568628105 0.360721434282581 0.3600487773369364 0.270774821167757 0.2601604504680842 0.2339231251953117 1:7 2:9 3:5 4:5 5:3 6:4 7:4 8:3 9:3 10:3 11:3 12:3 13:4 14:3 15:3 16:3 17:5 18:8 19:8 20:12 21:14 22:11 23:5 24:4 25:4 26:2 27:2 28:3 29:3 30:3 31:4 32:3 
-0.262180303522379 -0.3654266844778858 -0.2386318454567256 -0.353705662349373 -0.2103408407620982 -0.351641335905119 -0.1755003055356886 -0.3777833573125799 -0.3603203465016176 -0.5586516184236824 -0.5880468106379607 0.5042812575017246 0.4647394821318722 0.5475253007904666 0.5153093238055976 0.5114680692819286 0.3803620114404098 0.3676107427115597 0.33112433732417 1:10 2:9 3:5 4:5 5:3 6:4 7:4 8:3 9:3 10:3 11:3 12:3 13:4 14:3 15:4 16:3 17:9 18:10 19:8 20:12 21:16 22:11 23:7 24:4 25:4 26:3 27:2 28:2 29:3 30:4 31:6 32:6 
-0.02631826597239613 -0.0338595889039746 -0.02346477360461184 -0.03310334097603136 -0.02004315260004971 -0.03553184567240417 -0.01686171386113835 -0.03649873009372778 -0.03377580452448387 -0.05468956873117042 -0.05719005613848786 -0.04914925308775411 0.0448516859905585 0.05308586118108456 0.05103568838124403 0.04976372052207269 0.03807978446737965 0.03713908303751453 0.03375843268114514 1:13 2:9 3:7 4:6 5:7 6:7 7:6 8:6 9:6 10:6 11:6 12:7 13:7 14:7 15:7 16:7 17:9 18:13 19:2 20:4 21:18 22:18 23:18 24:3 25:2 26:2 27:2 28:3 29:4 30:6 31:7 32:11 33:14 34:12 35:10 
-0.2701092017985863 -0.3783088625347991 -0.2472115088756221 -0.3653836301011165 -0.2163053389330958 -0.3621557109229065 -0.1807218284881068 -0.3893990769282298 -0.3724093900505689 -0.5718238108745701 -0.602093459275586 -0.5180692844300951 0.4790310057418573 0.5592921558521742 0.5324555621226531 0.5282858854312458 0.3942550080187431 0.3789486821617513 0.3420544700771007 1:13 2:9 3:7 4:6 5:7 6:7 7:6 8:6 9:6 10:6 11:6 12:7 13:7 14:7 15:7 16:7 17:9 18:13 20:1 21:3 22:4 23:18 24:18 25:18 26:3 27:2 28:2 29:2 30:3 31:4 32:6 33:7 34:11 35:14 36:12 37:10 
-0.1984251638261272 -0.2764750953784307 -0.1798343815289211 -0.2666731881642435 -0.1566071176481593 -0.2640775651888929 -0.1324200277369411 -0.2850805144285165 -0.2717988037130448 -0.4185244840848031 -0.4402817223749874 -0.378535016239807 0.3507030396430742 0.4081819034686082 0.3875767151165392 0.3852324400739443 0.286898217331242 0.2768858901003768 0.2495673700285499 1:13 2:11 3:6 4:6 5:7 6:7 7:6 8:6 9:6 10:6 11:6 12:6 13:7 14:7 15:7 16:6 17:11 18:13 20:1 21:3 22:4 23:18 24:18 25:18 26:4 27:2 28:2 29:3 30:4 31:4 32:4 33:7 34:10 35:15 36:12 37:10 
-0.2245867371331602 -0.313676353513748 -0.2057922374634053 -0.3035016161440014 -0.1785265029240077 -0.3015568337504195 -0.1505225879748332 -0.3245912676123726 -0.3080453413540642 -0.4750134753055885 -0.4984251982821687 -0.4298043925739775 0.3975132956289135 0.464584529998837 0.4406248770861353 0.437383404065288 0.3263899881452961 0.3137410474021435 0.2847753543659618 1:13 2:11 3:8 4:7 5:7 6:7 7:6 8:6 9:6 10:6 11:6 12:7 13:7 14:6 15:7 16:6 17:11 18:13 20:1 21:3 22:4 23:18 24:18 25:18 26:3 27:2 28:2 29:3 30:4 31:4 32:5 33:8 34:11 35:16 36:13 37:9 
-0.04765946522263535 -0.06853492299714671 -0.04392716560527332 -0.06586860138425908 -0.03815430760217353 -0.06587189328084371 -0.0313758553684809 -0.07100256712379055 -0.06936327622666508 -0.1037403656841057 -0.1104547598544687 -0.09242891603447953 0.08597587539527687 0.1012982612935933 0.09565244164665339 0.0952161300944627 0.07150958080004276 0.07066799149743494 0.0621576800921935 1:5 2:4 3:3 4:3 5:3 6:3 7:10 8:9 9:6 10:7 11:6 12:6 13:6 14:6 15:7 16:8 17:9 18:11 19:9 20:7 21:11 22:13 23:9 24:5 25:3 26:3 27:5 28:7 29:19 30:19 31:19 32:1 
-0 -0 -0 -0 -0 -0.005326216395415057 -0 -0 -0 -0 -0 -0 0 0 0 0 0 0 0 1:12 2:10 3:8 4:6 5:7 6:7 7:6 8:6 9:6 10:6 11:6 12:7 13:7 14:7 15:7 16:7 17:11 18:13 19:1 20:3 21:18 22:18 23:18 24:3 25:2 26:2 27:3 28:4 29:4 30:6 31:7 32:11 33:16 34:13 35:10 
-0.1489971114719133 -0.2075027979888964 -0.1338783981391269 -0.2004000306407825 -0.1156065283877141 -0.1964145230387927 -0.100607544821018 -0.2128322081317053 -0.2024128301140035 -0.3120441168420029 -0.3301137515982585 -0.2810022926982523 0.2592803747286495 0.3028346252696806 0.2893385427572645 0.2854743787604095 0.2135937541421864 0.2053463109483582 0.1862014715242945 1:13 2:12 3:8 4:7 5:7 6:7 7:6 8:6 9:6 10:6 11:6 12:7 13:7 14:6 15:7 16:6 17:10 18:12 19:1 20:3 21:18 22:18 23:18 24:4 25:2 26:2 27:3 28:4 29:4 30:5 31:8 32:11 33:16 34:13 35:9 
-0.08773481047786222 -0.1234528359427602 -0.08082319460153051 -0.1187515992185609 -0.07006837233053739 -0.1125367223434032 -0.05907953646383334 -0.1270789611341848 -0.121835912784366 -0.1848847406948247 -0.1953222326144201 -0.1684409682192515 0.1558640034731653 0.1819318311548774 0.171817541139052 0.169911245612816 0.128047725328593 0.1221962733545554 0.1098993743454856 1:12 2:10 3:8 4:6 5:7 6:7 7:6 8:6 9:6 10:6 11:6 12:6 13:7 14:7 15:7 16:7 17:11 18:13 19:1 20:3 21:18 22:18 23:18 24:3 25:2 26:2 27:3 28:4 29:4 30:6 31:7 32:10 33:16 34:13 35:10 
-0.05449367045805856 -0.07752596281512725 -0.05219889081860672 -0.07650999366656919 -0.04459668094261834 -0.07158711838337165 -0.0390052132312031 -0.08219196223729222 -0.08090826044128202 -0.1189941629993806 -0.1243474636371955 -0.107129370625197 0.1003952130374808 0.117348318000509 0.1114310481650026 0.1119611924077959 0.08348924404128476 0.07811993562368905 0.06965889371493041 1:13 2:8 3:6 4:6 5:7 6:7 7:6 8:6 9:6 10:6 11:6 12:7 13:7 14:6 15:6 16:6 17:9 18:13 19:2 20:4 21:18 22:18 23:18 24:3 25:2 26:2 27:2 28:2 29:4 30:4 31:6 32:11 33:14 34:12 35:9 
-0.07238154111100407 -0.1013215154586001 -0.06487464459670572 -0.09920181172272578 -0.05661066308098415 -0.0982948658918997 -0.05111966907761487 -0.1065977465861716 -0.1051799286744689 -0.1541534196159779 -0.1654469505026795 -0.1390748824287995 0.1319173673117053 0.1532786685113001 0.1460292623494633 0.1434509754992296 0.1083100197690701 0.1024000260055484 0.09163871470349645 1:13 2:8 3:6 4:6 5:6 6:7 7:6 8:6 9:6 10:6 11:6 12:6 13:6 14:6 15:6 16:6 17:9 18:13 19:2 20:4 21:18 22:18 23:18 24:3 25:2 26:2 27:2 28:2 29:4 30:4 31:6 32:10 33:14 34:12 35:7 
-0.1820113604510284 -0.2558220166251071 -0.1690035247760233 -0.2468692339117856 -0.1463899591754931 -0.2448756731609606 -0.1221949410906286 -0.2669690040446379 -0.2529106819934828 -0.3886503723114205 -0.4106076846260696 -0.35184444126477 0.3234340912809558 0.3799012574203682 0.3585440646991672 0.3548398161247052 0.2714482724333885 0.258704556231526 0.2335987525395075 1:4 2:3 3:3 4:3 5:3 6:3 7:8 8:8 9:6 10:6 11:6 12:6 13:6 14:6 15:6 16:7 17:8 18:11 19:8 20:7 21:11 22:11 23:7 24:4 25:3 26:3 27:3 28:4 29:19 30:19 31:19 32:1 
-0.06620850317919647 -0.08750295986658824 -0.05528908236112639 -0.08513396719352441 -0.0487929316489729 -0.08463640573301229 -0.04353744180967327 -0.08580762179906209 -0.08218361509014838 -0.1322255914187438 -0.1318484161593451 -0.120998578943568 0.1136194094812473 0.1297551963345324 0.1275902581340644 0.1234230209422967 0.08244762559340989 0.0819143599642226 0.07614339281390684 1:4 2:3 3:3 4:3 5:3 6:3 7:8 8:9 9:6 10:6 11:6 12:6 13:6 14:6 15:6 16:7 17:9 18:11 19:9 20:7 21:11 22:11 23:7 24:5 25:3 26:3 27:5 28:4 29:19 30:19 31:19 32:1 
-0.3226132477621835 -0.4487353380141389 -0.2948147300300035 -0.4341289885532685 -0.2570406728780504 -0.4300486224882681 -0.2158996469232099 -0.4647493676102839 -0.4394981435606281 -0.6805215956916089 -0.712465287181266 -0.616196129809353 0.5696728413750076 0.6645929518124323 0.632566992034389 0.6253921419193256 0.4681763104573827 0.4477784148662072 0.4064269607253228 1:5 2:4 3:3 4:3 5:3 6:3 7:10 8:9 9:7 10:7 11:6 12:6 13:6 14:6 15:7 16:8 17:10 18:12 19:11 20:8 21:11 22:13 23:9 24:5 25:3 26:3 27:6 28:8 29:19 30:19 31:19 32:2 33:1 
-0.07751957701940135 -0.1085940977019987 -0.06999128717361541 -0.1027990796517394 -0.06117983085784011 -0.1040187135874129 -0.04836678486649412 -0.1078173592177447 -0.09808752427132574 -0.1603195473151364 -0.1668447690806293 -0.1469644149418238 0.1318450227184558 0.1540645987331047 0.1454552362117664 0.1432297158425865 0.1068045382929208 0.1056186938899181 0.09731900957847625 1:13 2:8 3:6 4:6 5:6 6:7 7:7 8:6 9:6 10:6 11:6 12:6 13:7 14:6 15:6 16:6 17:9 18:13 19:2 20:4 21:18 22:18 23:18 24:3 25:2 26:2 27:2 28:2 29:4 30:4 31:6 32:11 33:14 34:12 35:8 
-0.2569612928485109 -0.3581458433166755 -0.2345143042627372 -0.3459972242856158 -0.2051978998260024 -0.3439283589757987 -0.1700274179217927 -0.3690815564677004 -0.3503377497928828 -0.5420785920510923 -0.5686197158802531 -0.4908360612638303 0.4536561563054703 0.5295941415323406 0.5033830929286567 0.4995747470451364 0.372174690590219 0.3589206643634558 0.324586987810825 1:12 2:8 3:7 4:6 5:6 6:6 7:6 8:6 9:6 10:6 11:6 12:6 13:6 14:6 15:7 16:7 17:9 18:12 19:1 20:3 21:18 22:18 23:18 24:4 25:2 26:2 27:2 28:2 29:4 30:4 31:6 32:9 33:14 34:14 35:7 
-0.2350796371512512 -0.3276391896150608 -0.2131925490003865 -0.3170756258968134 -0.1861010473964741 -0.31448875785839 -0.157213534431937 -0.3357720534253917 -0.3218819305675342 -0.495462816396911 -0.5197608953905732 -0.4492774161736348 0.4159708805639087 0.4842854107646124 0.4608913121234166 0.4571143325004355 0.3384538274093009 0.3268052253665264 0.2948748409054116 1:4 2:3 3:3 4:3 5:3 6:3 7:8 8:8 9:6 10:7 11:6 12:6 13:6 14:6 15:6 16:7 17:8 18:11 19:10 20:8 21:11 22:12 23:8 24:4 25:3 26:3 27:2 28:3 29:19 30:19 31:19 32:2 33:1 
-0.04956546248127389 -0.06964544067383381 -0.04435755826717945 -0.06697664811063365 -0.03928724080494575 -0.06715450125463568 -0.03317300510387965 -0.06984873234726122 -0.06866055631078262 -0.1042133793551803 -0.1118853509280019 -0.09616697012310794 0.08839177530665875 0.1025918330470825 0.09689927855299769 0.09612467746968885 0.07145871305983165 0.07002419092392893 0.06229924463950333 1:5 2:4 3:3 4:3 5:3 6:3 7:10 8:9 9:7 10:7 11:6 12:6 13:6 14:6 15:6 16:8 17:10 18:12 19:11 20:9 21:11 22:13 23:8 24:5 25:3 26:3 27:6 28:7 29:19 30:19 31:19 32:2 33:1 
-0.5200304844358276 -0.7263524200306726 -0.4752279272639441 -0.7019902469692885 -0.4140948872231754 -0.696290918227609 -0.3475634991340781 -0.7500566667103653 -0.7146007484860561 -1 -1 -0.9957553715185413 0.9214000396429558 1 1 1 0.7565424271427973 0.7283951345162341 0.657756737020623 1:5 2:4 3:3 4:3 5:3 6:3 7:10 8:9 9:7 10:7 11:6 12:6 13:6 14:6 15:7 16:8 17:10 18:12 19:11 21:3 22:2 23:2 24:2 25:1 26:8 27:11 28:13 29:9 30:5 31:3 32:3 33:6 34:8 35:19 36:19 37:19 38:2 39:1 
-0.2018565207951674 -0.2817340006433441 -0.1814074476155183 -0.2718867397093477 -0.1591187027408442 -0.2665692989971175 -0.1337542871982457 -0.2890424882398283 -0.2753473943877636 -0.4237905074091058 -0.4471680044797379 -0.3814604370622525 0.3543056845223908 0.4119503447318741 0.3922802113157789 0.3909731429978167 0.2904039408873344 0.2789319532221137 0.2531872737604162 1:13 2:12 3:7 4:6 5:7 6:7 7:6 8:6 9:6 10:6 11:6 12:7 13:7 14:7 15:7 16:6 17:11 18:13 19:3 20:4 21:18 22:18 23:18 24:3 25:2 26:2 27:3 28:4 29:4 30:5 31:7 32:11 33:16 34:12 35:10 
-0.01127709210997245 -0.01928272599260836 -0.01392875754773537 -0.01851687608137043 -0.0122676601709833 -0.01773226484667465 -0.007727258509376007 -0.02428030909337023 -0.02177844088602782 -0.02877366109085508 -0.03583484915863445 -0.02428228266073038 0.02233411703473577 0.02766872243206685 0.02335947695701656 0.02596828041577616 0.02635001755487446 0.02364663876945495 0.02000221891444251 1:4 2:3 3:3 4:3 5:3 6:3 7:8 8:9 9:6 10:6 11:6 12:6 13:6 14:6 15:6 16:7 17:9 18:12 19:10 20:7 21:11 22:11 23:7 24:5 25:3 26:3 27:5 28:4 29:19 30:19 31:19 32:2 33:1 
-0.01703036201601027 -0.02514907574638251 -0.01986935767802656 -0.02484703365329065 -0.01780698087177443 -0.02858457922125007 -0.01139406339794864 -0.02806216550225241 -0.02724250705497354 -0.04226598261785706 -0.04090123989188105 -0.04108749754343143 0.03789708625557969 0.04483789598729176 0.04081514402593823 0.03968037980097996 0.02965325682293563 0.03075812523961052 0.02558094455398223 1:13 2:12 3:8 4:7 5:7 6:7 7:6 8:6 9:6 10:6 11:6 12:7 13:7 14:6 15:7 16:6 17:11 18:13 19:2 20:4 21:18 22:18 23:18 24:4 25:2 26:2 27:3 28:4 29:4 30:5 31:8 32:11 33:16 34:13 35:9 
-0.2534488925097352 -0.3475105800832051 -0.2323760604481192 -0.3398887024491559 -0.2037312974810968 -0.3341695920798726 -0.1709041852237503 -0.3586326609920633 -0.3421435775139227 -0.5162966540170665 -0.539699686325663 -0.4701122164052908 -0.4721098276641508 1 0.4812596782001138 0.477701222778664 0.3608774157819223 0.3556429863946526 0.3161025269547075 1:12 2:7 3:5 4:3 5:3 6:3 7:3 8:4 9:9 10:4 11:3 12:3 13:3 14:3 15:3 16:5 17:5 18:12 19:1 20:3 21:18 22:18 23:18 24:4 25:3 26:3 27:3 28:3 29:7 30:6 31:3 
-0.5772088878243242 -0.793884105124851 -0.5289525310472341 -0.7759784956417541 -0.4628244424407626 -0.7631140295552598 -0.3904393189391727 -0.8177727438810191 -0.7816681253928107 -1 -1 -1 -1 1 1 1 0.8252531080736369 0.8108748658870268 0.7226452670351182 1:12 2:6 3:5 4:3 5:3 6:3 7:3 8:4 9:9 10:4 11:3 12:3 13:3 14:3 15:3 16:5 17:9 18:13 20:3 21:2 22:2 23:2 24:4 25:4 26:18 27:18 28:18 29:4 30:3 31:3 32:3 33:3 34:8 35:6 36:3 
-0 -0 -0 -0 -0 -0 -0 -0 -0 -0.179609102239809 -0.2322972587548119 -0.07508272344154336 -0.08019660930994572 0.1960154924662499 0.147198611898543 0.1276701170934684 0 0 0 1:7 2:8 3:9 4:8 5:8 6:8 7:12 8:4 9:4 10:4 11:4 12:6 13:8 15:4 16:3 17:10 18:2 19:2 20:1 21:7 22:9 23:11 24:12 25:7 26:4 27:4 28:5 29:8 30:8 31:7 
-0.1561203792881352 -0.2124122169752975 -0.1426588349777163 -0.2088975778110257 -0.1246168557518226 -0.2061315072159439 -0.1052465134510165 -0.2203091850940548 -0.210107010908258 -0.3180164681692564 -0.3318432025013777 -0.2895344785680648 -0.2912893082922283 0.4087722838872292 0.2962588575054068 0.2937676989936809 0.2217850543343114 0.2172950340712674 0.1950513679556744 1:12 2:7 3:5 4:3 5:3 6:3 7:3 8:4 9:9 10:5 11:3 12:3 13:3 14:3 15:3 16:5 17:8 18:13 19:2 20:4 21:18 22:18 23:18 24:6 25:3 26:3 27:3 28:3 29:8 30:6 31:3 
-0.1881966343215826 -0.2593819598339238 -0.1720622366791647 -0.2534167414870839 -0.1512577617186582 -0.248479101540975 -0.1281793264182577 -0.266768689954346 -0.2556004688690635 -0.3834982502111447 -0.4017711082949095 -0.3512806175514437 -0.3521288255368254 0.2847932168124633 0.3594854609170146 0.3562744721084959 0.2693301652982448 0.2661012081410931 0.2360218170040154 1:11 2:5 3:5 4:3 5:3 6:3 7:3 8:4 9:9 10:4 11:3 12:3 13:3 14:3 15:3 16:5 17:8 18:13 19:1 20:3 21:18 22:18 23:18 24:4 25:3 26:3 27:3 28:3 29:8 30:6 31:3 
-0.5769817892125094 -0.7942451660323649 -0.5284537302665079 -0.7754012926518176 -0.4632559820206367 -0.7628964403130706 -0.3904477415072566 -0.8184107005031394 -0.7818756419856572 -0.9986061012540932 -1 -1 -0.9984009516089342 0.9764269795156395 0.952690094011433 0.9627159090768682 0.82521875030959 0.8109152378458483 0.7221282923285312 1:7 2:8 3:9 4:8 5:8 6:8 7:12 8:4 9:4 10:4 11:4 12:6 13:8 15:4 16:3 17:10 18:2 19:2 20:1 21:7 22:9 23:11 24:12 25:7 26:4 27:4 28:5 29:8 30:8 31:7 
-0.2181756483922665 -0.2992242303609878 -0.1989087880154463 -0.2927517942918401 -0.1748115745359305 -0.2873808563192158 -0.1474481342295114 -0.3086135563726984 -0.2945363576870215 -0.4436014329071058 -0.4643481981067689 -0.3982740894454986 -0.4067892223008365 0.4419463393734655 0.414350050098591 0.4108596044549583 0.3116534500775598 0.3057553063819512 0.2718998596392654 1:5 2:8 3:8 4:7 5:7 6:8 7:11 8:3 9:3 10:3 11:3 12:4 13:5 14:6 15:9 16:11 17:10 18:6 19:5 20:5 21:6 22:7 23:6 24:4 
-0.2564349748876938 -0.3523916233367505 -0.2347093766488419 -0.344949456329868 -0.2058754179896284 -0.3386531196234512 -0.1734697129062525 -0.3638750314922689 -0.3471943705490205 -0.5307837528910129 -0.5466686897526474 -0.473573611824459 -0.4784114162234727 0.5199780372538989 0.4884942997029146 0.4841582625538334 0.3662424803735922 0.3604576898535933 0.3209661386016008 1:5 2:6 3:6 4:7 5:7 6:8 7:11 8:3 9:3 10:4 11:3 12:8 13:7 14:7 15:9 16:11 17:11 18:5 19:4 20:4 21:7 22:8 23:8 24:4 
-0.03937497728448355 -0.05451990170097981 -0.0366789341052621 -0.05317469458256388 -0.0314301665984984 -0.05194615804544658 -0.02704713909832259 -0.05582843894847091 -0.0537225050102613 -0.07907720124882613 -0.08498884190573552 -0.07158548339869385 -0.07499016898085914 0.08217771982738679 0.07537606027571948 0.07373403998147937 0.05617903110369305 0.05488048856711261 0.04926730645122502 1:6 2:8 3:7 4:8 5:7 6:7 7:11 8:3 9:4 10:4 11:3 12:6 13:8 14:7 15:10 16:11 17:12 18:5 19:4 20:4 21:6 22:8 23:8 24:7 
