svm_type c_svc
kernel_type rbf
gamma 0.0357143
nr_class 10
total_sv 1117
rho -0.180093 -0.0480918 -0.0226871 -0.206562 0.0450875 -0.124865 0.0144092 -0.0607858 -0.0317886 0.132463 0.160434 -0.023672 0.224425 0.0552071 0.194657 0.126971 0.140596 0.0295151 -0.158535 0.0926513 -0.0781192 0.0618086 -0.0058335 0.00842804 -0.186769 0.0652011 -0.10849 0.0337646 -0.0270117 -0.0190082 0.251049 0.0799901 0.221214 0.152971 0.166784 -0.175896 -0.0302491 -0.113458 -0.0842936 0.139117 0.0733454 0.0894055 -0.0676463 -0.0533067 0.013752
label 0 1 2 3 4 5 6 7 8 9
nr_sv 124 85 125 110 86 110 116 113 126 122
SV
0.5579629573226814 0.6494726533565989 0.7103034664629188 0.5395902929410128 0.7279956667298957 0.6208097999565845 0.6902603448355364 0.6940308499407045 0.7872045105107214 1:3 2:5 3:3 4:3 5:6 6:9 7:4 8:5 9:10 10:5 11:4 12:3 13:2 14:4 15:5 16:5 17:3 18:6 19:13 20:8 21:5 22:5 23:4 24:5 25:4 26:7 27:13 28:9 
0.0344279738650394 0.03590764738296055 0.06619533709236938 0.03344859646797133 0.03887556832718856 0.05489476956909577 0.04274594881987155 0.009018840887818848 0.09559046889895149 1:5 2:7 3:4 4:4 5:3 6:4 7:4 8:5 9:4 10:8 11:5 12:8 13:5 14:4 15:5 16:9 17:5 18:9 19:13 20:6 21:4 22:5 23:6 24:6 25:6 26:10 27:14 28:10 
0.6734699320772677 0.8061379170336057 0.8405845665684599 0.6519018628534764 0.8578548372456037 0.7489607020713432 0.8331594556990489 0.7978235678784749 0.8603450821459457 1:5 2:7 3:4 4:5 5:3 6:11 7:4 8:4 9:7 10:7 11:5 12:5 13:5 14:9 15:5 16:11 17:7 18:10 19:14 20:8 21:7 22:7 23:7 24:7 25:8 26:10 27:15 28:11 
0.2791711688483855 0.3240140118123402 0.3268359231415061 0.2702373126840902 0.3519748418983843 0.2577449008180878 0.3459544769900075 0.2838249822545475 0.3008870251372426 1:10 2:7 3:5 4:4 5:2 6:4 7:4 8:4 9:4 10:4 11:5 12:4 13:3 14:5 15:4 16:6 17:3 18:8 19:14 20:8 21:3 22:4 23:2 24:4 25:3 26:8 27:15 28:9 
0.324197412474416 0.3735697721976916 0.3942921008435816 0.3142058623198034 0.4136597808141835 0.3613580290174765 0.4013202954058667 0.3746561594615033 0.3697438225737202 1:9 2:6 3:4 4:4 5:2 6:4 7:4 8:4 9:4 10:4 11:4 12:4 13:2 14:4 15:4 16:10 17:4 18:7 19:15 20:7 21:4 22:4 23:3 24:4 25:3 26:7 27:15 28:8 
0.291729440241944 0.3319939352935456 0.3258576284373024 0.2825327409070065 0.4800940545574082 0.563254531927323 0.3608091541493723 0.3716546280489652 0.3076886269967105 1:3 2:6 3:3 4:3 5:2 6:3 7:7 8:8 9:4 10:4 11:4 12:3 13:2 14:4 15:4 16:5 17:3 18:5 19:12 20:7 21:3 22:4 23:3 24:4 25:3 26:6 27:14 28:7 
0.618104072382969 0.7232334344819508 0.826992679681222 0.5980527067658885 0.8120708975733455 0.8728742734387038 0.765098214722986 0.87095309922301 0.8864065157133872 1:5 2:7 3:4 4:4 5:3 6:4 7:4 8:9 9:7 10:7 11:4 12:5 13:8 14:9 15:10 16:8 17:5 18:9 19:13 20:8 21:9 22:7 23:7 24:8 25:8 26:9 27:14 28:11 
0.7632948531643243 0.8917364173148116 0.9545446786188686 0.7388283362621861 0.9745552925425349 0.8108503509297864 0.9448604702490533 0.8782917437079266 0.9212093409625518 1:5 2:5 3:4 4:3 5:11 6:3 7:5 8:4 9:4 10:4 11:4 12:3 13:11 14:4 15:4 16:5 17:4 18:7 19:12 20:8 21:5 22:6 23:4 24:4 25:6 26:8 27:13 28:10 
0.1889706854462934 0.2186478821218222 0.2136742624650149 0.1831717074887518 0.2327773191705647 0.1755709921110296 0.2335754586317857 0.21907384963185 0.3221324049120994 1:3 2:6 3:4 4:5 5:2 6:6 7:4 8:4 9:4 10:4 11:4 12:4 13:3 14:9 15:6 16:6 17:3 18:8 19:13 20:7 21:4 22:5 23:3 24:5 25:3 26:8 27:13 28:8 
0.3685071755285095 0.4911561102734937 0.536757293325086 0.3568796641427488 0.4906254734423136 0.8821086095848096 0.4559991236955451 0.4641939716045231 0.4597161164008107 1:5 2:7 3:5 4:4 5:4 6:4 7:4 8:9 9:6 10:4 11:4 12:4 13:4 14:4 15:4 16:9 17:9 18:11 19:15 20:8 21:5 22:5 23:5 24:5 25:6 26:8 27:13 28:9 
0 0.01264746156911689 0 0 0 0 0 0 0 1:5 2:8 3:6 4:4 5:3 6:5 7:5 8:4 9:4 10:4 11:6 12:5 13:5 14:6 15:5 16:9 17:8 18:9 19:15 20:8 21:5 22:5 23:7 24:4 25:5 26:9 27:14 28:11 
0.2770106960491285 0.3352041665993978 0.4166903680164634 0.2684203470619612 0.3505854410638233 0.3103256972336672 0.3425011796938564 0.3247946925393418 0.3178211522165014 1:5 2:7 3:4 4:8 5:4 6:11 7:4 8:4 9:4 10:4 11:4 12:5 13:4 14:5 15:6 16:7 17:5 18:8 19:13 20:7 21:6 22:6 23:6 24:6 25:7 26:8 27:13 28:11 
0.4229822483329936 0.5237057090780837 0.5709141791947728 0.4096923557360251 0.5429001309260103 0.6012075158772053 0.523932851967411 0.6447775798996032 0.5356556547409365 1:5 2:7 3:4 4:4 5:3 6:4 7:5 8:4 9:11 10:4 11:6 12:6 13:7 14:5 15:4 16:8 17:7 18:10 19:14 20:9 21:6 22:6 23:6 24:6 25:6 26:9 27:13 28:9 
0.3892062882960532 0.4511678455093495 0.4541569477939038 0.3770513840451315 0.5014487828661012 0.4509087702398265 0.4818579402464146 0.4807698671810205 0.4514086760482177 1:3 2:6 3:4 4:4 5:3 6:4 7:6 8:5 9:4 10:4 11:4 12:11 13:2 14:5 15:4 16:6 17:3 18:7 19:13 20:10 21:5 22:5 23:3 24:5 25:3 26:7 27:13 28:7 
0.6713545316565912 0.7761589954861962 0.812563151657255 0.6492487473991538 0.8686432583630438 0.7721524141274045 0.8302152035096795 0.8276271149950988 0.85501726640683 1:4 2:6 3:4 4:4 5:3 6:5 7:6 8:7 9:9 10:7 11:4 12:4 13:3 14:11 15:4 16:11 17:3 18:9 19:14 20:9 21:5 22:7 23:6 24:8 25:5 26:8 27:14 28:10 
0.7431844470677129 0.887900541586165 0.9070543690231392 0.7191257911540397 0.9980507292853131 1 0.9194275057965857 1 1 1:7 2:8 3:5 4:5 5:4 6:7 7:8 8:11 9:5 10:11 11:4 12:4 13:4 14:4 15:6 16:7 17:6 18:8 19:15 20:10 21:9 22:7 23:7 24:7 25:9 26:10 27:13 28:11 
0 0 0 0 0 0.01836566460553051 0 0.01227387839531974 1 1:5 2:8 3:5 4:4 5:3 6:4 7:4 8:4 9:4 10:10 11:6 12:4 13:4 14:4 15:4 16:7 17:5 18:8 19:13 20:7 21:6 22:5 23:5 24:5 25:5 26:8 27:14 28:9 
0.5210228897666498 0.6029840130995621 0.6369699590712745 0.5037410060398552 0.6627227540495493 0.5616593194059916 0.6449072315452166 0.5985306117867283 0.5986660276639354 1:8 2:10 3:9 4:6 5:6 6:4 7:4 8:4 9:4 10:4 11:4 12:4 13:6 14:5 15:8 16:9 17:6 18:11 19:15 20:8 21:7 22:5 23:5 24:6 25:7 26:9 27:15 28:13 
0.03165605469578016 0.04496248466790237 0.1701606571921511 0.03097833015778413 0.0431108126830882 0.114754484143376 0.03936935398015252 0.1055684758988843 0.2985862191602301 1:5 2:11 3:4 4:4 5:3 6:4 7:4 8:5 9:5 10:5 11:7 12:7 13:7 14:5 15:4 16:8 17:5 18:9 19:14 20:8 21:6 22:6 23:5 24:6 25:6 26:8 27:15 28:10 
0.522267190238707 0.6037699043262689 0.6398590782728603 0.5054850528019464 0.6653125477428576 0.5482312764162327 0.6462467401770222 0.5947352815728235 0.6055367279513058 1:5 2:9 3:4 4:6 5:3 6:4 7:4 8:4 9:4 10:4 11:4 12:4 13:4 14:4 15:11 16:8 17:8 18:10 19:14 20:6 21:5 22:5 23:5 24:5 25:5 26:7 27:15 28:13 
0.7219934017935246 0.8485415385581226 0.8747516318582902 0.6989456908600866 0.9205921944104858 0.8232550923870174 0.89356199252043 0.8502411358037032 1 1:7 2:7 3:5 4:4 5:3 6:4 7:4 8:4 9:6 10:5 11:11 12:6 13:11 14:9 15:5 16:7 17:5 18:9 19:14 20:10 21:8 22:8 23:7 24:8 25:8 26:8 27:13 28:10 
0.06736518358404146 0.06437809906698685 0.1159224111105663 0.06588826677748089 0.08590793719003982 0.1008770479324353 0.08413571850758676 0.03676421897761804 0.1234315523811162 1:3 2:6 3:4 4:4 5:2 6:4 7:4 8:4 9:4 10:4 11:4 12:4 13:8 14:5 15:4 16:6 17:3 18:7 19:13 20:7 21:3 22:5 23:3 24:5 25:3 26:6 27:13 28:8 
0.2064984748260667 0.2352852141903913 0.2378281406156464 0.1996300309113943 0.2570666666035705 0.2110186098572334 0.2556292235987059 0.205571472470175 0.1965612836853639 1:4 2:7 3:4 4:5 5:2 6:4 7:4 8:4 9:4 10:4 11:5 12:10 13:2 14:4 15:4 16:7 17:3 18:7 19:13 20:6 21:3 22:6 23:4 24:5 25:3 26:8 27:14 28:8 
0.4341784644879979 0.5026403497626081 0.5113730685563697 0.4202141151506376 0.5555356968959655 0.4368464581387004 0.5374195266686445 0.5177805515902406 0.5538662827259542 1:5 2:7 3:4 4:11 5:3 6:9 7:6 8:4 9:4 10:4 11:4 12:4 13:4 14:4 15:4 16:7 17:5 18:9 19:13 20:7 21:6 22:6 23:6 24:6 25:6 26:7 27:13 28:10 
0.2878292969527506 0.3640673262350135 0.5355955022610033 0.2785221570168802 0.3920418471072537 0.3412529927189881 0.3561801717155699 0.4235554942535504 0.6678779956202325 1:4 2:6 3:5 4:5 5:4 6:4 7:5 8:5 9:5 10:5 11:5 12:4 13:3 14:4 15:4 16:4 17:3 18:5 19:12 20:6 21:4 22:3 23:3 24:8 25:6 26:7 27:14 28:7 
0.5989141807134588 0.7023682733946667 0.7612862679011206 0.5798882424325067 0.7838823196478961 1 0.7413231777668555 0.762690809158975 0.7202032710660979 1:5 2:7 3:5 4:4 5:3 6:4 7:4 8:11 9:4 10:4 11:4 12:11 13:4 14:4 15:5 16:7 17:5 18:8 19:13 20:8 21:7 22:6 23:6 24:7 25:6 26:8 27:13 28:9 
0.1620782664306314 0.1817224186305487 0.2042390434514055 0.156961526400688 0.2326496595277052 0.3048468282357647 0.2000330539210376 0.3719531136283235 0.1854997517681583 1:3 2:6 3:4 4:4 5:2 6:4 7:4 8:5 9:11 10:4 11:4 12:6 13:5 14:5 15:5 16:8 17:5 18:8 19:14 20:9 21:5 22:6 23:4 24:7 25:4 26:7 27:13 28:8 
0.5722478870871152 0.6707990478963911 0.8016021008519056 0.5537819196176453 0.7390931723907211 0.6449313333322694 0.7084723944262324 0.678574274001766 0.7440121845666156 1:3 2:6 3:4 4:5 5:11 6:4 7:4 8:4 9:4 10:4 11:4 12:4 13:2 14:4 15:5 16:8 17:5 18:8 19:13 20:8 21:5 22:5 23:4 24:6 25:3 26:7 27:14 28:8 
0.4773371362560372 0.56335754826665 0.5658419467970341 0.4617862118541872 0.6114268374408683 0.5108512788151467 0.5904076831431094 0.6819098065856691 0.6818438236795903 1:3 2:6 3:4 4:4 5:2 6:4 7:4 8:4 9:8 10:7 11:4 12:5 13:3 14:4 15:4 16:8 17:10 18:7 19:14 20:9 21:4 22:5 23:3 24:5 25:4 26:8 27:15 28:10 
0.7795404762822646 0.9064971220308338 0.9591612539159865 0.7544400994552574 0.9964436514063747 0.8463053166647205 0.9644946369757743 0.9237256116107537 0.9320530328854181 1:9 2:7 3:5 4:10 5:9 6:6 7:4 8:4 9:11 10:4 11:4 12:4 13:4 14:4 15:9 16:7 17:6 18:11 19:14 20:10 21:8 22:8 23:8 24:8 25:7 26:9 27:14 28:10 
0.2684250536153251 0.3078234322242592 0.3246653578233954 0.2591722959853712 0.3422090879187061 0.2916825303795652 0.331501352504263 0.2973306268173928 0.3032673945106302 1:3 2:6 3:5 4:4 5:4 6:4 7:4 8:4 9:4 10:4 11:4 12:4 13:3 14:4 15:4 16:11 17:3 18:8 19:14 20:8 21:2 22:4 23:3 24:4 25:2 26:7 27:14 28:9 
0.5448437884448954 0.6337883295819833 0.6480573091505467 0.5271753423363778 0.697131785190943 0.5775309996484115 0.6734948392900753 0.6264242704359582 0.9163939326675211 1:3 2:9 3:7 4:4 5:6 6:4 7:4 8:4 9:4 10:11 11:4 12:4 13:2 14:4 15:4 16:6 17:3 18:9 19:13 20:8 21:4 22:6 23:4 24:5 25:3 26:8 27:14 28:9 
0 0 0 0 0 0.1516468942047909 0 0 0 1:5 2:7 3:4 4:4 5:3 6:4 7:5 8:7 9:7 10:5 11:4 12:4 13:6 14:5 15:6 16:7 17:5 18:8 19:13 20:8 21:5 22:6 23:6 24:5 25:6 26:8 27:13 28:10 
0 0 0 0 0 0.8053990781527708 0 0 0.08292148079187527 1:5 2:7 3:4 4:5 5:3 6:4 7:7 8:8 9:4 10:6 11:7 12:6 13:4 14:4 15:4 16:7 17:5 18:9 19:13 20:8 21:6 22:6 23:6 24:6 25:6 26:8 27:13 28:9 
0.1625951814203428 0.193761565521277 0.2554092529115027 0.1570464556692731 0.2072104276921233 0.1525876359623737 0.201400230990418 0.1728457383501295 0.2083206788830873 1:5 2:7 3:4 4:5 5:3 6:4 7:4 8:4 9:4 10:4 11:4 12:4 13:5 14:6 15:11 16:7 17:5 18:9 19:13 20:6 21:5 22:5 23:5 24:5 25:6 26:7 27:13 28:12 
0.531355013844454 0.619227335653275 0.6255727175623342 0.5146039559039405 0.6809605567593316 0.7529796647962851 0.6573491468211426 0.6751631315960923 0.9156492268049671 1:5 2:8 3:7 4:4 5:6 6:4 7:4 8:5 9:7 10:9 11:6 12:5 13:7 14:5 15:6 16:7 17:5 18:11 19:13 20:11 21:12 22:5 23:5 24:5 25:7 26:9 27:13 28:9 
0.5497599653980948 0.6370632808426149 0.6555283861246203 0.5316702914234579 0.6971292967044831 0.631336510744024 0.6800143521728412 0.676018079366839 0.6502066224762043 1:9 2:5 3:3 4:4 5:3 6:3 7:4 8:4 9:5 10:4 11:4 12:10 13:2 14:4 15:4 16:4 17:3 18:6 19:13 20:8 21:5 22:4 23:3 24:3 25:4 26:8 27:14 28:7 
0.1697899210791383 0.2862574297007064 0.5029343285550074 0.163879963018421 0.2142390823928247 0.1417436980273833 0.209757656094548 0.1856797995587884 0.1703298871073214 1:5 2:7 3:8 4:5 5:4 6:5 7:5 8:5 9:5 10:5 11:5 12:5 13:5 14:4 15:5 16:8 17:6 18:9 19:13 20:6 21:5 22:4 23:7 24:8 25:9 26:7 27:14 28:10 
0.2768148168733974 0.3790202210506575 0.4918118478144765 0.2675011282291571 0.3675179647282051 0.3960596119073212 0.342397517066672 0.5656846723404757 0.6459887225308864 1:5 2:7 3:4 4:4 5:4 6:6 7:6 8:6 9:6 10:6 11:6 12:6 13:5 14:6 15:5 16:8 17:6 18:8 19:13 20:6 21:7 22:10 23:6 24:5 25:6 26:11 27:15 28:9 
0 0 0 0 0 0.4340526968995254 0 0.0052998567140007 0.5209593702785084 1:3 2:6 3:4 4:4 5:3 6:5 7:6 8:7 9:6 10:7 11:7 12:5 13:2 14:4 15:5 16:6 17:3 18:7 19:13 20:9 21:4 22:7 23:4 24:6 25:4 26:8 27:13 28:8 
0.1525315168881189 0.1761737229051862 0.1765537966364787 0.1472917406394949 0.1859716616792459 0.5086810686471488 0.1887545464754592 0.2685001347612925 0.1027583895342773 1:3 2:6 3:6 4:6 5:2 6:6 7:4 8:7 9:8 10:4 11:4 12:6 13:2 14:4 15:4 16:6 17:3 18:9 19:13 20:9 21:4 22:6 23:3 24:5 25:3 26:9 27:13 28:7 
0.2305287075375284 0.305001220996137 0.2590683687790012 0.2228880370811671 0.2919122670724089 0.2827229278025651 0.285117932365568 0.273075208269385 0.3386980041566646 1:3 2:6 3:4 4:4 5:2 6:4 7:4 8:4 9:4 10:4 11:4 12:4 13:2 14:4 15:4 16:6 17:9 18:7 19:14 20:7 21:3 22:4 23:2 24:4 25:3 26:7 27:14 28:7 
0.1249445319166802 0.1445218046161002 0.1468700200428983 0.1211959380629456 0.1882671555512742 0.2582567069664097 0.1548259075823984 0.1654350334185263 0.2059694144757817 1:3 2:6 3:5 4:5 5:2 6:4 7:4 8:6 9:11 10:4 11:5 12:4 13:3 14:4 15:4 16:6 17:3 18:8 19:13 20:9 21:5 22:5 23:3 24:5 25:3 26:7 27:13 28:8 
0.2368632270926986 0.3222737814632236 0.3000604851874588 0.2295369665668797 0.2938929936656433 0.2995626572483069 0.2931167158595931 0.3087611057498036 0.8290819750219112 1:5 2:7 3:6 4:4 5:6 6:4 7:4 8:4 9:5 10:9 11:5 12:7 13:9 14:4 15:6 16:7 17:5 18:9 19:13 20:9 21:8 22:6 23:6 24:6 25:8 26:10 27:13 28:9 
0.3600037755823112 0.4303183415936896 0.5193399947853529 0.3482024786382952 0.4642754229441916 0.3913923156886581 0.4451839733284498 0.438920496491144 0.7882618029068671 1:4 2:5 3:3 4:3 5:5 6:8 7:4 8:4 9:4 10:4 11:5 12:3 13:2 14:4 15:4 16:4 17:3 18:5 19:12 20:8 21:3 22:4 23:3 24:3 25:4 26:6 27:13 28:8 
0.6142100098401869 0.7305824731796042 0.7520772788394262 0.5942335655540282 0.7897898605994331 0.7420517062676015 0.7599523144222977 0.7595782483078555 0.7935148379704619 1:3 2:7 3:10 4:5 5:3 6:4 7:6 8:5 9:11 10:6 11:5 12:5 13:4 14:6 15:5 16:6 17:5 18:8 19:14 20:7 21:4 22:10 23:8 24:8 25:6 26:9 27:13 28:9 
0.07032254027904286 0.09145909466877024 0.1660699479527628 0.06797945501155946 0.09074184055253026 0.06356976905602567 0.08682668289424184 0.07469428134505229 0.1591121384200165 1:5 2:9 3:10 4:5 5:6 6:5 7:4 8:4 9:4 10:4 11:4 12:4 13:4 14:4 15:6 16:7 17:5 18:10 19:13 20:7 21:6 22:5 23:5 24:5 25:6 26:8 27:14 28:11 
0.5002478834893807 0.6388787306869829 0.6560126419101435 0.4837466245800227 0.7208931929405342 1 0.620193351841793 0.7845602172850731 0.6229512314247881 1:4 2:6 3:3 4:4 5:1 6:2 7:2 8:8 9:5 10:5 11:4 12:6 13:4 14:4 15:6 16:5 17:5 18:7 19:12 20:7 21:4 22:5 23:5 24:5 25:6 26:7 27:10 28:6 
0.5813699628992215 0.6844636944309523 0.6885831615035771 0.5623153136120079 0.800684414301474 0.6569657021249773 0.7192603064658851 0.8851003655538062 0.9367185547887201 1:3 2:5 3:3 4:4 5:3 6:5 7:11 8:5 9:7 10:7 11:6 12:4 13:3 14:5 15:4 16:4 17:4 18:5 19:12 20:10 21:6 22:5 23:5 24:4 25:6 26:8 27:13 28:9 
0.4167442671794696 0.499813713734391 0.5380181016057182 0.4031155833159135 0.5376809647705307 0.4689035684756929 0.5151677511449694 0.5603911514334398 1 1:5 2:7 3:4 4:4 5:3 6:4 7:4 8:4 9:5 10:10 11:5 12:6 13:6 14:5 15:9 16:9 17:5 18:8 19:13 20:8 21:6 22:6 23:9 24:7 25:6 26:8 27:14 28:10 
0.470762767701845 0.565157661699866 0.5650980764668391 0.4555125225576087 0.5978354305363118 0.5261058312826307 0.5821060971782053 0.529186273128479 0.7616866900243036 1:3 2:5 3:10 4:4 5:2 6:3 7:4 8:4 9:4 10:5 11:4 12:3 13:2 14:4 15:4 16:4 17:4 18:6 19:13 20:6 21:4 22:4 23:3 24:3 25:3 26:6 27:13 28:8 
0.4815609919160422 0.5634480269451265 0.5714184589764448 0.4658190335223732 0.6245426561738817 0.4891867847330975 0.5956624628790379 0.5862372317553601 0.5315252199625784 1:5 2:8 3:7 4:5 5:8 6:7 7:11 8:5 9:4 10:4 11:4 12:5 13:6 14:5 15:6 16:7 17:6 18:9 19:13 20:12 21:8 22:6 23:6 24:6 25:8 26:9 27:13 28:13 
0.1877818963365396 0.2140095591351668 0.2062532956720096 0.1811425725444925 0.2374536910728988 0.2121019441306098 0.2317021850262853 0.2013158072802169 0.1776364068732114 1:4 2:7 3:5 4:4 5:2 6:4 7:4 8:4 9:4 10:4 11:5 12:7 13:6 14:6 15:11 16:7 17:5 18:9 19:14 20:7 21:5 22:6 23:4 24:6 25:7 26:7 27:14 28:10 
0.4039667744394397 0.5460162821245781 0.4889679123206568 0.3908481267858807 0.5222717416752929 0.4890655337235417 0.4995814436439999 0.5441654097415881 0.4988063648182934 1:5 2:7 3:6 4:6 5:6 6:5 7:5 8:5 9:5 10:5 11:5 12:6 13:6 14:5 15:4 16:8 17:8 18:9 19:14 20:9 21:10 22:9 23:7 24:4 25:4 26:7 27:14 28:10 
0.1504809026780983 0.1678538371505499 0.1618668606818287 0.1459711060737639 0.1922799064920638 0.3161059589099146 0.1867205656006872 0.2009100130374301 0.2410536647161404 1:6 2:7 3:5 4:4 5:2 6:4 7:4 8:4 9:4 10:4 11:5 12:5 13:2 14:4 15:9 16:8 17:6 18:9 19:15 20:9 21:4 22:5 23:4 24:5 25:4 26:7 27:14 28:7 
0 0 0.03917467950143289 0 0 0.01554428636433573 0 0 0.5517413255338615 1:3 2:5 3:4 4:3 5:2 6:3 7:4 8:4 9:5 10:4 11:4 12:3 13:2 14:4 15:4 16:4 17:4 18:5 19:12 20:6 21:3 22:3 23:2 24:2 25:3 26:6 27:13 28:7 
0.7800059592449893 0.9052731686614404 0.93039494170839 0.7548534542176437 0.9940229329362192 0.828093949162944 0.9648523034907608 0.8911100438836853 0.9284781095210638 1:5 2:8 3:5 4:5 5:6 6:6 7:5 8:5 9:5 10:5 11:5 12:5 13:4 14:5 15:4 16:6 17:3 18:8 19:13 20:7 21:2 22:4 23:2 24:4 25:3 26:16 27:14 28:14 
0.4719546542637458 0.5466076538919543 0.5530641976202431 0.45697745603087 0.5991572870283394 0.4690196197036005 0.5843516177564572 0.5133483166281595 0.577946652877264 1:3 2:6 3:4 4:4 5:3 6:4 7:4 8:4 9:4 10:4 11:7 12:9 13:10 14:5 15:5 16:6 17:3 18:9 19:13 20:8 21:4 22:6 23:4 24:6 25:4 26:8 27:13 28:10 
0.4449310874710223 0.5219286658311361 0.5579162632539006 0.4306859762714649 0.5736210850345369 0.6765205074307152 0.5510181840708905 0.5709300212345347 0.7019868581734489 1:5 2:6 3:5 4:5 5:3 6:5 7:5 8:5 9:5 10:5 11:5 12:5 13:5 14:5 15:5 16:7 17:3 18:7 19:13 20:7 21:5 22:8 23:10 24:4 25:3 26:7 27:13 28:7 
0.3703392163110022 0.4403550679160783 0.4453396220743161 0.3582789142112321 0.4875426697224209 0.5415893339938829 0.45822461804447 0.4708576828993171 0.4536736743068489 1:5 2:7 3:4 4:5 5:4 6:11 7:6 8:5 9:4 10:4 11:4 12:4 13:5 14:4 15:4 16:7 17:5 18:10 19:13 20:10 21:5 22:5 23:5 24:6 25:5 26:7 27:13 28:9 
0.41402427995748 0.4899199265436247 0.5469731573296576 0.400452591093589 0.5283409313113491 0.5437956404749587 0.5124209977454834 0.5248798405335866 0.7126750557361572 1:4 2:9 3:8 4:6 5:3 6:5 7:5 8:5 9:6 10:5 11:7 12:5 13:6 14:6 15:6 16:6 17:4 18:9 19:14 20:7 21:5 22:7 23:5 24:11 25:6 26:10 27:14 28:8 
0.1426486042180992 0.1817353637373908 0.1410868734508722 0.1381382423221953 0.1880369121349033 0.4465778199051592 0.1773080084418742 0.2304361723436575 0.4827730877631233 1:6 2:8 3:7 4:5 5:8 6:5 7:5 8:6 9:5 10:6 11:7 12:6 13:7 14:4 15:7 16:7 17:5 18:11 19:14 20:11 21:9 22:8 23:7 24:7 25:7 26:8 27:13 28:9 
0 0 0 0 0 0.01828133157173338 0 0 0 1:3 2:6 3:5 4:5 5:3 6:4 7:4 8:4 9:4 10:4 11:4 12:4 13:2 14:4 15:4 16:8 17:4 18:10 19:15 20:6 21:3 22:4 23:2 24:4 25:2 26:6 27:13 28:7 
0.7315112519383367 0.8628100197930532 0.9001194497086487 0.7077522469611807 0.9362134705415598 0.784869358094743 0.9054616992691594 0.894695407122206 0.8741978038031082 1:6 2:8 3:8 4:7 5:9 6:7 7:7 8:5 9:5 10:4 11:5 12:5 13:7 14:9 15:8 16:9 17:7 18:11 19:14 20:10 21:9 22:12 23:8 24:7 25:7 26:11 27:15 28:12 
0.4767588284861882 0.5446066055449159 0.5703244097048689 0.4616339555866115 0.6064460774086626 0.4909006062354418 0.5901987428340952 0.5501939779455027 0.5145242280255546 1:5 2:11 3:5 4:5 5:3 6:4 7:5 8:4 9:4 10:4 11:4 12:4 13:4 14:4 15:4 16:11 17:5 18:11 19:15 20:7 21:5 22:4 23:4 24:4 25:4 26:6 27:15 28:11 
0.2995983770475328 0.3437731000903 0.355169719994166 0.2893923983621872 0.3855603320102117 0.3837126671012113 0.3698728479215996 0.379918438680858 0.4076843508791915 1:4 2:6 3:5 4:4 5:3 6:4 7:4 8:5 9:5 10:4 11:4 12:5 13:10 14:4 15:4 16:7 17:3 18:9 19:13 20:9 21:4 22:5 23:4 24:5 25:3 26:8 27:13 28:8 
0 0 0 0 0 0.241032923634134 0 0.319870181719935 0 1:5 2:7 3:5 4:4 5:5 6:4 7:4 8:9 9:6 10:4 11:4 12:4 13:5 14:5 15:5 16:9 17:7 18:10 19:14 20:8 21:6 22:6 23:5 24:5 25:6 26:9 27:14 28:9 
0.4813294274468941 0.5576923705143156 0.5591597627635737 0.4652421600522969 0.6336796770706314 0.6123304169151983 0.5948125033124777 0.6643036516535241 0.6513834537013117 1:3 2:5 3:4 4:3 5:2 6:4 7:5 8:5 9:5 10:5 11:6 12:4 13:3 14:5 15:5 16:6 17:4 18:6 19:13 20:13 21:5 22:4 23:3 24:2 25:2 26:6 27:13 28:7 
0.116735376208623 0.1472886126656546 0.2750399071437362 0.1127508145454437 0.1487305902870299 0.1448462408725213 0.1444175568471547 0.1820533446657594 0.1709803978519433 1:6 2:8 3:5 4:4 5:3 6:5 7:4 8:4 9:5 10:4 11:4 12:11 13:4 14:6 15:6 16:7 17:6 18:8 19:13 20:8 21:6 22:6 23:6 24:6 25:5 26:9 27:15 28:10 
0.1904728654707307 0.2102960211627124 0.2879326358290392 0.1842818078756778 0.2412744836992372 0.1110894522204923 0.2358609944688499 0.1789823742194442 0.1438592248594783 1:6 2:9 3:8 4:5 5:7 6:6 7:7 8:5 9:4 10:4 11:4 12:5 13:8 14:6 15:7 16:7 17:5 18:10 19:13 20:9 21:8 22:6 23:5 24:7 25:8 26:10 27:14 28:13 
0.5920631111157076 0.6895180873499067 0.7035307031442098 0.5728749093057924 0.7817361137774599 0.7293096760472219 0.7326784093045887 0.852067825504163 0.7259136985318237 1:7 2:9 3:5 4:5 5:4 6:6 7:6 8:6 9:6 10:5 11:5 12:5 13:5 14:5 15:8 16:9 17:6 18:9 19:16 20:12 21:12 22:5 23:5 24:5 25:5 26:8 27:14 28:11 
0.3735032183438817 0.4900783471707904 0.5079658314740606 0.3615204735539194 0.4719984177112828 0.3961953385182928 0.4621406951521913 0.447400092040622 0.7133424111792439 1:5 2:7 3:6 4:8 5:8 6:5 7:5 8:4 9:4 10:5 11:9 12:5 13:4 14:4 15:4 16:7 17:5 18:9 19:13 20:8 21:6 22:9 23:8 24:6 25:6 26:8 27:13 28:9 
0.6196743508789342 0.7208177787214942 0.7261949305982371 0.5997302371385075 0.7899489766391187 0.6645934505496071 0.7670941581552556 0.7268149074876421 0.7254266160543273 1:3 2:6 3:4 4:4 5:3 6:11 7:4 8:4 9:4 10:4 11:4 12:11 13:4 14:4 15:5 16:6 17:4 18:7 19:13 20:9 21:5 22:6 23:4 24:6 25:5 26:8 27:13 28:9 
0.4881876111644414 0.6028183208033528 0.5863122486929846 0.4723739647736118 0.6207520383847066 0.5984113026080888 0.6035387666367393 0.5735073125907107 1 1:5 2:7 3:9 4:6 5:4 6:5 7:4 8:4 9:5 10:11 11:9 12:4 13:4 14:4 15:5 16:7 17:5 18:10 19:13 20:8 21:8 22:7 23:7 24:7 25:7 26:8 27:13 28:10 
0.1652793775807883 0.1942938934995033 0.2464389601395411 0.1596354236088229 0.2261701045369632 0.4714535083062397 0.2049540547689716 0.4066965441771486 0.5935209837923068 1:8 2:6 3:5 4:4 5:3 6:6 7:6 8:6 9:7 10:6 11:4 12:4 13:2 14:4 15:4 16:6 17:3 18:8 19:13 20:7 21:4 22:6 23:5 24:6 25:5 26:9 27:14 28:7 
0.6026021303668352 0.6947970843268275 0.7130353114012028 0.5830264215016614 0.7718868469240682 0.6573680875945482 0.7454707068131852 0.7241101982656791 0.7373776785418018 1:3 2:11 3:5 4:6 5:10 6:5 7:5 8:5 9:5 10:5 11:4 12:5 13:4 14:5 15:6 16:7 17:3 18:10 19:14 20:12 21:7 22:6 23:5 24:6 25:4 26:6 27:14 28:10 
0.3303962749780784 0.3770217339145 0.3776129348288397 0.3196116557835499 0.4112428285488041 0.3742604587097083 0.4081590494538505 0.3544597370997097 0.3259928528230846 1:4 2:6 3:4 4:3 5:4 6:3 7:4 8:4 9:4 10:4 11:4 12:5 13:2 14:5 15:5 16:5 17:3 18:10 19:14 20:8 21:2 22:3 23:2 24:2 25:2 26:5 27:13 28:8 
0.5120942332940355 0.5943970461321199 0.6051142475119478 0.495246060107077 0.6846080669311125 0.6202705802134439 0.6339656609573084 0.6918747505959746 0.6137378118529655 1:5 2:7 3:6 4:8 5:5 6:5 7:11 8:5 9:4 10:4 11:5 12:5 13:5 14:6 15:5 16:7 17:5 18:10 19:13 20:13 21:8 22:6 23:6 24:6 25:6 26:8 27:13 28:9 
0 0 0 0 0 0.01586886154026285 0 0 0 1:4 2:5 3:3 4:4 5:2 6:4 7:4 8:4 9:4 10:4 11:4 12:3 13:2 14:5 15:6 16:6 17:6 18:7 19:13 20:7 21:2 22:4 23:3 24:3 25:5 26:5 27:13 28:8 
0.4174551653421317 0.4965976861979925 0.5210125499301961 0.4039596058236891 0.5629084797178034 1 0.5163524430861104 0.5258457261764464 0.48594911167241 1:5 2:9 3:7 4:4 5:3 6:4 7:4 8:11 9:4 10:4 11:4 12:4 13:4 14:5 15:4 16:7 17:5 18:9 19:14 20:7 21:5 22:5 23:5 24:6 25:7 26:7 27:13 28:10 
0.7998657884442959 0.9290831692930454 0.9720633432500571 0.7742269382903548 1 0.8593234802950233 0.9903251574033933 0.932254985505916 1 2:3 3:4 4:5 5:4 6:3 7:3 8:4 9:4 10:4 11:3 12:2 13:2 14:2 15:3 16:3 18:3 19:11 20:2 21:4 22:1 23:1 24:1 25:3 26:5 27:11 28:7 
0.5767856581212977 0.6684067759983073 0.6806849506695538 0.5584938679467943 0.7366715209427787 0.6678058885745646 0.714350784091687 0.6994439301350565 0.6724429490182759 1:9 2:6 3:3 4:3 5:2 6:4 7:4 8:4 9:4 10:4 11:5 12:11 13:6 14:5 15:6 16:5 17:6 18:8 19:14 20:10 21:4 22:5 23:4 24:5 25:7 26:8 27:14 28:8 
0.4884174226498522 0.5663560072704621 0.5755331025184817 0.4728974330943441 0.6441789591145008 0.5051876645014356 0.604738667796605 0.5266380251836416 1 1:3 2:5 3:5 4:3 5:2 6:3 7:4 8:4 9:4 10:11 11:4 12:3 13:2 14:4 15:5 16:4 17:3 18:6 19:12 20:7 21:3 22:4 23:3 24:3 25:4 26:6 27:13 28:8 
0.4676193970293167 0.5459340967995926 0.67766371501814 0.4527890835319483 0.5976091020621576 0.4808116830856333 0.5783749030938568 0.6366779847202705 0.5394790332825775 1:6 2:8 3:4 4:5 5:3 6:4 7:5 8:5 9:5 10:5 11:5 12:5 13:5 14:5 15:4 16:10 17:7 18:9 19:14 20:7 21:4 22:4 23:4 24:4 25:7 26:13 27:15 28:10 
0.1455578747165139 0.2786096263486649 0.3066750359660417 0.140638564562637 0.2069848853260079 0.5357949330994347 0.180184183290066 0.3991149777490239 0.2557091255409558 1:3 2:5 3:4 4:3 5:3 6:4 7:5 8:5 9:6 10:5 11:4 12:5 13:6 14:4 15:5 16:4 17:6 18:7 19:12 20:7 21:4 22:5 23:2 24:5 25:7 26:7 27:13 28:8 
0 0 0 0 0 0.01522660675427747 0 0 0 1:5 2:7 3:4 4:4 5:4 6:4 7:5 8:7 9:7 10:5 11:4 12:4 13:4 14:4 15:4 16:7 17:5 18:9 19:13 20:7 21:6 22:5 23:5 24:5 25:5 26:7 27:13 28:9 
0.6295955738613832 0.7364280800884653 0.8041560146051053 0.608949076804625 0.8283813890857179 0.6789702403021619 0.7789086273725019 0.7988741484695577 0.827281989749559 1:5 2:7 3:4 4:4 5:4 6:6 7:11 8:6 9:6 10:5 11:6 12:6 13:6 14:5 15:11 16:7 17:5 18:9 19:13 20:9 21:8 22:7 23:8 24:9 25:8 26:9 27:13 28:11 
0.4706907074483742 0.5498295045762263 0.6126611978087028 0.4554519014689712 0.6012980673766755 0.551770749419133 0.5823938508658985 0.5941580884425863 0.5949850537748038 1:5 2:9 3:10 4:10 5:4 6:4 7:4 8:4 9:4 10:4 11:4 12:4 13:4 14:4 15:4 16:7 17:5 18:10 19:13 20:6 21:6 22:6 23:6 24:6 25:6 26:7 27:14 28:10 
0.1621789780155231 0.2259121404338419 0.2193750082850571 0.1570239000964852 0.2053343724785112 0.2803253326815221 0.2004525349991366 0.2643211389228347 0.4186684138685888 1:5 2:8 3:7 4:5 5:6 6:7 7:8 8:6 9:5 10:6 11:6 12:4 13:6 14:6 15:6 16:7 17:7 18:12 19:13 20:10 21:8 22:6 23:6 24:6 25:8 26:11 27:14 28:11 
0.5280418005735799 0.6214416563963442 0.6821903786832335 0.511006057050985 0.679611456842902 0.6769041299915181 0.6536356795292112 0.7952932585716818 0.9522316811530032 1:5 2:7 3:5 4:4 5:3 6:4 7:4 8:5 9:9 10:11 11:4 12:4 13:4 14:5 15:4 16:11 17:5 18:9 19:14 20:8 21:6 22:6 23:6 24:7 25:6 26:7 27:14 28:11 
0.2661485792197917 0.3322103413926902 0.491651174090863 0.2574660730630783 0.3657060838687946 0.5918580094774024 0.3293782283350434 0.6339683830093324 0.3662736447574975 1:5 2:7 3:7 4:4 5:6 6:4 7:5 8:6 9:7 10:6 11:5 12:6 13:10 14:5 15:7 16:7 17:5 18:9 19:13 20:10 21:8 22:7 23:8 24:6 25:9 26:9 27:13 28:10 
0 0 0.03037252455923058 0 0 0 0 0 0 1:6 2:7 3:7 4:5 5:8 6:5 7:5 8:5 9:5 10:5 11:5 12:4 13:6 14:4 15:6 16:7 17:5 18:9 19:13 20:9 21:7 22:6 23:5 24:7 25:8 26:9 27:13 28:9 
0.6769554855323014 0.7921051378130006 0.8124196250104523 0.6554491986769343 0.873924380108923 0.7598637545989576 0.8380898589438776 0.7888952190847508 0.8923608555764926 1:3 2:6 3:11 4:5 5:4 6:7 7:7 8:6 9:7 10:5 11:4 12:4 13:2 14:4 15:5 16:6 17:4 18:8 19:13 20:7 21:6 22:12 23:5 24:6 25:4 26:7 27:13 28:9 
0.2074698011097124 0.2355105230100161 0.2261519319468732 0.201102333719966 0.2608606330083517 0.1845738196590224 0.2570003784865594 0.1958138225009759 0.2197447624539029 1:4 2:7 3:8 4:8 5:3 6:4 7:4 8:4 9:4 10:4 11:4 12:4 13:2 14:5 15:4 16:6 17:3 18:9 19:15 20:7 21:3 22:5 23:3 24:5 25:3 26:6 27:13 28:9 
0.08439433930142268 0.09323299971113304 0.09878476143130588 0.08197483786865767 0.09537915525140252 0.1517092618498921 0.1051355317217207 0.09448682753938191 0.2614642767470043 1:4 2:5 3:6 4:3 5:2 6:3 7:4 8:4 9:4 10:4 11:4 12:3 13:2 14:4 15:4 16:4 17:3 18:5 19:13 20:6 21:4 22:3 23:2 24:2 25:3 26:5 27:13 28:7 
0.6322469267113735 0.7577372301249005 0.7895987195979263 0.6117196128460652 0.806315894385244 0.6856804112138939 0.7824041682971932 0.7404411231679477 0.8046110536509471 1:3 2:6 3:11 4:8 5:6 6:4 7:4 8:5 9:5 10:5 11:9 12:7 13:2 14:4 15:4 16:7 17:7 18:9 19:13 20:8 21:5 22:7 23:6 24:7 25:6 26:11 27:15 28:10 
0.6564589601770858 0.7621384464477233 0.7837322439314754 0.6352117295139799 0.8424181201996302 0.7247667375673053 0.8127395658183252 0.7499212335979677 0.9198952134525162 1:3 2:6 3:3 4:10 5:3 6:3 7:4 8:4 9:4 10:11 11:4 12:3 13:2 14:5 15:4 16:5 17:3 18:7 19:13 20:7 21:4 22:6 23:4 24:4 25:4 26:7 27:13 28:8 
0.09400549131225502 0.1108514123105325 0.09702540876453493 0.09071839695686622 0.1185782975683639 0 0.1167241233630132 0.07694632362267133 0 1:3 2:7 3:3 4:4 5:4 6:4 7:6 8:4 9:4 10:4 11:4 12:3 13:2 14:4 15:4 16:4 17:5 18:6 19:13 20:9 21:3 22:4 23:3 24:2 25:2 26:5 27:14 28:8 
0.5409470889824234 0.6305739524792296 0.6512531374073365 0.523906021497524 0.689050513069527 0.6463311581110872 0.6699126886331318 0.6845069593050602 0.8563809840478376 1:3 2:7 3:4 4:5 5:3 6:4 7:4 8:4 9:7 10:8 11:5 12:4 13:3 14:5 15:11 16:7 17:5 18:12 19:13 20:9 21:4 22:6 23:5 24:6 25:5 26:7 27:14 28:8 
0.05921179994046143 0.08365964408120977 0.1641542693935361 0.05740894538188891 0.1317281808849548 0.3456547672077499 0.07276605935186656 0.4257279587536969 0.8755817354745477 1:4 2:5 3:3 4:4 5:3 6:3 7:4 8:5 9:8 10:7 11:4 12:3 13:3 14:4 15:4 16:5 17:4 18:5 19:12 20:8 21:5 22:4 23:4 24:3 25:3 26:8 27:13 28:8 
0.6983986161518543 0.8413018305409522 0.8312650659520157 0.6759081912359306 0.8880610468140614 0.7379203265086606 0.8643651908364982 0.799815111065486 0.9220409354353989 1:3 2:5 3:3 4:3 5:2 6:4 7:11 8:4 9:4 10:7 11:9 12:3 13:2 14:4 15:5 16:4 17:9 18:6 19:13 20:9 21:5 22:5 23:4 24:4 25:6 26:8 27:14 28:8 
0.5762847104138874 0.6661116930767984 0.6870403700677556 0.5581176997575781 0.7329094470083207 0.5944182700638763 0.7128160317033355 0.6520174933166129 0.6893754791692781 1:3 2:6 3:4 4:5 5:5 6:4 7:5 8:4 9:4 10:4 11:6 12:7 13:9 14:8 15:11 16:8 17:4 18:10 19:13 20:9 21:7 22:6 23:4 24:6 25:6 26:10 27:14 28:12 
0 0 0 0 0 0.139553807008319 0 0 0 1:6 2:8 3:5 4:6 5:4 6:5 7:6 8:8 9:4 10:4 11:4 12:4 13:5 14:5 15:5 16:8 17:5 18:12 19:14 20:8 21:6 22:5 23:5 24:5 25:7 26:8 27:13 28:9 
0.2007664749869161 0.3182623569146392 0.4289019812749067 0.1942816800459926 0.3084351856030316 0.3830384749964166 0.2483048615489775 0.5414437396488787 0.7538054214933582 1:7 2:8 3:5 4:6 5:6 6:7 7:6 8:6 9:6 10:6 11:6 12:5 13:5 14:5 15:6 16:7 17:5 18:8 19:14 20:8 21:7 22:7 23:7 24:9 25:10 26:8 27:14 28:10 
0.3217411259074675 0.3675267337016646 0.3740661557796153 0.3111796642428627 0.40354571215195 0.2769944590904239 0.3983575985247143 0.297090868767978 0.3269250830995515 1:3 2:6 3:4 4:4 5:2 6:4 7:4 8:4 9:11 10:4 11:4 12:4 13:2 14:4 15:4 16:7 17:3 18:7 19:14 20:7 21:3 22:5 23:3 24:5 25:3 26:7 27:13 28:7 
0.1706221741882009 0.2066579796330477 0.4383790413449247 0.1650372637294586 0.240820397023555 0.1820188243510459 0.21092460804748 0.1968252385204586 0.3550585026600571 1:4 2:5 3:4 4:5 5:2 6:3 7:4 8:4 9:5 10:4 11:4 12:3 13:2 14:6 15:7 16:5 17:5 18:5 19:12 20:6 21:3 22:4 23:3 24:4 25:5 26:8 27:13 28:9 
0 0 0 0 0 0 0 0 0.373377201209285 1:7 2:9 3:5 4:6 5:4 6:4 7:6 8:4 9:6 10:7 11:6 12:4 13:4 14:4 15:5 16:8 17:5 18:10 19:14 20:9 21:5 22:5 23:6 24:5 25:7 26:8 27:14 28:11 
0.6359973690637285 0.8021744545135376 0.7983095152720228 0.6147399329361357 0.8095649900523708 0.734837137740973 0.7864913479387775 0.7612243003366449 1 1:5 2:7 3:11 4:4 5:3 6:4 7:4 8:4 9:7 10:8 11:11 12:6 13:6 14:6 15:5 16:7 17:7 18:9 19:13 20:8 21:7 22:8 23:9 24:8 25:8 26:10 27:14 28:11 
0 0 0 0 0 0.1687845894471459 0 0.1004350042011361 0.01855532616193627 1:7 2:7 3:5 4:8 5:4 6:4 7:4 8:4 9:5 10:4 11:5 12:4 13:4 14:5 15:4 16:6 17:3 18:9 19:14 20:9 21:5 22:5 23:4 24:5 25:5 26:7 27:13 28:7 
0.1833490232039395 0.2063133036683025 0.2279959796847744 0.1781381723624586 0.2349330679306273 0.2129994065422881 0.2266228308218565 0.2486208962442726 0.1850410543300141 1:3 2:11 3:4 4:4 5:3 6:4 7:4 8:4 9:4 10:4 11:4 12:5 13:3 14:4 15:4 16:6 17:6 18:8 19:14 20:8 21:3 22:4 23:3 24:4 25:3 26:7 27:15 28:8 
0 0 0 0 0 0 0 0.04627770344371764 0 1:5 2:7 3:6 4:6 5:5 6:7 7:8 8:7 9:5 10:5 11:4 12:4 13:4 14:5 15:4 16:7 17:5 18:8 19:13 20:8 21:5 22:7 23:7 24:6 25:7 26:9 27:13 28:11 
0.5210488671717597 0.6203659405305951 0.6857435552149984 0.5045796225959431 0.7297333855671266 0.5986694089740885 0.6446295744521771 0.7449852205877902 0.6582411389821015 1:6 2:7 3:5 4:5 5:11 6:4 7:9 8:6 9:4 10:4 11:6 12:4 13:5 14:4 15:4 16:7 17:5 18:9 19:13 20:11 21:6 22:7 23:7 24:6 25:6 26:9 27:13 28:9 
0.3213908674418546 0.3649829654371562 0.3725202268302425 0.3112512033172414 0.4108753715861184 1 0.397179324777955 0.4316106101853001 0.3007116980871294 1:3 2:6 3:4 4:4 5:2 6:4 7:4 8:11 9:4 10:4 11:4 12:4 13:4 14:4 15:5 16:6 17:3 18:7 19:13 20:7 21:3 22:5 23:4 24:5 25:3 26:8 27:13 28:8 
0.1907222669020887 0.2164285223645003 0.2211299617400151 0.1840517571061965 0.2464243592992702 0.2387411079928768 0.2356424735863018 0.2634430248956279 0.1930176894920444 1:3 2:7 3:7 4:9 5:3 6:5 7:5 8:5 9:4 10:4 11:7 12:7 13:4 14:5 15:4 16:6 17:3 18:9 19:13 20:8 21:4 22:6 23:5 24:7 25:6 26:9 27:13 28:8 
0.1139041059775417 0.1285454021608685 0.1157889682245694 0.1104644996200207 0.1590657072972441 0.08926334062338633 0.1411930884064356 0.1200002882436962 0.06929516391102392 1:3 2:7 3:4 4:4 5:2 6:6 7:8 8:7 9:4 10:4 11:4 12:4 13:2 14:6 15:5 16:6 17:3 18:8 19:13 20:7 21:3 22:6 23:4 24:6 25:3 26:8 27:13 28:8 
0.6947930327932176 0.8088336574280316 0.834722772836246 0.6723412450158497 0.8881290350076312 0.7294950750612897 0.8594981047130056 0.804275621005394 0.9274224927671185 1:3 2:8 3:5 4:6 5:3 6:5 7:5 8:5 9:9 10:5 11:9 12:4 13:2 14:4 15:4 16:6 17:3 18:7 19:13 20:8 21:4 22:6 23:7 24:11 25:2 26:6 27:14 28:8 
0.248963318698695 0.279671015899186 0.3083013152566357 0.2400919531433569 0.316985900513935 0.2308074966843079 0.3073430564793195 0.276638737410418 0.2747763086053533 1:9 2:6 3:4 4:4 5:2 6:4 7:4 8:4 9:4 10:4 11:4 12:4 13:6 14:7 15:5 16:8 17:3 18:9 19:14 20:8 21:4 22:5 23:3 24:5 25:4 26:7 27:15 28:8 
0.03260603785460634 0.07968000135601754 0.06381818745752599 0.03129557945262108 0.04607916495547508 0 0.04038406481714048 0.05903399962113861 0.09728497563583281 1:5 2:7 3:4 4:4 5:3 6:4 7:4 8:4 9:5 10:4 11:4 12:4 13:4 14:5 15:6 16:8 17:10 18:9 19:15 20:8 21:4 22:4 23:5 24:5 25:5 26:7 27:14 28:9 
0.5646909195959674 0.6612745767177202 0.7095912694932058 0.5463493891839614 0.7206438598175565 0.5887458418146577 0.6989483975905038 0.6536627810634451 0.6976217421558726 1:3 2:6 3:5 4:5 5:8 6:7 7:5 8:5 9:4 10:4 11:4 12:4 13:3 14:8 15:9 16:9 17:7 18:11 19:14 20:8 21:5 22:7 23:7 24:8 25:5 26:8 27:14 28:9 
0.6617441782008584 0.7655780200663244 0.8662652675447097 0.6401455695544596 0.8479476710771222 0.7430847794595269 0.8178878993851224 0.8404770169151113 0.7923311047841898 1:6 2:8 3:6 4:9 5:7 6:8 7:6 8:9 9:6 10:4 11:4 12:4 13:2 14:4 15:4 16:7 17:4 18:9 19:13 20:6 21:6 22:8 23:6 24:8 25:5 26:11 27:16 28:10 
0.5640452896150732 0.6602737557028557 0.7115781241706726 0.5458903795211208 0.7182197123851147 0.6157106319099459 0.6981297121873624 0.6218355354570547 0.6124310139184599 1:6 2:9 3:5 4:4 5:3 6:4 7:4 8:4 9:4 10:4 11:5 12:11 13:7 14:6 15:5 16:11 17:5 18:9 19:14 20:7 21:6 22:7 23:5 24:6 25:7 26:9 27:15 28:12 
0.04807992481175911 0.1012002403982583 0.07332403097407847 0.04685544505752028 0.05259998948545271 0 0.05898292622296136 0.06668047316152803 0.02121859132001817 1:6 2:7 3:4 4:4 5:3 6:4 7:4 8:4 9:4 10:4 11:4 12:6 13:5 14:5 15:5 16:6 17:9 18:9 19:14 20:7 21:5 22:5 23:3 24:5 25:4 26:9 27:15 28:8 
0.7042067993660875 0.8260152044667398 0.841839092349977 0.6818718057130614 0.8984019303678995 0.7669742285500886 0.8716296230430273 0.8193472241141384 0.9056866958875335 1:4 2:6 3:4 4:4 5:4 6:7 7:7 8:6 9:4 10:4 11:11 12:4 13:2 14:5 15:11 16:7 17:4 18:9 19:13 20:8 21:5 22:7 23:5 24:7 25:7 26:10 27:13 28:10 
0 0 0.1402816013837191 0 0 0.01543527535748651 0 0.03676628211952836 0 1:5 2:7 3:8 4:7 5:7 6:4 7:4 8:4 9:4 10:5 11:4 12:4 13:6 14:4 15:6 16:7 17:5 18:9 19:13 20:8 21:8 22:5 23:5 24:5 25:6 26:9 27:13 28:10 
-0.1726085786464348 0.1651614563513177 0.1695906313901429 0.1422053462208553 0.1796214847372253 0.1537604944517837 0.1746321174586023 0.1644794818864159 0.1664002095259541 1:4 2:6 3:3 4:9 5:8 6:5 7:2 8:2 9:2 10:3 11:2 12:3 13:2 14:2 15:2 16:2 17:2 18:2 19:4 20:5 21:3 22:5 23:16 24:17 25:3 26:1 27:1 28:2 
-0.2431188453969095 0.2334051835326905 0.23887329212218 0.2007702895444783 0.2525845678266266 0.2174388195278257 0.2457711635095306 0.2322187458943447 0.2348272982334485 1:2 2:2 3:5 4:9 5:6 6:2 7:2 8:2 9:2 10:5 11:5 12:3 13:3 14:3 15:5 16:5 17:2 18:1 19:5 20:5 21:4 22:5 23:17 24:17 25:3 26:3 27:3 
-0.7296246548291458 0.7002452998767187 0.7174991545209096 0.60366232765158 0.7577755382383746 0.6524785180406256 0.7389416971033024 0.6965913519563565 0.7052553574494532 1:2 2:3 3:3 4:7 5:9 6:5 7:6 8:7 9:6 10:6 11:2 12:5 13:2 14:2 15:2 16:2 17:2 18:3 19:5 20:5 21:5 22:6 23:17 24:17 25:5 26:3 27:4 28:1 
-0.06654581903467315 0.06407659183227708 0.06587295524868191 0.05549681012897417 0.06800636832277097 0.05988685012697493 0.0667774288820342 0.06368444849632152 0.06495700063504557 1:2 2:2 3:5 4:7 5:6 6:2 7:2 8:2 9:2 10:2 11:2 12:2 13:2 14:3 15:4 16:6 17:5 19:2 20:2 21:2 22:4 23:17 24:17 25:3 26:4 27:3 28:2 
-0.6171248087770582 0.5920389109219395 0.6070222805883801 0.5098017836941402 0.6397525080690345 0.5517780729472357 0.6240389764178695 0.5894334743874244 0.5952693208345993 1:1 2:2 3:3 4:8 5:6 6:10 7:3 8:2 9:2 10:2 11:2 12:2 13:2 14:2 15:2 16:2 17:2 18:2 19:3 20:3 21:3 22:5 23:16 24:17 25:2 26:1 27:1 
-0.0233020507424873 0.02288460525084816 0.0222231732298181 0.01929484248967684 0.02349954453193837 0.02112970436541513 0.02328337967861954 0.02165236139596648 0.02274835964787196 1:1 2:2 3:2 4:4 5:5 6:2 7:2 8:2 9:3 10:3 11:3 12:2 13:2 14:2 15:3 16:3 17:3 20:1 21:2 22:2 23:16 24:17 25:2 26:2 27:2 
-0.7072796016803492 0.6782392311890717 0.6950022269351372 0.5844160892666237 0.7332746674049911 0.6319901251234631 0.7153703502551857 0.6749851013935639 0.6830070013768128 1:1 2:2 3:3 4:10 5:9 6:4 7:2 8:6 9:2 10:2 11:2 12:2 13:2 14:2 15:2 16:2 17:6 18:2 19:2 20:3 21:2 22:5 23:16 24:17 25:4 26:4 27:4 
-0.845175836705204 0.8111845677230906 0.8310607321042419 0.6997043535610835 0.8769530083225342 0.7563003716090102 0.8556125694527789 0.8070032804606784 0.816661222343235 1:1 2:2 3:3 4:5 5:6 6:10 7:6 8:5 9:5 10:4 11:2 12:2 13:2 14:2 15:2 16:4 17:4 18:1 19:2 20:4 21:4 22:7 23:16 24:17 25:4 26:4 27:4 28:2 
-0.7696078057555 0.7384752818723171 0.7566987341470698 0.6353272927366614 0.7996055525007648 0.6869758401987717 0.7795472472805897 0.7342998163980867 0.743338059602461 1:2 2:9 3:3 4:10 5:6 6:3 7:3 8:3 9:2 10:4 11:4 12:3 13:2 14:2 15:2 16:2 17:2 18:1 19:3 20:4 21:6 22:4 23:16 24:17 25:4 26:4 27:3 
-0.2981411680166667 0.2863028962806016 0.2937567552484718 0.2472633839485148 0.3098100578010585 0.2667850799266155 0.30192281186189 0.285140923416411 0.288505361381923 1:4 2:2 3:3 4:5 5:7 6:3 7:3 8:2 9:2 10:3 11:7 12:5 13:2 14:2 15:2 16:2 17:2 19:1 20:2 21:2 22:4 23:16 24:17 25:3 26:4 27:5 28:2 
-0.7359568093866625 0.7063160437358693 0.7240976731096107 0.6089689430079286 0.7640661315544923 0.657962280696759 0.7453494620202928 0.7023171674196949 0.711465007780842 1:7 2:6 3:5 4:6 5:7 6:2 7:2 8:2 9:3 10:8 11:3 12:3 13:4 14:3 15:2 16:2 17:2 18:2 19:5 20:5 21:6 22:7 23:17 24:17 25:4 26:2 27:2 
-0.7437219952576204 0.7137201227757889 0.7312108457794202 0.6154323464800748 0.7712495173231037 0.6649404732750821 0.753123840713534 0.7102168905985676 0.7191729235263769 1:2 2:2 3:3 4:6 5:9 6:4 7:3 8:3 9:3 10:3 11:3 12:4 13:10 14:2 15:2 16:2 17:3 18:1 19:5 20:8 21:4 22:5 23:17 24:17 25:3 26:2 27:2 
-0.1308308755629633 0.1251658371665834 0.1282053413128703 0.1081919399413461 0.1345117959115055 0.1169654388106522 0.1320015804066256 0.1250679197629971 0.1262701929726739 1:2 2:6 3:5 4:6 5:6 6:7 7:2 8:2 9:2 10:3 11:4 12:3 13:2 14:2 15:2 16:2 17:2 19:2 20:3 21:3 22:6 23:17 24:17 25:4 26:3 27:3 
-0.450388911518976 0.4319982746772577 0.4435031714678214 0.372412115441086 0.4680723883685577 0.4030691335426957 0.4560524171138346 0.4304635955437425 0.4357165568885603 1:2 2:2 3:3 4:6 5:6 6:2 7:2 8:6 9:2 10:8 11:4 12:2 13:2 14:2 15:2 16:2 17:2 19:2 20:3 21:4 22:5 23:17 24:17 25:2 26:3 27:2 
-0.03461532726644968 0.03222427343872149 0.03467586396036317 0.02871826813363048 0.03577867123319501 0.03156514420226459 0.03467417112132512 0.03230067081582014 0.03294330366823751 1:1 2:2 3:2 4:5 5:6 6:4 7:2 8:2 9:2 10:2 11:2 12:2 13:2 14:2 15:2 16:2 17:2 19:1 20:2 21:2 22:2 23:16 24:17 25:1 26:1 
-0.1887066243566929 0.1810516468703329 0.1851785366033734 0.155529488558876 0.1955595303184255 0.1686774880957454 0.1906814774204364 0.1797804141897525 0.1821174291173568 1:2 2:2 3:3 4:7 5:6 6:2 7:2 8:2 9:6 10:2 11:3 12:5 13:5 14:2 15:2 16:2 17:2 18:3 19:3 20:2 21:2 22:4 23:17 24:17 25:3 26:2 27:2 
-0.9312591049218371 0.894190444645427 0.9156409618589745 0.7701143011579755 0.9663430214271387 0.8325802804525703 0.9427197893087482 0.8894941953820381 0.900012008743498 1:4 2:2 3:3 4:5 5:6 6:3 7:9 8:3 9:2 10:2 11:2 12:2 13:10 14:3 15:2 16:2 17:2 18:1 19:4 20:6 21:4 22:6 23:17 24:17 25:3 26:2 27:2 
-0.1017008663638874 0.09226406118506697 0.09777774538218043 0.07935831570537823 0.1109008468564384 0.08572227809752968 0.1052405457191493 0.09208102444122157 0.09401980116065292 1:3 2:7 3:3 4:6 5:7 6:3 7:2 8:2 9:2 10:2 11:2 12:2 13:2 14:2 15:3 16:3 17:6 19:1 20:3 21:4 22:5 23:16 24:17 25:3 26:3 27:3 28:2 
-0.7045598335199783 0.6761035766173985 0.6924762454087552 0.5828175158214652 0.7304678528677604 0.6298230762792749 0.7132643443906193 0.6728706584511244 0.6812503054360302 1:6 2:2 3:3 4:6 5:6 6:3 7:5 8:2 9:2 10:3 11:7 12:3 13:2 14:2 15:6 16:3 17:2 19:2 20:3 21:4 22:7 23:17 24:17 25:4 26:5 27:4 
-0.776912345336724 0.7451247923108393 0.7634134492568326 0.6423939031616662 0.8061647101489519 0.6944588359850288 0.7864001298430913 0.7416538863059386 0.7506224897294279 1:1 2:2 3:3 4:4 5:5 6:2 7:2 8:2 9:2 10:2 11:2 12:2 13:2 14:2 15:2 16:9 17:4 18:2 19:1 20:2 21:3 22:4 23:16 24:17 25:1 26:1 27:1 
-0.3283383077067654 0.3161985142285362 0.323429270741221 0.2721757051898482 0.3412328786131593 0.2940938815268031 0.3332957185028904 0.3141829552321221 0.3183271395615389 1:2 2:2 3:3 4:6 5:7 6:4 7:3 8:4 9:3 10:3 11:2 12:2 13:2 14:2 15:2 16:2 17:2 19:2 20:2 21:2 22:3 23:17 24:17 25:1 27:6 28:1 
-0.7064201086058307 0.6777539481218151 0.6946827602212513 0.5842990181800736 0.7324284466740143 0.6319064928970263 0.7147281778022953 0.6743452662012721 0.6827050304211032 1:1 2:2 3:2 4:4 5:5 6:2 7:2 8:2 9:2 10:4 11:4 12:2 13:6 14:6 15:4 16:3 17:7 18:4 19:3 20:4 21:4 22:4 23:16 24:17 25:3 26:2 27:1 
-0.7059306055214737 0.6780999616020947 0.6943583050236791 0.5845549941397852 0.7326307122487635 0.6314170537442816 0.7150808256455782 0.6750296225851138 0.6824970423092465 1:2 2:4 3:4 4:7 5:7 6:3 7:2 8:2 9:2 10:2 11:2 12:2 13:2 14:2 15:2 16:2 17:2 19:2 20:2 21:2 22:3 23:16 24:17 27:1 28:6 
-0.0469029677806097 0.0459441352371658 0.04636511476869965 0.03929483465503277 0.04834853143588023 0.04269422070714555 0.04737708318205269 0.04488833716454659 0.04591713929627249 1:1 2:2 3:3 4:5 5:6 6:3 7:2 8:2 9:4 10:3 11:3 12:3 13:3 14:3 15:3 16:5 17:4 18:2 19:4 20:6 21:6 22:4 23:16 24:17 
-0.894504472973962 0.8586755174326652 0.879903665237993 0.7404177849730373 0.928760796761444 0.7999780453444444 0.9062111608925709 0.8552166578042427 0.8649804085691838 1:3 2:3 3:4 4:6 5:7 6:5 7:3 8:4 9:5 10:3 11:3 12:3 13:3 14:3 15:3 16:3 17:2 18:4 19:8 20:8 21:5 22:4 23:17 24:17 
-0.3292722660050219 0.3155354699258673 0.3237619783745693 0.2726205505758995 0.3421794054792819 0.2940790823217065 0.3333294174733271 0.3148354062026931 0.3178238535126909 1:1 2:2 3:3 4:5 5:7 6:2 7:2 8:3 9:6 10:7 11:3 12:2 13:2 14:2 15:5 16:3 17:2 19:1 20:3 21:4 22:5 23:16 24:17 25:4 26:3 27:3 28:1 
-0.4655144472919161 0.4449218297558669 0.456736875755507 0.3839327534007108 0.4846655211856508 0.4145490679751327 0.4725056183232232 0.4429647625697672 0.4485897354708487 1:2 2:2 3:3 4:6 5:6 6:2 7:2 8:2 9:3 10:2 11:3 12:2 13:3 14:4 15:3 16:4 17:9 18:2 19:4 20:5 21:4 22:5 23:17 24:17 25:2 26:1 27:1 
-1 1 1 0.9263030869430053 1 1 1 1 1 1:2 2:2 3:8 4:11 5:9 6:5 7:3 8:4 9:6 10:4 11:3 12:3 13:3 14:3 15:3 16:2 17:2 18:2 19:4 20:3 21:3 22:4 23:17 24:17 25:12 26:7 27:2 28:2 
-0.4334414820534012 0.4149406063694872 0.4257654655878724 0.3572962875835387 0.4521326312067233 0.3868083389798075 0.4388564469042103 0.4133153786560448 0.4178830340226148 1:2 2:4 3:5 4:6 5:6 6:3 7:2 8:2 9:2 10:2 11:2 12:3 13:4 14:4 15:4 16:5 17:4 18:1 19:4 20:7 21:8 22:5 23:17 24:17 25:1 
-0.8072234823889128 0.7754301304327103 0.7939875582426417 0.6675419327877271 0.8384974813565951 0.7218454154755941 0.8176059781125489 0.7710504749396573 0.7807184713179152 1:2 2:5 3:5 4:7 5:7 6:3 7:3 8:3 9:4 10:7 11:3 12:2 13:2 14:2 15:3 16:8 17:2 18:2 19:2 20:4 21:5 22:5 23:16 24:17 25:4 26:4 27:4 28:5 
-0.04514564246261434 0.04375019958976185 0.04486950935737481 0.03813705765498241 0.04678214399085863 0.04017903434123397 0.04603527461782714 0.04387625812365145 0.04318354493442771 1:2 2:2 3:4 4:9 5:6 6:2 7:3 8:2 9:2 10:7 11:3 12:2 13:2 14:2 15:2 16:2 17:3 19:2 20:2 21:3 22:5 23:17 24:17 25:3 26:2 27:3 28:1 
-0.3782148898073685 0.3632716609957338 0.372422759032728 0.3128282476199004 0.3931080176279844 0.3381373901590431 0.3829932963377293 0.3614341642260857 0.3656946265358432 1:7 2:4 3:3 4:8 5:8 6:2 7:2 8:3 9:5 10:4 11:3 12:4 13:4 14:4 15:3 16:2 17:3 18:2 19:3 20:5 21:7 22:7 23:17 24:17 25:3 26:3 27:3 28:2 
-0.9881412077930181 0.9483706739034861 0.971354376877395 0.8176106734124716 1 0.8839544722383152 1 0.943728236777681 0.9557487000902501 1:3 2:4 3:6 4:7 5:6 6:4 7:3 8:3 9:3 10:3 11:3 12:3 13:3 14:3 15:3 16:3 17:2 18:1 19:3 20:3 21:12 22:8 23:16 24:17 25:2 
-0.3422786315814856 0.3289190629817275 0.3366170093909749 0.2835271532920486 0.3546647982546104 0.3059980808990793 0.3471910977770302 0.3268429825074334 0.330791277510419 1:2 2:4 3:4 4:4 5:5 6:2 7:2 8:3 9:2 10:3 11:4 12:7 13:3 14:2 15:2 16:2 17:2 20:1 21:3 22:5 23:16 24:17 25:3 26:3 27:4 28:1 
-1 1 1 0.9655012484855749 1 1 1 1 1 1:2 2:2 3:4 4:6 5:6 6:2 7:3 8:3 9:3 10:9 11:3 12:11 13:4 14:7 15:6 16:7 17:4 18:3 19:5 20:6 21:5 22:7 23:17 24:17 25:6 26:5 27:7 28:4 
-0.5412983567431512 0.5198025130530911 0.5327346245492616 0.447718917442483 0.5618095952952356 0.4844356479653567 0.5480752854005432 0.5171213745522037 0.5234301624515071 1:4 2:2 3:3 4:6 5:6 6:2 7:3 8:2 9:2 10:2 11:2 12:2 13:7 14:5 15:7 16:3 17:2 18:3 19:4 20:5 21:5 22:7 23:17 24:17 25:2 
-0.785185428374043 0.7536385228309074 0.7723553410528048 0.6493917231881929 0.8148438679018588 0.7019071202291889 0.7950286324648607 0.7502991044884066 0.7588223670837773 1:2 2:2 3:5 4:7 5:7 6:2 7:2 8:2 9:2 10:2 11:4 12:6 13:9 14:2 15:4 16:5 17:5 18:1 19:3 20:4 21:4 22:6 23:17 24:17 25:5 26:5 27:5 28:1 
-0.8284315396286551 0.7946532032300021 0.81470115908401 0.6849693845107601 0.8594439236113302 0.7404976427238096 0.8390868756800827 0.7909209071184191 0.8003332502235558 1:1 2:7 3:3 4:5 5:6 6:2 7:2 8:2 9:2 10:2 11:2 12:6 13:3 14:9 15:4 16:4 17:2 19:2 20:4 21:5 22:7 23:16 24:17 25:3 26:3 27:3 28:2 
-0.1671521950598291 0.1613519178745227 0.1648575001440953 0.1388886955048585 0.1733753271380259 0.1502342195322564 0.1696456569307578 0.1600541715643345 0.1618555957734992 1:1 2:5 3:4 4:5 5:6 6:2 7:6 8:2 9:2 10:2 11:4 12:4 13:3 14:2 15:2 16:2 17:2 19:1 20:2 21:2 22:6 23:16 24:17 25:3 26:4 27:3 
-0.1815766892151027 0.1741513804308562 0.1786574068341585 0.1503844114602817 0.1887552641332142 0.1624555384628436 0.1844790594454938 0.1730867137286638 0.1766148176535029 1:2 2:2 3:3 4:10 5:6 6:8 7:3 8:2 9:2 10:2 11:2 12:2 13:2 14:2 15:2 16:2 17:2 18:2 19:3 20:3 21:4 22:4 23:17 24:17 25:2 26:1 27:1 
-1 1 1 0.941233707431946 1 1 1 1 1 1:2 2:10 3:7 4:9 5:7 6:6 7:4 8:2 9:2 10:2 11:4 12:6 13:5 14:5 15:5 16:2 17:2 18:5 19:7 20:7 21:8 22:6 23:17 24:17 25:5 26:4 27:4 
-0.03221620227555323 0.03140724134684809 0.03194551429564393 0.02758647516332275 0.03355210689314647 0.02978118074102637 0.03228202570367898 0.03138285896733269 0.03188792885197661 1:6 2:3 3:3 4:6 5:6 6:4 7:2 8:2 9:2 10:2 11:2 12:2 13:2 14:2 15:2 16:2 17:2 19:2 20:3 21:4 22:5 23:17 24:17 25:2 
-0.7034915259700474 0.6723687278108905 0.6902418153939681 0.5798283911896542 0.7332362787776358 0.6264701954606242 0.7127262230785348 0.6689885887418336 0.6772121668449975 1:6 2:4 3:11 4:6 5:6 6:2 7:2 8:3 9:2 10:2 11:3 12:2 13:2 14:2 15:2 16:2 17:2 18:2 19:4 20:4 21:4 22:4 23:17 24:17 25:3 26:1 27:1 28:2 
-0.01926015913052014 0.01893288717411852 0.0192719091883443 0.01594956437092123 0.01970037563594024 0.01737456317759464 0.01932922040756458 0.0183822328717729 0.01863615570620593 1:2 2:2 3:3 4:6 5:7 6:2 7:5 8:3 9:3 10:2 11:2 12:2 13:2 14:3 15:7 16:3 17:2 19:2 20:2 21:2 22:5 23:17 24:17 25:4 26:3 27:3 28:1 
-0.07891417932446836 0.07625086547944775 0.07766385321267995 0.06545062958940828 0.08166131646187681 0.07107392948474127 0.0799426675351157 0.07550047967190043 0.07664337714980322 1:5 2:2 3:3 4:6 5:7 6:3 7:4 8:2 9:4 10:8 11:4 12:2 13:2 14:2 15:2 16:2 17:2 18:1 19:2 20:3 21:4 22:6 23:17 24:17 25:3 26:2 27:3 28:2 
-0.6008863678019365 0.5765177619318798 0.5909773746336643 0.4966055910290852 0.6235592405877494 0.5368057452931053 0.6083177137606177 0.5735392413978488 0.5805974932103017 1:3 2:2 3:3 4:6 5:7 6:4 7:3 8:5 9:2 10:3 11:3 12:2 13:2 14:2 15:2 16:2 17:2 19:2 20:2 21:2 22:3 23:17 24:17 25:8 26:1 27:1 
-0.692855803324122 0.6642279617097976 0.6809422007384504 0.5722912600292942 0.7182144973004235 0.6194286737088015 0.7015257358734268 0.6610851937180652 0.6691187694819566 1:6 2:4 3:3 4:6 5:7 6:3 7:9 8:2 9:2 10:3 11:3 12:2 13:2 14:2 15:2 16:2 17:2 18:2 19:6 20:4 21:4 22:5 23:17 24:17 25:3 26:1 27:1 
-0.358451011993687 0.3438181446426956 0.3521218371688474 0.2962426586267974 0.3720451063792774 0.3207527339748266 0.3628095227275845 0.3421804256401407 0.3461333740492063 1:2 2:2 3:7 4:6 5:7 6:6 7:7 8:5 9:2 10:2 11:2 12:3 13:2 14:2 15:2 16:2 17:2 18:1 19:4 20:5 21:5 22:5 23:17 24:17 25:2 26:2 27:2 28:1 
-0.4391378104134696 0.421337707705196 0.4320525548127299 0.3632185807565319 0.4563758274280944 0.3923762741251941 0.444628744842556 0.4195415211343312 0.4243670847470553 1:1 2:2 3:3 4:4 5:5 6:2 7:2 8:2 9:2 10:2 11:2 12:2 13:2 14:2 15:3 16:2 17:6 20:1 21:3 22:4 23:16 24:17 25:1 26:1 27:1 
-0.5650322872295722 0.5422262781867231 0.5553533005192073 0.4676974398185967 0.5866289799340867 0.5051176499589912 0.572142928124165 0.5399782616855273 0.5463163046483902 1:2 2:2 3:4 4:6 5:6 6:2 7:3 8:2 9:2 10:2 11:2 12:2 13:2 14:2 15:7 16:7 17:3 18:2 19:4 20:5 21:4 22:6 23:17 24:17 25:1 
-0.7124483452808918 0.6836693631607186 0.7012830385039897 0.5894491386927375 0.7397752078280136 0.6369733059516535 0.7216472298144905 0.6805915243377162 0.6890232143371536 1:1 2:2 3:3 4:5 5:7 6:5 7:5 8:4 9:3 10:7 11:5 12:4 13:3 14:2 15:2 16:2 17:6 18:2 19:3 20:3 21:4 22:9 23:16 24:17 25:3 26:3 27:5 28:1 
-0.7269460291810774 0.6974614254130446 0.7151502764580515 0.6010077956371411 0.7538899520965028 0.6499956551705537 0.7360710192614008 0.6939235860194682 0.7023960457448746 1:1 2:2 3:8 4:8 5:7 6:3 7:4 8:3 9:2 10:2 11:6 12:2 13:2 14:2 15:2 16:2 17:2 18:1 19:2 20:2 21:3 22:4 23:16 24:17 25:3 26:2 27:2 28:6 
-0.03724487092975194 0.03269482183944016 0.03532189123447836 0.02781741811441504 0.04277185108905319 0.02994762317208927 0.03880726147964821 0.0321267661670665 0.03308235831917263 1:2 2:6 3:8 4:8 5:6 6:3 7:2 8:2 9:2 10:2 11:5 12:3 13:2 14:2 15:2 16:2 17:2 19:3 20:4 21:5 22:5 23:17 24:17 25:3 26:3 27:2 
-0.7964575117889329 0.7644644413472291 0.7832428379801375 0.6585062828410099 0.826432181005906 0.712704806139519 0.8062299053167851 0.7608123230546001 0.7697867524728996 1:2 2:2 3:3 4:7 5:6 6:2 7:2 8:2 9:2 10:2 11:2 12:10 13:3 14:2 15:2 16:2 17:2 18:2 19:3 20:3 21:3 22:4 23:17 24:17 25:2 26:1 27:1 
-0.4337510317470449 0.4163742403832958 0.426392042665144 0.3594112327234028 0.4502916722986295 0.3874812439569864 0.4388503305590407 0.4143716862949358 0.4194612952883154 1:2 2:2 3:3 4:6 5:6 6:4 7:9 8:2 9:2 10:2 11:2 12:2 13:2 14:2 15:2 16:2 17:3 18:1 19:4 20:3 21:3 22:5 23:17 24:17 25:1 26:1 27:1 
-0.6957715954087152 0.6670525928570886 0.6838531737098882 0.5754771070411843 0.7217205613380745 0.6215743749783257 0.7041920413816853 0.6644500393170886 0.6722487228948187 1:2 2:1 3:2 4:4 5:6 6:5 7:5 8:7 9:4 10:4 11:4 12:2 13:3 14:2 15:6 16:2 17:2 18:3 19:4 20:3 21:3 22:5 23:15 24:17 25:5 26:3 27:3 
-0.7201218733493424 0.690927220766963 0.7076929987879298 0.5955718893920436 0.7470776940568092 0.6435465569285415 0.7288698759748167 0.6874124430961887 0.6955752219549627 1:10 2:4 3:3 4:5 5:9 6:2 7:2 8:3 9:5 10:2 11:2 12:2 13:2 14:2 15:2 16:2 17:2 18:1 19:3 20:3 21:3 22:5 23:17 24:17 25:4 26:3 27:3 
-0.2277959242053378 0.218602176286485 0.2234632134946025 0.1882262211127644 0.2361200530046053 0.2038485001676621 0.2299579889579816 0.2177168689980736 0.2201121311594321 1:7 2:3 3:3 4:5 5:9 6:2 7:2 8:2 9:2 10:2 11:2 12:3 13:5 14:2 15:2 16:2 17:2 19:1 20:2 21:2 22:5 23:17 24:17 25:3 26:3 27:4 28:1 
-0.8937009977833555 0.8572963108448526 0.8791985082857604 0.739579670527307 0.9274038318754182 0.7992941734524146 0.9046592962273051 0.8534177813455162 0.8638040134747187 1:1 2:2 3:3 4:5 5:6 6:2 7:2 8:3 9:6 10:2 11:2 12:2 13:2 14:8 15:8 16:2 17:2 19:1 20:2 21:4 22:6 23:16 24:17 25:4 26:3 27:3 28:2 
-0.01737875367686982 0.01665408696968032 0.01686561089505282 0.01410466430508927 0.01762403639825487 0.01547488016733709 0.0179136675469359 0.01612101083642129 0.01683220734429913 1:2 2:2 3:3 4:7 5:8 6:3 7:3 8:3 9:4 10:5 11:2 12:2 13:3 14:2 15:2 16:2 17:2 19:2 20:2 21:2 22:5 23:17 24:17 25:1 26:5 27:4 
-0.0150269884418045 0.0140525811104835 0.01540042516405975 0.01226058395228689 0.01465422382177036 0.01372534735906271 0.01486316469983905 0.01446825905733866 0.01481862932522137 1:2 2:2 3:9 4:6 5:6 6:2 7:2 8:2 9:2 10:2 11:3 12:2 13:2 14:2 15:2 16:3 17:2 18:1 19:3 20:3 21:3 22:4 23:17 24:17 25:2 26:1 
-0.6708619357487515 0.643844935950576 0.6598480163666733 0.555790179382504 0.6957364980484 0.6001117484338536 0.6792784522628915 0.6409515008871119 0.6487131242854773 1:8 2:4 3:4 4:6 5:10 6:3 7:4 8:5 9:2 10:2 11:2 12:2 13:2 14:2 15:2 16:2 17:2 19:1 20:3 21:4 22:5 23:17 24:17 25:3 26:4 27:4 28:4 
-0.4749454567197406 0.4560049193417334 0.4671416846473684 0.3931631294793639 0.4926745980708961 0.4248860985371945 0.4806315694331039 0.4535908034676839 0.459040631070202 1:7 2:3 3:3 4:5 5:6 6:2 7:2 8:2 9:2 10:2 11:2 12:5 13:5 14:7 15:4 16:2 17:2 19:2 20:4 21:4 22:5 23:17 24:17 25:4 26:3 27:4 28:1 
-0.8269669422232265 0.7934776868513274 0.8127267197906712 0.6836656105366372 0.8581809321934435 0.7392226774138526 0.8372343951368676 0.7895350147124737 0.7992764856148427 1:2 2:2 3:3 4:6 5:6 6:2 7:2 8:2 9:2 10:2 11:2 12:6 13:7 14:10 15:5 16:3 17:2 19:3 20:4 21:4 22:5 23:17 24:17 25:3 26:3 27:4 28:4 
-0.6636848591105482 0.6371486686486074 0.652619821169659 0.5498183614680121 0.688298361889923 0.5936206483973235 0.6719195555894916 0.6341426120789795 0.6418870120103215 1:1 2:3 3:6 4:5 5:6 6:3 7:3 8:8 9:2 10:2 11:2 12:2 13:2 14:2 15:2 16:6 17:2 19:1 20:4 21:4 22:6 23:16 24:17 25:3 26:3 27:3 
-0.2921531780315663 0.2802474103903264 0.2870589365708324 0.2415740272955357 0.3028849256076308 0.260849516439491 0.2952472938002234 0.2791704155400515 0.2820081606414225 1:3 2:3 3:4 4:6 5:6 6:2 7:3 8:6 9:6 10:4 11:5 12:2 13:2 14:2 15:2 16:2 17:4 19:3 20:3 21:4 22:8 23:17 24:17 25:4 26:2 27:2 28:2 
-0.9038066352813501 0.8676688948313487 0.8888437320537478 0.7476000299874229 0.9380833987479822 0.8082115769201158 0.9150522623372648 0.8631564765392276 0.8740236163232121 1:2 2:2 3:4 4:6 5:6 6:2 7:2 8:2 9:2 10:2 11:3 12:7 13:8 14:3 15:9 16:3 17:2 18:1 19:5 20:6 21:7 22:6 23:17 24:17 25:2 26:2 27:2 
-0.2890667609933073 0.2773294225218416 0.2838180012654673 0.2390469163353781 0.2995717307445577 0.257842253183133 0.2923470398357766 0.2752419844135004 0.279286277284376 1:1 2:2 3:3 4:5 5:10 6:7 7:2 8:2 9:2 10:2 11:2 12:3 13:2 14:2 15:2 16:3 17:2 18:2 19:2 20:3 21:3 22:5 23:16 24:17 25:2 26:1 27:1 
-0.677533238434688 0.6498830350618714 0.6662213892856763 0.5608547826866649 0.7025647895936606 0.6054641134537811 0.6856813117398751 0.6468668594155216 0.6549404711455686 1:2 2:5 3:5 4:6 5:7 6:2 7:4 8:4 9:7 10:9 11:2 12:2 13:2 14:2 15:2 16:3 17:2 18:3 19:4 20:5 21:6 22:6 23:17 24:17 25:3 26:3 27:2 
-0.1403493134813844 0.1342451589518584 0.1385269954437316 0.1160655600350462 0.145417290864293 0.1260271306910913 0.1420042176599717 0.1341741263342398 0.1353607742819728 1:5 2:5 3:4 4:5 5:6 6:3 7:4 8:3 9:7 10:2 11:2 12:2 13:2 14:2 15:2 16:2 17:2 18:2 19:2 20:3 21:3 22:5 23:17 24:17 25:3 26:2 27:3 28:1 
-0.5625642605439284 0.5396608919634072 0.5531705628097211 0.4655764531429709 0.5838088110897102 0.5027468039640109 0.5696340444316816 0.5373638405780825 0.5436771433748318 1:2 2:2 3:3 4:6 5:7 6:2 7:2 8:2 9:2 10:2 11:2 12:3 13:4 14:4 15:4 16:3 17:2 18:6 19:3 20:2 21:2 22:3 23:17 24:17 25:2 
-0.6922026341049523 0.6643204116432925 0.6812615632014827 0.5722149258975201 0.7186740488261131 0.6178725239605822 0.7017548479641896 0.6609655769105145 0.6691309971667909 1:6 2:3 3:5 4:9 5:7 6:5 7:2 8:2 9:2 10:2 11:2 12:3 13:3 14:3 15:3 16:4 17:6 18:1 19:4 20:4 21:4 22:4 23:17 24:17 25:6 26:6 27:3 28:1 
-0.4179072103866753 0.4012688628996823 0.4107563905623631 0.3455282680586552 0.4337295273019418 0.3733508189597187 0.4228395057251654 0.3989772668351527 0.4036464700220191 1:1 2:2 3:2 4:4 5:7 6:3 7:2 8:2 9:2 10:2 11:7 12:4 13:2 14:2 15:2 16:2 17:2 20:1 21:3 22:4 23:16 24:17 25:3 26:2 27:2 
-0.09939289490475675 0.09518352781922862 0.09649854631531639 0.08132976507370504 0.102356770907108 0.08781913384616083 0.1003053774111246 0.09416273546815883 0.09595756319898968 1:1 2:2 3:3 4:5 5:6 6:2 7:2 8:2 9:2 10:2 11:2 12:2 13:2 14:2 15:2 16:2 17:2 19:1 20:2 21:2 22:3 23:16 24:17 
-0.2051155788217303 0.1965626716052815 0.201504415050946 0.1703352305378294 0.2127125095377668 0.183518225183615 0.20723907096979 0.1959664082966222 0.1982948336738295 1:2 2:2 3:3 4:10 5:6 6:3 7:5 8:3 9:2 10:2 11:2 12:6 13:2 14:2 15:2 16:2 17:2 18:1 19:2 20:3 21:2 22:5 23:17 24:17 25:3 26:3 27:3 
-0.9385812151535078 0.9009810125624299 0.9235696490055126 0.7759803886781095 0.9748171324677177 0.8392696274596242 0.950818557533753 0.896298184576625 0.9073344835973071 1:2 2:4 3:9 4:6 5:7 6:3 7:2 8:3 9:3 10:3 11:2 12:2 13:2 14:6 15:9 16:2 17:2 18:2 19:4 20:4 21:5 22:6 23:16 24:17 25:7 26:4 27:2 
-0.2322191973595849 0.222873694444921 0.2282897024838048 0.1915752535195589 0.2413211763816867 0.2073668677836928 0.2348626037305205 0.2214741564949792 0.224714042149892 1:2 2:4 3:5 4:5 5:6 6:5 7:4 8:3 9:2 10:2 11:2 12:2 13:2 14:5 15:3 16:6 17:4 18:1 19:3 20:4 21:3 22:5 23:16 24:17 25:5 26:5 27:3 
-0.7569176057670156 0.7261670701094675 0.7438086577766796 0.6259277002388662 0.7848300764650241 0.6765082769126814 0.7656807822142288 0.7226242196394487 0.7315443680867716 1:2 2:2 3:3 4:9 5:10 6:4 7:2 8:2 9:2 10:2 11:5 12:3 13:3 14:5 15:5 16:4 17:5 18:1 19:2 20:3 21:5 22:8 23:17 24:17 25:3 26:4 27:5 28:3 
-0.4302827798806445 0.413733079422562 0.4226582997841901 0.356800432502798 0.4459378733540619 0.3853757747485962 0.4358967029959304 0.411873578543124 0.4162382981714047 1:2 2:2 3:10 4:6 5:7 6:2 7:2 8:2 9:2 10:3 11:5 12:2 13:2 14:2 15:3 16:2 17:2 18:2 19:3 20:3 21:3 22:5 23:17 24:17 25:2 26:2 27:2 
-1 1 1 0.8665751046237332 1 0.936846594079059 1 1 1 1:1 2:10 3:3 4:5 5:6 6:3 7:2 8:2 9:2 10:2 11:2 12:2 13:2 14:2 15:2 16:4 17:9 18:3 19:5 20:3 21:4 22:5 23:16 24:17 25:2 26:2 27:2 
-0.6750287162571375 0.647347873934047 0.663571656751866 0.5572338577752416 0.7005705945574899 0.6031144662734381 0.683362779459634 0.6444544633368751 0.6524891313974243 1:1 2:6 3:6 4:8 5:7 6:3 7:6 8:4 9:6 10:6 11:3 12:2 13:2 14:2 15:2 16:2 17:2 18:1 19:2 20:3 21:4 22:6 23:16 24:17 25:5 26:5 27:5 28:4 
-0.03320223375841142 0.032358603472214 0.03324468046772719 0.02834259786259394 0.03490829027047803 0.03010802811422794 0.03419867251204765 0.03334366637193195 0.03227778526591183 1:1 2:2 3:2 4:4 5:6 6:4 7:4 8:2 9:2 10:2 11:2 12:2 13:2 14:2 15:2 16:2 17:2 20:1 21:2 22:3 23:16 24:17 25:2 26:1 27:1 
-0.5079372267156724 0.4871994704397761 0.4994230688951514 0.4202480575909023 0.5269098470110203 0.4541782045350722 0.514231798334491 0.4848600386292823 0.4909313339389437 1:2 2:2 3:3 4:6 5:9 6:2 7:3 8:2 9:2 10:2 11:3 12:5 13:10 14:3 15:2 16:2 17:2 18:2 19:3 20:3 21:3 22:6 23:17 24:17 25:3 26:3 27:3 
-0.9301547319390699 0.8914901980001071 0.9140479838395767 0.7667974947765464 0.9660386209114924 0.8288095188131277 0.9415900197578064 0.8870639534866344 0.8980819043984928 1:2 2:5 3:11 4:10 5:6 6:2 7:4 8:5 9:2 10:2 11:2 12:3 13:3 14:5 15:4 16:2 17:2 18:1 19:3 20:4 21:4 22:6 23:17 24:17 25:7 26:5 27:4 28:2 
-1 0.9929380988623954 1 0.8554196667247191 1 0.9251903943461214 1 0.9885206283757579 1 1:3 2:11 3:11 4:5 5:6 6:2 7:2 8:2 9:2 10:2 11:2 12:2 13:2 14:2 15:2 16:2 17:2 18:2 19:3 20:5 21:5 22:4 23:16 24:17 25:2 26:2 27:2 28:2 
-0.4538751697032395 -0.3678030850500661 0.4818804850337844 0.3568050791653252 0.4707586046281969 0.3985658416086114 0.4501191200732036 0.456907727713773 0.4383917821657416 1:6 2:9 3:7 4:7 5:9 6:5 7:5 8:5 9:4 10:5 11:7 12:6 13:4 14:4 15:3 16:11 17:11 18:7 19:11 20:10 21:8 22:8 23:9 24:11 25:11 26:10 27:15 28:8 
-0.8014456184735275 -0.6633201111218885 0.7840104959291387 0.6434347638688773 0.8456512660572635 0.7093802041805907 0.8115742319651666 0.797486732365164 0.7720640542134345 1:8 2:10 3:8 4:7 5:6 6:7 7:9 8:5 9:6 10:5 11:9 12:4 13:3 14:3 15:2 16:11 17:11 18:7 19:12 20:13 21:10 22:10 23:10 24:9 25:11 26:11 27:12 28:9 
-0.6799701536480174 -0.5513313578836987 0.6518723098849359 0.5348381105849176 0.6934333953719251 0.6114899364898879 0.6752568610737899 0.6327595851404861 0.6755999777365413 1:5 2:8 3:5 4:4 5:4 6:10 7:6 8:6 9:6 10:9 11:7 12:6 13:3 14:2 15:3 16:11 17:11 18:11 19:13 20:9 21:9 22:8 23:10 24:8 25:9 26:10 27:10 28:9 
-0.09192743483498689 -0.07566488898941824 0.08403867938815414 0.07289648429588991 0.09061608109052102 0.07758763666292103 0.09211057437436554 0.07205040304070658 0.0854246114522525 1:7 2:9 3:7 4:5 5:6 6:11 7:4 8:4 9:4 10:5 11:6 12:4 13:3 14:2 15:2 16:11 17:11 18:8 19:11 20:9 21:8 22:9 23:9 24:9 25:11 26:9 27:10 28:8 
-0.4557428856723222 -0.355325975056157 0.4720082793244103 0.3442382480653479 0.4446782268719681 0.3765220944479933 0.434680840316467 0.3980798668779856 0.4452501559635277 1:5 2:8 3:6 4:5 5:5 6:5 7:4 8:4 9:5 10:6 11:8 12:4 13:4 14:3 15:3 16:4 17:11 18:6 19:9 20:6 21:5 22:6 23:6 24:9 25:9 26:9 27:13 28:12 
-1 -0.864603379967146 1 0.8385197414385093 1 0.9331986272490225 1 0.9946716735558937 1 1:5 2:8 3:6 4:5 5:5 6:5 7:7 8:8 9:6 10:6 11:6 12:5 13:4 14:3 15:3 16:3 17:10 18:16 19:10 20:17 21:6 22:6 23:6 24:7 25:5 26:7 27:9 28:6 
-0.5280094841699235 -0.4237301435133405 0.5038334145831029 0.4113367190046073 0.5324651606108182 0.447725531501611 0.5175842587275234 0.4863081705919961 0.5039431063170924 1:4 2:7 3:5 4:3 5:4 6:4 7:11 8:3 9:4 10:5 11:4 12:4 13:3 14:2 15:2 16:2 17:10 18:6 19:10 20:7 21:6 22:6 23:5 24:8 25:6 26:7 27:10 28:6 
-0.1189393174121429 -0.09994175139055979 0.1477409573340129 0.09650337381665056 0.1220152900641063 0.09346570505292674 0.1216593824886335 0.1020555488135473 0.1172285575853916 1:6 2:10 3:6 4:7 5:5 6:5 7:4 8:4 9:5 10:7 11:6 12:5 13:5 14:2 15:2 16:11 17:11 18:6 19:10 20:8 21:7 22:9 23:8 24:9 25:9 26:10 27:12 28:13 
-0.6518679476930705 -0.541167721822728 0.64676145048671 0.5247116349318104 0.688794294158669 0.6550736873537888 0.6622775250312865 0.6624513115551443 0.6242029262204621 1:5 2:8 3:6 4:6 5:5 6:5 7:4 8:10 9:9 10:6 11:8 12:4 13:4 14:3 15:3 16:11 17:11 18:8 19:11 20:10 21:10 22:12 23:10 24:9 25:8 26:10 27:11 28:9 
-0.4913608086702076 -0.4043292041466118 0.4839655867817149 0.3923081189761534 0.5077530698415685 0.4352120746036994 0.4950981452968613 0.4628704710641192 0.4714295559330527 1:9 2:9 3:6 4:6 5:4 6:11 7:3 8:4 9:5 10:5 11:5 12:5 13:3 14:2 15:2 16:11 17:11 18:8 19:11 20:10 21:8 22:8 23:8 24:9 25:9 26:11 27:10 28:9 
-0.3101793805137089 -0.2291807960415946 0.2789240041509491 0.2219596476413493 0.3309872860724464 0.3081311899100004 0.2801642650130635 0.2935508623154751 0.2799839566053806 1:4 2:7 3:5 4:4 5:4 6:4 7:7 8:8 9:5 10:5 11:4 12:4 13:5 14:3 15:3 16:3 17:11 18:6 19:11 20:7 21:7 22:7 23:5 24:9 25:7 26:9 27:10 28:8 
-0.1056381856246233 -0.0257577456826933 0.01218122345670447 0.02561261316319674 0.03105851798387669 0.06805140325385345 0.03104125762848418 0.0560578586353659 0.07519252842468889 1:4 2:7 3:6 4:5 5:5 6:6 7:4 8:4 9:5 10:5 11:5 12:4 13:4 14:2 15:2 16:3 17:11 18:8 19:12 20:9 21:7 22:7 23:4 24:6 25:5 26:7 27:10 28:7 
-0.3118777199445424 -0.2612185015886546 0.3582601121334659 0.2542481858359399 0.3383446925196678 0.279314786827617 0.3210124116878241 0.3275506943768411 0.3022616680522025 1:5 2:7 3:5 4:4 5:6 6:6 7:6 8:5 9:5 10:5 11:5 12:4 13:4 14:4 15:3 16:6 17:10 18:5 19:9 20:7 21:6 22:7 23:7 24:11 25:10 26:12 27:9 28:7 
-0.09634499281871822 -0.08343414897887443 0.1535288254887748 0.08058865132083691 0.1118064332309473 0.08072505746255965 0.1143798920531146 0.1079237110830746 0.08090786092784294 1:3 2:5 3:5 4:3 5:4 6:4 7:2 8:3 9:4 10:4 11:4 12:4 13:6 14:6 15:5 16:3 17:10 18:5 19:9 20:7 21:6 22:7 23:7 24:6 25:5 26:7 27:10 28:6 
-0.3471182407272698 -0.2797054645698037 0.3355309111102527 0.2713058862862257 0.35324102241012 0.303431300490556 0.3442941095773993 0.3197465508330334 0.3441828058461742 1:7 2:7 3:7 4:4 5:5 6:6 7:5 8:4 9:4 10:5 11:4 12:4 13:4 14:5 15:6 16:3 17:10 18:6 19:11 20:7 21:6 22:8 23:9 24:11 25:8 26:8 27:10 28:6 
-0.6004491490414088 -0.4919126863738374 0.5892465335058777 0.4771889231905961 0.6475006834573895 0.5203112717879116 0.6024952831622301 0.5735592724119292 0.5771625487239458 1:5 2:8 3:5 4:3 5:4 6:4 7:10 8:4 9:4 10:4 11:4 12:3 13:4 14:2 15:1 16:5 17:11 18:4 19:10 20:8 21:8 22:6 23:7 24:6 25:6 26:7 27:10 28:9 
-0.07908073099117179 -0.0842231711045385 0.02634037735944464 0.0815697856773864 0.08883975413518863 0.06749908222066865 0.09987784572178415 0.03410255856778279 0.0547160680372319 1:4 2:7 3:6 4:3 5:4 6:4 7:2 8:3 9:3 10:4 11:4 12:3 13:3 14:2 15:1 16:3 17:11 18:4 19:10 20:6 21:6 22:4 23:5 24:5 25:4 26:6 27:10 28:7 
-0.4690155978561907 -0.385531551314597 0.4534548912909676 0.3736143744883475 0.4905640655761412 0.4155395849093785 0.4711888047011325 0.4325261202116403 0.4684649489675146 1:4 2:7 3:11 4:3 5:4 6:4 7:3 8:3 9:6 10:5 11:4 12:3 13:3 14:2 15:2 16:2 17:10 18:6 19:11 20:7 21:6 22:6 23:5 24:7 25:6 26:7 27:9 28:6 
-0.7906891735128458 -0.6348277141277124 0.7774984896115477 0.6154909318606533 0.7990235151197232 0.6798206634151663 0.7764891552231834 0.7791110423024019 0.7663877851596964 1:4 2:7 3:5 4:3 5:5 6:4 7:3 8:3 9:5 10:7 11:11 12:5 13:8 14:3 15:2 16:3 17:10 18:6 19:11 20:9 21:6 22:7 23:5 24:7 25:7 26:10 27:11 28:9 
-0.3643491733871293 -0.3035830408949847 0.3873236322275082 0.2941522619449818 0.3823005838359861 0.3230275998894136 0.3748856812592087 0.3441119491297523 0.3505686210051912 1:6 2:8 3:6 4:4 5:10 6:6 7:3 8:4 9:4 10:4 11:4 12:4 13:4 14:3 15:2 16:4 17:10 18:5 19:9 20:7 21:7 22:6 23:9 24:10 25:8 26:8 27:10 28:7 
-0 -0 0.01573671283525777 0 0 0 0 0 0 1:7 2:8 3:5 4:4 5:4 6:4 7:3 8:3 9:4 10:4 11:4 12:3 13:3 14:2 15:2 16:2 17:10 18:6 19:9 20:7 21:5 22:5 23:4 24:6 25:5 26:8 27:10 28:7 
-0.1042789587611301 -0.08808354416851878 0.09719133438364685 0.08507598906356507 0.1105545269476823 0.08264770197314907 0.1085646185121212 0.07963757655920982 0.1291980331762945 1:5 2:8 3:5 4:3 5:4 6:4 7:3 8:3 9:6 10:7 11:4 12:3 13:3 14:2 15:2 16:2 17:10 18:5 19:9 20:7 21:6 22:6 23:5 24:6 25:5 26:7 27:9 28:9 
-0.4786748191099264 -0.3986078504901676 0.4780076829175885 0.3861530278134549 0.5009486060476785 0.4187201021474437 0.4876348203116482 0.4509766419824526 0.4894916676495135 1:4 2:8 3:7 4:5 5:9 6:5 7:4 8:3 9:4 10:9 11:4 12:3 13:3 14:2 15:2 16:2 17:10 18:7 19:9 20:8 21:7 22:7 23:6 24:7 25:8 26:8 27:10 28:7 
-0.02232616820404516 -0.03331642822448862 0.05631983387421668 0.03247553089774016 0.04240014622638963 0.01731085230220097 0.04195550291913607 0.01208922145169438 0.01413028593842522 1:4 2:7 3:10 4:5 5:4 6:4 7:3 8:3 9:4 10:4 11:4 12:5 13:4 14:3 15:3 16:3 17:10 18:6 19:9 20:7 21:7 22:8 23:6 24:8 25:6 26:8 27:9 28:6 
-0.1879233279586641 -0.1539661740199453 0.2039893000081205 0.1491139519004604 0.1899093062744966 0.1676524304072249 0.1880029524183152 0.1647698548608978 0.1815953388613136 1:6 2:8 3:6 4:4 5:10 6:5 7:4 8:4 9:4 10:5 11:5 12:4 13:3 14:2 15:3 16:11 17:11 18:8 19:9 20:8 21:8 22:8 23:9 24:8 25:9 26:10 27:10 28:8 
-0.7999255896999026 -0.657367848917234 0.8103961493121895 0.6378138757388765 0.830348667961435 0.6997894449659403 0.8041968891402432 0.755916703988377 0.7608120692502519 1:3 2:5 3:5 4:3 5:4 6:4 7:2 8:3 9:5 10:5 11:4 12:3 13:8 14:2 15:10 16:3 17:10 18:5 19:9 20:7 21:6 22:6 23:7 24:7 25:6 26:8 27:11 28:7 
-0.8616737282742271 -0.6921809068193763 0.8223902362676356 0.6714508483907877 0.8912927670150184 0.8644530471511034 0.8479304085758202 0.8102509109427635 0.8078040983765583 1:4 2:11 3:5 4:4 5:4 6:4 7:3 8:11 9:5 10:4 11:4 12:3 13:3 14:2 15:3 16:3 17:10 18:8 19:11 20:9 21:6 22:6 23:6 24:7 25:6 26:8 27:9 28:7 
-0.4737852543230668 -0.3925272799755583 0.4551927175963458 0.3803025217446019 0.4826281957855126 0.4116520818090154 0.4806383660450493 0.4395369232400332 0.4696226637131553 1:9 2:10 3:5 4:4 5:4 6:4 7:3 8:4 9:4 10:5 11:9 12:4 13:3 14:2 15:2 16:11 17:11 18:7 19:12 20:8 21:7 22:7 23:7 24:7 25:8 26:10 27:12 28:9 
-0.7275486430883683 -0.5928541911265889 0.7325876180610255 0.5747952183578575 0.7491626453053813 0.6393905780810651 0.7249285800825697 0.6991704132586044 0.7004479399382751 1:6 2:8 3:6 4:4 5:4 6:4 7:4 8:5 9:5 10:6 11:5 12:7 13:6 14:2 15:11 16:11 17:11 18:8 19:10 20:9 21:9 22:9 23:8 24:9 25:11 26:11 27:12 28:9 
-0.09235137345558553 -0.07576478383618701 0.1069674063088652 0.07323741312687589 0.09338217109017354 0.06298346113718953 0.09308267026835551 0.06661715221742773 0.0843059636301816 1:5 2:8 3:6 4:5 5:5 6:5 7:4 8:5 9:5 10:7 11:5 12:4 13:4 14:3 15:4 16:11 17:11 18:6 19:9 20:7 21:11 22:10 23:11 24:7 25:8 26:8 27:11 28:9 
-0.2234945425309577 -0.1862817975163712 0.246287761830741 0.1809568411400712 0.2324654532850564 0.1780716512894263 0.2285898227316714 0.1979489250874944 0.2043113795911144 1:5 2:9 3:5 4:4 5:4 6:4 7:3 8:4 9:7 10:5 11:5 12:4 13:3 14:2 15:2 16:11 17:11 18:6 19:9 20:7 21:8 22:8 23:7 24:7 25:8 26:8 27:10 28:10 
-0 -0 0 0 0 0 0.002895225478729476 0 0 1:4 2:8 3:5 4:3 5:4 6:4 7:2 8:3 9:3 10:5 11:4 12:3 13:3 14:2 15:1 16:3 17:10 18:4 19:9 20:6 21:6 22:6 23:5 24:5 25:4 26:7 27:9 28:6 
-0.05374737431380899 -0.04692996444334471 0.05370540986791927 0.045350082426429 0.06152429141547398 0.04767079103836957 0.05738815827158576 0.05498261176109649 0.05014980101602346 1:6 2:9 3:5 4:4 5:4 6:10 7:4 8:4 9:5 10:5 11:5 12:4 13:3 14:2 15:2 16:11 17:11 18:6 19:9 20:8 21:8 22:9 23:8 24:8 25:10 26:9 27:10 28:9 
-0.2807813766366881 -0.2282101014783249 0.2754012811998286 0.2219636467881022 0.2858484069121141 0.236820852648391 0.2801418109399146 0.272554252793424 0.2780359222053863 1:7 2:7 3:5 4:3 5:4 6:7 7:9 8:3 9:4 10:4 11:4 12:3 13:3 14:2 15:2 16:2 17:10 18:6 19:10 20:7 21:6 22:6 23:5 24:7 25:6 26:9 27:10 28:7 
-0.983174004802771 -0.7899231853663065 0.9494697821459619 0.765978434856925 1 0.8947181377696906 0.9672139738731009 0.9439747344824096 0.9536368859971982 1:6 2:9 3:10 4:4 5:4 6:4 7:6 8:6 9:11 10:9 11:4 12:3 13:3 14:2 15:2 16:6 17:11 18:8 19:14 20:9 21:8 22:8 23:7 24:7 25:8 26:10 27:11 28:10 
-0.9436297599929458 -0.7738614363083193 0.9369965426111407 0.7505279360836646 0.9755206929735281 0.8242063578025927 0.9468728061184374 0.8873384355563815 0.9084183377431549 1:10 2:9 3:7 4:6 5:11 6:5 7:4 8:3 9:4 10:4 11:6 12:4 13:4 14:4 15:4 16:3 17:11 18:8 19:10 20:9 21:7 22:6 23:6 24:9 25:10 26:10 27:13 28:11 
-0.08181384549281384 -0.04686015286978719 0.0589103642875248 0.04600255207596562 0.1163358452585307 0.09236326234554516 0.05779503393044574 0.1060048659393202 0.06020436961081321 1:9 2:8 3:5 4:4 5:4 6:4 7:5 8:6 9:5 10:5 11:6 12:4 13:4 14:2 15:3 16:11 17:11 18:8 19:10 20:10 21:7 22:7 23:8 24:8 25:8 26:9 27:11 28:10 
-0.07321146666203725 -0.0790705458802765 0.03412561831000979 0.0765890025033269 0.09747321639414369 0.07681711218049708 0.09710250821073919 0.09178641944230338 0.1100058178323758 1:4 2:8 3:5 4:3 5:4 6:4 7:3 8:3 9:5 10:6 11:7 12:3 13:3 14:2 15:5 16:5 17:11 18:5 19:9 20:8 21:8 22:8 23:5 24:6 25:6 26:8 27:9 28:9 
-0.347749130105344 -0.2684473190419631 0.364335494434434 0.2601486046602789 0.3595925833491073 0.2808514281363904 0.326334724857569 0.3506104837338078 0.4231768904601701 1:3 2:5 3:5 4:3 5:4 6:4 7:2 8:3 9:3 10:4 11:5 12:3 13:3 14:6 15:4 16:6 17:11 18:5 19:9 20:8 21:6 22:5 23:5 24:5 25:6 26:7 27:10 28:8 
-0.668380564692821 -0.5101882190438309 0.6118054677584165 0.4949334016756335 0.6491325381364119 0.61781378072549 0.6235113087524294 0.6915635064923121 0.6857506136409433 1:3 2:5 3:5 4:3 5:4 6:4 7:2 8:3 9:6 10:6 11:6 12:5 13:5 14:8 15:5 16:4 17:10 18:8 19:11 20:9 21:8 22:6 23:6 24:6 25:7 26:7 27:10 28:6 
-0.05258082426290248 -0.01880666570419068 0.2309558465800975 0.01812723995995785 0.02319137186971442 0.02279274371573845 0.02296940985292111 0.03559629495445061 0.03007285609251872 1:8 2:8 3:5 4:5 5:4 6:4 7:4 8:4 9:4 10:5 11:7 12:5 13:6 14:5 15:5 16:11 17:11 18:7 19:10 20:8 21:7 22:7 23:8 24:8 25:11 26:12 27:13 28:10 
-0.2717245222057753 -0.1979264168753966 0.2717432117313708 0.192177829408279 0.2467462646096463 0.2405104639266334 0.2397498147863582 0.2606137697551228 0.2493807701392484 1:3 2:5 3:5 4:4 5:4 6:4 7:3 8:4 9:4 10:5 11:5 12:5 13:7 14:6 15:3 16:4 17:10 18:7 19:10 20:7 21:8 22:5 23:7 24:6 25:6 26:9 27:10 28:6 
-0.2466830292051468 -0.1829864436798995 0.2036757871042639 0.1780518005764571 0.2297682355673208 0.2258384802913107 0.2233286856257743 0.3085169283027366 0.3271690640509819 1:5 2:8 3:5 4:5 5:4 6:4 7:3 8:4 9:5 10:9 11:8 12:4 13:4 14:5 15:4 16:11 17:11 18:7 19:11 20:9 21:8 22:8 23:9 24:7 25:9 26:12 27:11 28:8 
-0 -0 0.02472732037952915 0 0 0 0 0 0 1:8 2:9 3:7 4:4 5:4 6:4 7:4 8:4 9:4 10:5 11:5 12:4 13:3 14:2 15:2 16:11 17:11 18:9 19:9 20:7 21:8 22:7 23:7 24:7 25:8 26:9 27:11 28:9 
-0.5667868160408013 -0.4657011375052437 0.5551786618817072 0.4516445132109707 0.5868857021811221 0.4966232927246615 0.5691407570037981 0.531957903579331 0.54595846011159 1:4 2:7 3:5 4:5 5:8 6:11 7:6 8:5 9:6 10:6 11:5 12:3 13:3 14:2 15:2 16:2 17:10 18:7 19:9 20:8 21:6 22:7 23:8 24:9 25:8 26:9 27:10 28:9 
-0.05669551324186396 -0.05176123686252259 0.04714101983146476 0.05068612225086495 0.06574060020802751 0.05129276745537941 0.06339714859135204 0.05732015974645657 0.05607465051625208 1:7 2:8 3:7 4:10 5:5 6:5 7:5 8:4 9:5 10:5 11:5 12:4 13:3 14:2 15:2 16:11 17:11 18:6 19:10 20:9 21:8 22:8 23:8 24:9 25:11 26:11 27:10 28:9 
-0.3389399480238901 -0.2870503559576007 0.3807552986951133 0.2783090714779844 0.3603997987434953 0.3011618546020913 0.3534162287159707 0.3261918615120874 0.3210275634018738 1:5 2:8 3:5 4:4 5:4 6:4 7:3 8:4 9:4 10:5 11:5 12:8 13:4 14:5 15:3 16:11 17:11 18:6 19:9 20:7 21:7 22:7 23:8 24:10 25:11 26:9 27:11 28:8 
-0.8433216425791116 -0.6976350519494511 0.8276037213149119 0.6764665019847631 0.8783198979958731 0.739865975226355 0.8556584736793004 0.7989319661279569 0.8089638361067495 1:2 2:6 3:11 4:3 5:2 6:3 7:2 8:4 9:3 10:5 11:5 12:4 13:1 14:1 15:1 16:1 17:10 18:2 19:7 20:6 21:5 22:5 23:5 24:6 25:6 26:7 27:9 28:6 
-0.199408075851939 -0.1646798706753398 0.2256748584560395 0.1597510567869216 0.2079949801551043 0.1734741638430196 0.2007350835328641 0.1968487085752334 0.1894408216156808 1:6 2:10 3:11 4:7 5:4 6:4 7:3 8:4 9:5 10:5 11:5 12:4 13:3 14:2 15:2 16:11 17:11 18:7 19:10 20:8 21:8 22:8 23:9 24:8 25:9 26:10 27:10 28:10 
-0.5306691918824594 -0.4419439946404463 0.5179724980296555 0.4282520637552832 0.5549111969870262 0.4696654215913924 0.5405762735518722 0.5131254456958649 0.5109310992762269 1:5 2:7 3:5 4:4 5:5 6:10 7:4 8:4 9:8 10:5 11:5 12:4 13:4 14:3 15:3 16:3 17:10 18:5 19:9 20:8 21:7 22:7 23:6 24:12 25:8 26:11 27:9 28:7 
-0.8002451421656912 -0.6446124846024324 0.7725563411979415 0.6250458592603505 0.8114899206618781 0.7009708928546791 0.788208696906445 0.7532884202909251 0.7957015192905975 1:4 2:9 3:5 4:3 5:5 6:4 7:3 8:3 9:4 10:5 11:10 12:3 13:3 14:4 15:10 16:2 17:10 18:7 19:11 20:9 21:6 22:7 23:5 24:7 25:7 26:9 27:11 28:8 
-0.3861228952353354 -0.3225465906960314 0.4082226451990454 0.3130915027564064 0.4077860586066642 0.339260547101715 0.3977485753253437 0.3668646714280147 0.3683385513507697 1:5 2:8 3:5 4:3 5:10 6:5 7:3 8:3 9:4 10:4 11:4 12:3 13:3 14:3 15:2 16:2 17:10 18:5 19:9 20:7 21:8 22:6 23:5 24:7 25:6 26:8 27:9 28:7 
-0 -0.001118103590459324 0 0.001636956795958989 0 0.002139323296561915 0.002115693708308713 0 0 1:5 2:11 3:5 4:4 5:4 6:4 7:3 8:4 9:4 10:5 11:5 12:4 13:3 14:2 15:3 16:11 17:11 18:7 19:10 20:7 21:7 22:7 23:7 24:7 25:9 26:8 27:10 28:9 
-0.01329983578664756 -0 0.03968050369441663 0 0.007603264188840876 0.05880542010714725 0 0.07083411904239026 0.02685358074250597 1:5 2:8 3:5 4:4 5:4 6:4 7:4 8:7 9:7 10:7 11:5 12:4 13:3 14:2 15:2 16:11 17:11 18:7 19:10 20:8 21:9 22:8 23:8 24:7 25:8 26:8 27:11 28:9 
-0.4289577948125268 -0.3480839011836737 0.4332899563666154 0.3380978992129129 0.4382841552367959 0.3850010867225688 0.4269703245089033 0.4073621086903914 0.4335973389141338 1:7 2:8 3:5 4:3 5:4 6:4 7:3 8:3 9:5 10:4 11:9 12:3 13:3 14:2 15:2 16:2 17:10 18:6 19:11 20:8 21:6 22:5 23:4 24:6 25:6 26:8 27:10 28:7 
-0.3918865408337286 -0.3284437495200364 0.4380293451370553 0.3184553366539125 0.4127766826333838 0.3441157581714904 0.4016114681749207 0.370124723355849 0.3740454025578546 1:6 2:8 3:11 4:6 5:5 6:5 7:3 8:4 9:4 10:5 11:6 12:5 13:4 14:4 15:3 16:11 17:11 18:8 19:9 20:9 21:8 22:8 23:8 24:8 25:12 26:13 27:10 28:8 
-0.2235653379529216 -0.179198869162827 0.2162146033410906 0.1739922157715561 0.2347814106548884 0.2791249395160285 0.2193908383618262 0.2642251977284895 0.2604821488678166 1:6 2:9 3:5 4:4 5:6 6:4 7:4 8:8 9:6 10:9 11:7 12:5 13:5 14:3 15:3 16:11 17:11 18:8 19:12 20:10 21:10 22:9 23:8 24:10 25:10 26:9 27:11 28:9 
-0.3151054523387656 -0.2587886694719722 0.3627199344862357 0.2513685362053377 0.3259476743670722 0.2717518606413694 0.3171282237100183 0.3021784277645734 0.306607811127436 1:5 2:8 3:5 4:4 5:8 6:4 7:3 8:4 9:4 10:5 11:6 12:4 13:9 14:3 15:3 16:11 17:11 18:7 19:9 20:9 21:8 22:9 23:9 24:8 25:9 26:9 27:11 28:9 
-0.123558044942605 -0.08217442407137106 0.1327028263654448 0.08012851712529247 0.1085432886636866 0.1017752838269127 0.1001707320166731 0.1255357834909365 0.09163240247622548 1:5 2:8 3:8 4:6 5:6 6:5 7:4 8:3 9:5 10:4 11:4 12:5 13:6 14:3 15:3 16:3 17:10 18:7 19:10 20:10 21:6 22:7 23:8 24:8 25:7 26:8 27:10 28:7 
-0.6107916410299544 -0.4835530354610733 0.6196573879422222 0.4691757036824092 0.6079383396825665 0.5059903699879921 0.5917114560328568 0.5532694969028047 0.577645784606845 1:4 2:8 3:7 4:4 5:5 6:5 7:4 8:3 9:4 10:5 11:6 12:5 13:4 14:3 15:3 16:3 17:11 18:5 19:9 20:6 21:6 22:5 23:6 24:8 25:7 26:7 27:16 28:9 
-0.4765683145998539 -0.3961468490469326 0.4891872561559475 0.3843908363839629 0.4997720462908384 0.4193373803532672 0.4853217700500899 0.4609078563937686 0.4598500365662087 1:5 2:10 3:11 4:7 5:7 6:5 7:5 8:5 9:6 10:6 11:6 12:6 13:6 14:5 15:3 16:11 17:11 18:9 19:10 20:9 21:11 22:11 23:11 24:10 25:11 26:11 27:12 28:10 
-0.5033673016855645 -0.4106930487141442 0.5150021555615389 0.3979825668115528 0.5186172263082703 0.4405500206313461 0.5096561450274115 0.4707310605890617 0.4818947373080291 1:5 2:8 3:7 4:6 5:5 6:5 7:4 8:4 9:5 10:5 11:4 12:3 13:4 14:3 15:3 16:4 17:10 18:5 19:9 20:6 21:6 22:12 23:8 24:8 25:6 26:8 27:9 28:8 
-0.3379996176605189 -0.2804601005030847 0.3242065478179441 0.2728430020069187 0.3574917756073607 0.2964385939293727 0.3438557814834607 0.321062455474271 0.3257673450578241 1:5 2:8 3:5 4:11 5:4 6:4 7:3 8:7 9:5 10:5 11:6 12:4 13:3 14:2 15:2 16:11 17:11 18:6 19:9 20:8 21:9 22:9 23:9 24:9 25:9 26:10 27:10 28:8 
-0.3072508614143985 -0.2373514223126515 0.2851545729627934 0.2302527414913211 0.2976846080788021 0.2754082081091544 0.2901240988889996 0.2911904170808349 0.2849252272543749 1:5 2:8 3:8 4:6 5:5 6:4 7:5 8:5 9:6 10:5 11:7 12:9 13:6 14:5 15:5 16:11 17:11 18:8 19:11 20:10 21:10 22:11 23:9 24:10 25:9 26:9 27:12 28:12 
-0.7548765127689979 -0.6210818287865753 0.7418116398224475 0.6019985311517299 0.7940660748790193 0.6591366743092613 0.7600056478790259 0.7253778722410064 0.7296688538742807 1:6 2:8 3:6 4:4 5:4 6:4 7:11 8:4 9:4 10:5 11:5 12:4 13:3 14:2 15:2 16:11 17:11 18:7 19:10 20:8 21:8 22:9 23:8 24:8 25:9 26:8 27:11 28:8 
-0.06697948057925338 -0.0337135295863364 0.06584495982890196 0.03276268188589473 0.03998026011357383 0.04799812761678689 0.04130564358198565 0.08015225552906213 0.1399150227245688 1:4 2:7 3:6 4:3 5:4 6:5 7:3 8:4 9:4 10:7 11:6 12:5 13:4 14:2 15:6 16:5 17:10 18:5 19:9 20:7 21:7 22:6 23:8 24:8 25:6 26:10 27:12 28:7 
-0.3301626012087064 -0.2866517019989764 0.3332507805015866 0.278148011430363 0.3578522246825594 0.2892492098658775 0.3499373251196974 0.3152794456480682 0.3089446145081495 1:4 2:5 3:8 4:6 5:5 6:4 7:2 8:3 9:3 10:4 11:5 12:4 13:3 14:3 15:1 16:2 17:10 18:5 19:9 20:9 21:6 22:5 23:6 24:5 25:6 26:6 27:9 28:6 
-0.6309997726646017 -0.5188427706666874 0.6126182444458741 0.5030976680340963 0.6541066457657644 0.5670796118666073 0.6354506292941128 0.6092565897528255 0.6921977269854527 1:4 2:7 3:5 4:3 5:6 6:8 7:6 8:5 9:7 10:9 11:8 12:3 13:3 14:2 15:2 16:2 17:10 18:8 19:11 20:8 21:8 22:8 23:6 24:8 25:8 26:9 27:10 28:6 
-0.004906998878077903 -0.01687531608350355 0.04274695421065022 0.01577167503193489 0.01220657996940405 0.008034661427572863 0.02118337104335953 0.02785480243290677 0.006556177134187061 1:9 2:8 3:5 4:5 5:4 6:4 7:3 8:4 9:6 10:5 11:7 12:4 13:4 14:2 15:3 16:11 17:11 18:6 19:9 20:8 21:9 22:9 23:7 24:7 25:8 26:11 27:12 28:9 
-0.2135674050784921 -0.1749161817330473 0.2538983250284044 0.169749609766176 0.2181193398565601 0.1920256603826568 0.2143870416951463 0.2013927406032473 0.2165838648740042 1:7 2:10 3:7 4:10 5:6 6:4 7:3 8:4 9:5 10:5 11:7 12:4 13:4 14:2 15:3 16:11 17:11 18:8 19:10 20:9 21:8 22:8 23:8 24:9 25:9 26:12 27:12 28:10 
-0.207858342275508 -0.1734442708524926 0.2268922207517937 0.1679324178259045 0.2159789081878236 0.1917587775179491 0.2121034263387871 0.1838933833894433 0.1910352344705903 1:4 2:7 3:7 4:3 5:4 6:4 7:3 8:4 9:4 10:4 11:9 12:4 13:3 14:2 15:2 16:3 17:10 18:6 19:10 20:7 21:5 22:5 23:4 24:8 25:8 26:8 27:10 28:6 
-0.9282742096947078 -0.7500982477232351 0.8922806440899647 0.7277272087637903 0.9508702749717387 0.8132399179697208 0.9184389907160793 0.9122677383353883 0.9451219884371446 1:3 2:8 3:6 4:4 5:4 6:11 7:10 8:5 9:6 10:10 11:6 12:5 13:4 14:2 15:4 16:6 17:10 18:7 19:12 20:11 21:10 22:9 23:8 24:8 25:9 26:9 27:11 28:10 
-0.9016094684637695 -0.7131130419647076 0.8823389518362179 0.6919882282957039 0.9639794557437976 1 0.8736873463616669 0.9558012482505652 0.8783197380310266 1:5 2:8 3:5 4:4 5:4 6:4 7:3 8:11 9:10 10:5 11:4 12:3 13:3 14:2 15:5 16:6 17:10 18:8 19:12 20:9 21:8 22:8 23:7 24:8 25:7 26:8 27:11 28:6 
-0.04312310497903509 -0.03588694942504392 0.03157476065318602 0.03493690916019792 0.04465821752076812 0.03912446117967975 0.04488088571428697 0.04254311213134437 0.04112315250430251 1:5 2:8 3:11 4:5 5:4 6:4 7:3 8:4 9:4 10:5 11:6 12:4 13:3 14:2 15:3 16:11 17:11 18:7 19:9 20:8 21:8 22:8 23:8 24:8 25:10 26:9 27:10 28:8 
-0.8965037933624131 -0.727901023153688 0.8802687349829852 0.7057500356136946 0.9171767873219779 0.7755674260516339 0.8913406320379211 0.8507708231902242 0.8944933886754629 1:4 2:7 3:5 4:6 5:7 6:5 7:3 8:4 9:4 10:7 11:10 12:6 13:6 14:5 15:6 16:6 17:11 18:5 19:10 20:10 21:8 22:9 23:6 24:8 25:10 26:10 27:12 28:14 
-0.4298738488685599 -0.3496683960819983 0.4179926991111447 0.3388536675699347 0.4387165690812883 0.376826956776706 0.4284418595869121 0.4499966753764607 0.4172510443196518 1:5 2:8 3:5 4:4 5:4 6:4 7:3 8:4 9:8 10:7 11:9 12:7 13:5 14:4 15:4 16:11 17:11 18:6 19:10 20:10 21:9 22:8 23:11 24:9 25:9 26:9 27:12 28:10 
-0.2361835050463286 -0.1947746177311686 0.2423258367784982 0.1893294234134014 0.2525282951521382 0.2044689774898654 0.2386522193747763 0.2470555773232344 0.2251907088471284 1:5 2:8 3:6 4:4 5:8 6:9 7:7 8:4 9:4 10:5 11:5 12:4 13:3 14:3 15:4 16:11 17:11 18:6 19:9 20:9 21:10 22:10 23:10 24:9 25:10 26:9 27:11 28:8 
-0.2578626919250974 -0.2110946567115728 0.347233282978977 0.2045298206504625 0.2515246849579293 0.2201486985775463 0.2586195711950809 0.2087405007782721 0.233245044511761 1:7 2:7 3:7 4:3 5:4 6:4 7:2 8:3 9:3 10:4 11:5 12:3 13:3 14:4 15:6 16:5 17:11 18:6 19:9 20:7 21:6 22:6 23:6 24:5 25:8 26:8 27:11 28:9 
-0.5091393311495356 -0.4118444834998645 0.5048762463542132 0.3992687427679489 0.5176376658166633 0.443165458801569 0.5039935201446379 0.4748174636590492 0.4760193830522366 1:6 2:8 3:5 4:4 5:4 6:5 7:3 8:4 9:4 10:6 11:5 12:6 13:10 14:2 15:2 16:11 17:11 18:8 19:10 20:7 21:8 22:8 23:8 24:8 25:9 26:10 27:12 28:8 
-0.4950567078032659 -0.4131404087518182 0.5168021306761132 0.3999204265147057 0.5251036216177013 0.4328193139994055 0.5055097191936161 0.474053720649412 0.4784887126491601 1:6 2:9 3:6 4:4 5:11 6:5 7:4 8:5 9:5 10:5 11:5 12:5 13:4 14:3 15:3 16:11 17:11 18:6 19:9 20:9 21:9 22:9 23:9 24:12 25:10 26:9 27:11 28:9 
-0.5464158247130358 -0.4493083240913934 0.5413507193160226 0.436264143360997 0.5784301575410445 0.5042227064056819 0.5497904499087554 0.5532061376077648 0.5236534892137112 1:6 2:9 3:5 4:6 5:4 6:11 7:4 8:8 9:7 10:6 11:5 12:5 13:4 14:3 15:5 16:11 17:11 18:8 19:11 20:10 21:11 22:10 23:9 24:11 25:9 26:11 27:11 28:9 
-0.3216121937642888 -0.2645638291650963 0.3218371101499134 0.2567697221725397 0.3368485110843198 0.2966832953622894 0.3239369402574656 0.3446433285726726 0.315458970496431 1:8 2:9 3:9 4:7 5:4 6:4 7:3 8:4 9:5 10:5 11:7 12:7 13:3 14:6 15:6 16:11 17:11 18:7 19:11 20:10 21:10 22:9 23:9 24:9 25:10 26:12 27:12 28:10 
-0.38457430364655 -0.312980361647502 0.4183600369353934 0.3036220901353796 0.3936375581964964 0.3328189415388835 0.3830105654606651 0.3537957435958266 0.3609892614820778 1:7 2:8 3:7 4:4 5:4 6:4 7:3 8:4 9:4 10:6 11:6 12:8 13:8 14:5 15:3 16:11 17:11 18:7 19:9 20:8 21:8 22:8 23:8 24:8 25:11 26:11 27:14 28:11 
-0.06419123198938675 -0.06823221302360261 0.0604120629095469 0.06617392755838521 0.08310342700350851 0.05765494130546109 0.08390567728388752 0.05967283403907336 0.0644901139947088 1:6 2:7 3:5 4:6 5:8 6:4 7:4 8:3 9:4 10:5 11:7 12:4 13:3 14:2 15:2 16:3 17:11 18:6 19:9 20:9 21:8 22:6 23:6 24:8 25:7 26:8 27:9 28:8 
-0.9501335251661419 -0.783539040041396 0.9297442206951885 0.7601366090006338 0.9888568542371601 0.8373491253855446 0.9592179705216161 0.8998445073939045 0.9186703206295269 2:3 3:4 4:5 5:6 6:5 7:3 8:8 9:6 10:9 11:4 12:3 13:1 14:1 15:1 16:1 17:10 18:3 19:10 20:6 21:5 22:6 23:5 24:5 25:5 26:7 27:10 28:8 
-0.4555763834197347 -0.3787265847899554 0.4704339783553184 0.3668437742657821 0.474718284472692 0.3927876097655027 0.4625919648357563 0.4669137314107769 0.4416873825239963 1:5 2:5 3:6 4:4 5:6 6:6 7:4 8:4 9:4 10:4 11:5 12:4 13:4 14:2 15:1 16:2 17:10 18:5 19:9 20:7 21:6 22:5 23:5 24:5 25:5 26:12 27:11 28:6 
-0.3244766923161693 -0.267296784968643 0.3253318285568536 0.2579124017527772 0.3379015908085722 0.2874480061388394 0.3268045214889348 0.3259986097016701 0.3114228357492385 1:5 2:8 3:5 4:11 5:4 6:5 7:3 8:4 9:5 10:5 11:5 12:4 13:4 14:2 15:2 16:11 17:11 18:6 19:9 20:9 21:8 22:9 23:9 24:8 25:9 26:9 27:10 28:8 
-0.5696274996916331 -0.4679195600300442 0.6071686744376601 0.454138073565974 0.5905439004437876 0.4971693461736948 0.5724096910159946 0.5352363999984205 0.5589553293091239 1:5 2:8 3:11 4:5 5:4 6:5 7:3 8:4 9:4 10:5 11:5 12:4 13:3 14:5 15:8 16:11 17:11 18:8 19:9 20:7 21:10 22:9 23:9 24:9 25:10 26:10 27:11 28:9 
-0.8219992655099501 -0.6403710645417573 0.8660485746723308 0.620940874041901 0.809980652448377 0.6979765109500439 0.7833565531985784 0.7782787407324891 0.8001035781304265 1:5 2:9 3:7 4:4 5:4 6:5 7:3 8:3 9:4 10:4 11:6 12:4 13:5 14:10 15:5 16:4 17:10 18:7 19:10 20:8 21:7 22:7 23:8 24:7 25:6 26:11 27:13 28:8 
-0.6948764400897467 -0.5776220870403835 0.7163156160798415 0.5596807191911554 0.7262863603850285 0.6127082942274057 0.7066174903530289 0.6617231362277917 0.6609884530595364 1:5 2:8 3:5 4:5 5:5 6:5 7:3 8:4 9:4 10:5 11:6 12:5 13:4 14:3 15:3 16:11 17:11 18:6 19:9 20:7 21:7 22:7 23:7 24:7 25:8 26:16 27:10 28:8 
-0.2685660462051896 -0.1988180018848028 0.2752438240664412 0.1924796890607757 0.2715610099053741 0.2340845980658803 0.2478108796426541 0.2812578236952972 0.2628570123667694 1:3 2:5 3:5 4:3 5:4 6:4 7:2 8:3 9:3 10:4 11:4 12:3 13:3 14:3 15:2 16:4 17:10 18:5 19:9 20:7 21:6 22:5 23:4 24:4 25:4 26:6 27:9 28:6 
-0.9295094895090402 -0.7666478123620101 0.9272216976439573 0.7433667047349812 0.9659414850005226 0.8167608125751071 0.9381132301925421 0.8836534705508693 0.8973273618626187 1:4 2:7 3:5 4:3 5:11 6:5 7:4 8:4 9:6 10:5 11:4 12:3 13:10 14:3 15:2 16:5 17:10 18:6 19:9 20:8 21:9 22:11 23:7 24:9 25:7 26:9 27:10 28:6 
-0.6814265427598896 -0.5596063516687002 0.6598228190755171 0.542542749515857 0.7032601907112255 0.5899326160687027 0.6843130324923645 0.6466729638600001 0.6611736146854883 1:6 2:10 3:5 4:4 5:4 6:11 7:3 8:4 9:4 10:9 11:6 12:6 13:5 14:5 15:6 16:11 17:11 18:8 19:10 20:11 21:10 22:10 23:9 24:9 25:11 26:10 27:12 28:10 
-0.1619163618699106 -0.1134080147712847 0.1291784735765414 0.1095730469295253 0.1392397897586886 0.1192744647388783 0.1384405813713842 0.1070835182026414 0.1488051769704966 1:6 2:9 3:9 4:4 5:4 6:4 7:3 8:4 9:5 10:8 11:7 12:5 13:6 14:5 15:2 16:11 17:11 18:10 19:10 20:8 21:10 22:9 23:9 24:9 25:8 26:9 27:11 28:10 
-0.6744455763754904 -0.5595879106366206 0.659550973325012 0.5428253599504238 0.7047107208275953 0.5955372917000534 0.6848762915487142 0.6436928044734097 0.6506489651182215 1:8 2:10 3:8 4:5 5:5 6:6 7:4 8:5 9:5 10:6 11:7 12:8 13:5 14:4 15:3 16:11 17:11 18:8 19:10 20:9 21:15 22:9 23:9 24:8 25:9 26:11 27:13 28:10 
-0.6744341035243416 -0.5614786576864659 0.6606208272074888 0.5447135762266698 0.7071653524778407 0.5942721358197911 0.6939092795847893 0.6387550999577563 0.6517208664913632 1:4 2:7 3:6 4:4 5:5 6:5 7:4 8:4 9:5 10:4 11:4 12:4 13:5 14:7 15:2 16:3 17:10 18:5 19:9 20:6 21:6 22:9 23:10 24:11 25:5 26:7 27:9 28:6 
-0.6300317491220513 -0.5168450727074193 0.6236759813339714 0.501620157911837 0.658099380043721 0.5545143650896107 0.6327989578087622 0.6192547299966833 0.6039707965237319 1:6 2:7 3:5 4:3 5:4 6:11 7:5 8:4 9:4 10:4 11:4 12:4 13:5 14:4 15:5 16:4 17:10 18:6 19:10 20:8 21:6 22:10 23:6 24:11 25:7 26:9 27:10 28:6 
-0.8173446224017646 -0.6167655767768807 0.7320816714377569 0.5985065125421849 0.7936952002184138 0.7858658833469834 0.7549695074200142 0.7952751807739861 0.78247457596007 1:7 2:9 3:5 4:4 5:4 6:4 7:4 8:5 9:5 10:6 11:6 12:5 13:3 14:4 15:4 16:11 17:11 18:7 19:17 20:9 21:8 22:8 23:7 24:7 25:8 26:8 27:10 28:8 
-0.4336242735707346 -0.36142898731912 0.4263424209231197 0.3509657504675518 0.4549257167841479 0.3819710720536188 0.4424590386814999 0.4120239572218055 0.4185878529583439 1:5 2:8 3:10 4:6 5:6 6:5 7:4 8:5 9:4 10:5 11:5 12:5 13:5 14:3 15:3 16:11 17:11 18:6 19:9 20:8 21:9 22:11 23:12 24:11 25:9 26:8 27:10 28:8 
-0.2967019504985443 -0.2272929121268003 0.2575286806516302 0.2203990344572375 0.2815323378678822 0.2494674064508142 0.277776409651772 0.2621421517430761 0.2836013995010827 1:7 2:9 3:6 4:4 5:5 6:4 7:3 8:4 9:4 10:6 11:7 12:9 13:4 14:2 15:2 16:11 17:11 18:7 19:11 20:9 21:7 22:7 23:7 24:8 25:9 26:9 27:13 28:11 
-0.01063074301452039 -0.006513884306367132 0.005017400824965098 0.005842931101531939 0.007990036581139337 0.008757733533456907 0.008837028840893664 0.02242156084146543 0.00268859129683474 1:4 2:7 3:5 4:3 5:4 6:5 7:11 8:3 9:4 10:4 11:5 12:4 13:3 14:2 15:2 16:3 17:10 18:6 19:10 20:7 21:6 22:7 23:6 24:7 25:7 26:8 27:9 28:6 
-0.6623385943276872 -0.5360341946965085 0.6526263712561893 0.5199342744192784 0.6961428617957695 0.5781116260085242 0.6591841923295664 0.6457816326563753 0.6623199040969527 1:2 2:6 3:4 4:3 5:3 6:3 7:3 8:4 9:5 10:6 11:4 12:5 13:1 14:2 15:1 16:2 17:10 18:2 19:9 20:6 21:4 22:5 23:5 24:4 25:6 26:7 27:10 28:6 
-0.2965760274641011 -0.1951024869138389 0.6117082393178329 0.1885218622522617 0.3006794429006157 0.2492472695818499 0.2407200494559399 0.3325627263105554 0.2928240903983809 1:4 2:10 3:5 4:3 5:4 6:4 7:3 8:3 9:4 10:4 11:5 12:3 13:3 14:4 15:6 16:8 17:10 18:5 19:10 20:7 21:6 22:6 23:6 24:7 25:8 26:9 27:11 28:8 
-0.680825349204158 -0.5619589918181411 0.6681254308716309 0.5448550950078966 0.7101077690737878 0.5961730600699405 0.6876492848574149 0.6517582324068423 0.654082794209441 1:4 2:8 3:6 4:5 5:8 6:5 7:11 8:5 9:4 10:4 11:4 12:3 13:3 14:2 15:3 16:2 17:10 18:6 19:11 20:8 21:7 22:7 23:8 24:8 25:8 26:9 27:9 28:6 
-0.2400965426103266 -0.1499333964851218 0.281960207121332 0.1460235950512163 0.188278227223456 0.1731871013359332 0.1836889634229693 0.2260951876879644 0.193594297354463 1:7 2:7 3:7 4:7 5:6 6:4 7:3 8:3 9:4 10:4 11:7 12:6 13:4 14:2 15:3 16:8 17:11 18:6 19:11 20:9 21:7 22:6 23:6 24:9 25:8 26:10 27:12 28:9 
-0.1338724215970729 -0.08733248373829719 0.1768805464307932 0.08519787728554096 0.1123075396146082 0.132645286682871 0.1061767735216628 0.1656563084340008 0.1516029755497974 1:7 2:5 3:5 4:4 5:4 6:4 7:2 8:4 9:4 10:5 11:4 12:3 13:3 14:2 15:2 16:3 17:10 18:5 19:9 20:8 21:5 22:5 23:4 24:5 25:6 26:7 27:10 28:7 
-0.866445736351536 -0.7086201478340819 0.8625065451041846 0.6873546176624065 0.8997630882216856 0.858688821992869 0.867337043367116 0.8513263913522415 0.8366094050107654 1:5 2:9 3:6 4:4 5:4 6:5 7:8 8:9 9:8 10:6 11:7 12:5 13:9 14:5 15:2 16:11 17:11 18:10 19:12 20:9 21:10 22:8 23:10 24:10 25:10 26:12 27:13 28:10 
-0.6950139277234778 -0.5666331220443221 0.7337269485429182 0.5495894482019245 0.7157786641395188 0.6063120097037132 0.6935826847234625 0.6638529486561371 0.6637522666453803 1:5 2:10 3:6 4:3 5:4 6:11 7:3 8:3 9:5 10:4 11:4 12:3 13:3 14:5 15:6 16:11 17:11 18:7 19:10 20:8 21:9 22:8 23:8 24:9 25:8 26:10 27:10 28:10 
-0.01378515561463215 -0.02250070610773961 0 0.02149811727728088 0.02556790540812759 0.010825378564834 0.02704303551600052 0.004211330177120741 0.01152894211567372 1:5 2:9 3:8 4:4 5:4 6:4 7:3 8:6 9:4 10:7 11:5 12:4 13:3 14:2 15:2 16:11 17:11 18:6 19:10 20:8 21:8 22:7 23:9 24:9 25:9 26:8 27:10 28:8 
-0.1756197789029707 -0.1010521217293173 0.1274243345816362 0.09821344830649059 0.12792422103583 0.1492269683625851 0.1240929274864713 0.1601855745234599 0.1426445791945022 1:4 2:7 3:5 4:3 5:4 6:4 7:4 8:3 9:4 10:6 11:4 12:6 13:4 14:3 15:7 16:4 17:10 18:8 19:9 20:8 21:7 22:6 23:5 24:7 25:7 26:9 27:10 28:6 
-0.04374529743285462 -0.01123282133821231 0.1344644362029356 0.01100789217238616 0.0258405900588309 0.01740274290343484 0.01302559873205481 0.05679575522317012 0.09350952836163616 1:4 2:6 3:6 4:3 5:4 6:4 7:2 8:3 9:4 10:4 11:4 12:3 13:3 14:2 15:2 16:6 17:11 18:5 19:9 20:7 21:5 22:4 23:5 24:6 25:5 26:7 27:11 28:7 
-0.1295647108364718 -0.1051528784563248 0.109623832620656 0.102006823441722 0.1362127229705388 0.1067871565163144 0.1282867130899523 0.1189775829702659 0.1201531606505401 1:5 2:8 3:6 4:5 5:5 6:5 7:4 8:5 9:5 10:6 11:5 12:4 13:4 14:2 15:3 16:11 17:11 18:7 19:9 20:8 21:10 22:12 23:7 24:7 25:8 26:8 27:10 28:8 
-0.4050992093639715 -0.3343737029624162 0.4179666098771596 0.3250166682516203 0.4387859685075805 0.3555615918707615 0.4099547525495932 0.4203672443590058 0.3945636406266034 1:7 2:9 3:5 4:4 5:4 6:4 7:3 8:4 9:4 10:5 11:5 12:4 13:3 14:2 15:9 16:11 17:11 18:6 19:10 20:9 21:8 22:8 23:8 24:7 25:9 26:9 27:11 28:9 
-0.4053616194778248 -0.3352946980927712 0.4085399703815731 0.3249083918301833 0.4253829328401747 0.3616252486481837 0.4095433287548268 0.3842515530001103 0.3878318725390452 1:5 2:10 3:6 4:11 5:5 6:4 7:4 8:7 9:5 10:5 11:5 12:4 13:4 14:3 15:3 16:11 17:11 18:7 19:10 20:8 21:8 22:10 23:11 24:10 25:10 26:10 27:10 28:9 
-0.01751944485344994 -0.01884033894707808 0.01662124306880825 0.0185419005111026 0.0292357476159815 0.01655797158772139 0.0239159002953396 0.03847282721759452 0.02112735355738683 1:8 2:9 3:6 4:5 5:6 6:10 7:4 8:4 9:4 10:5 11:6 12:4 13:3 14:2 15:2 16:11 17:11 18:6 19:10 20:11 21:8 22:8 23:8 24:10 25:10 26:10 27:11 28:8 
-0.3174717987778738 -0.255035293187883 0.3196150120397379 0.2472997460393737 0.3255979116135069 0.3185480132176111 0.3116229701177568 0.3461608914403818 0.2973949978129311 1:5 2:8 3:7 4:4 5:5 6:5 7:6 8:6 9:6 10:6 11:5 12:8 13:6 14:5 15:4 16:11 17:11 18:9 19:11 20:9 21:8 22:11 23:11 24:8 25:10 26:12 27:11 28:8 
-1 -0.8321705715761747 0.9878182419119784 0.8078322351497168 1 0.8972861322620488 1 0.9584268902534326 1 1:5 2:7 3:6 4:5 5:5 6:11 7:4 8:5 9:5 10:11 11:5 12:4 13:3 14:4 15:9 16:2 17:10 18:10 19:13 20:11 21:11 22:8 23:7 24:8 25:7 26:8 27:11 28:7 
-0.231916100570506 -0.1791312849666553 0.1936819153395364 0.1739778577037136 0.2302661258655807 0.2939688489341186 0.2193847205314681 0.275667351022765 0.2164043802704262 1:4 2:8 3:8 4:3 5:4 6:4 7:3 8:5 9:5 10:6 11:4 12:7 13:3 14:2 15:2 16:3 17:10 18:6 19:11 20:9 21:7 22:6 23:5 24:6 25:7 26:8 27:10 28:6 
-0.6707104363960381 -0.5551628277876699 0.657649384739471 0.5386544171500184 0.7032438245840912 0.5930668314641411 0.6799379327255126 0.6545979349336293 0.6532807283723213 1:3 2:5 3:5 4:3 5:4 6:11 7:3 8:5 9:3 10:4 11:4 12:3 13:3 14:2 15:1 16:4 17:10 18:4 19:9 20:7 21:7 22:5 23:6 24:6 25:6 26:8 27:9 28:6 
-0.2052466130389368 -0.1723711226366657 0.2107680045708236 0.1669423779487396 0.2162079144311372 0.1820732115345424 0.2110884092318098 0.1972198666315899 0.1919242568317427 1:4 2:7 3:5 4:3 5:4 6:11 7:3 8:4 9:5 10:4 11:4 12:3 13:3 14:2 15:2 16:2 17:10 18:5 19:9 20:7 21:6 22:6 23:5 24:7 25:7 26:8 27:9 28:7 
-0.5573468798029101 -0.4372787548645137 0.5379329552742963 0.4247579897449985 0.5489259236174124 0.5035884110636909 0.5358919397219005 0.4989793325939379 0.5141322501122528 1:6 2:9 3:10 4:5 5:4 6:4 7:4 8:5 9:6 10:6 11:6 12:6 13:4 14:3 15:2 16:11 17:11 18:12 19:12 20:8 21:9 22:8 23:8 24:8 25:9 26:8 27:10 28:10 
-0.4883457257530009 -0.397471963790021 0.5230020997105274 0.3852970455472524 0.525359200556632 0.4257127044313627 0.4856471681759511 0.5335012286727475 0.4593791878883223 1:4 2:7 3:7 4:4 5:5 6:5 7:4 8:4 9:5 10:4 11:4 12:4 13:6 14:3 15:9 16:4 17:11 18:6 19:9 20:10 21:9 22:8 23:5 24:7 25:8 26:9 27:11 28:8 
-0.7694611353222249 -0.5925642842051687 0.8042213093513148 0.5753599465963561 0.7753516852669319 0.6979551201356925 0.7257959784014784 0.8401005879571559 0.7314713103001583 1:6 2:9 3:5 4:4 5:4 6:4 7:6 8:7 9:6 10:6 11:7 12:6 13:6 14:6 15:7 16:11 17:11 18:7 19:11 20:10 21:9 22:12 23:9 24:8 25:8 26:10 27:15 28:12 
-0.5054986547900925 -0.4160923504976382 0.4963013009091701 0.4034920794257956 0.5222089140856521 0.4410308370042115 0.5091967435009529 0.4711959166545449 0.4927624172522764 1:6 2:8 3:6 4:7 5:8 6:11 7:7 8:4 9:4 10:6 11:6 12:4 13:3 14:3 15:2 16:11 17:11 18:8 19:10 20:10 21:9 22:9 23:10 24:10 25:11 26:10 27:12 28:8 
-0.4059531440806831 -0.3378171905998397 0.4003052435473832 0.3276694255287751 0.4269977968566068 0.3484078942412477 0.412958790554741 0.3770253484252312 0.3870898855974539 1:4 2:7 3:5 4:4 5:5 6:6 7:3 8:3 9:4 10:4 11:5 12:3 13:3 14:6 15:10 16:3 17:11 18:6 19:9 20:8 21:6 22:7 23:6 24:8 25:7 26:10 27:11 28:8 
-0 -0 -0 0 0 0 0 0.01832994382283656 0 1:5 2:9 3:5 4:4 5:5 6:3 7:4 8:6 9:9 10:4 11:2 12:2 13:4 14:5 15:5 16:9 17:8 18:6 19:11 20:6 21:5 22:6 23:7 24:7 25:9 26:9 27:15 28:8 
